const float conv1_weight[6][3][3] = {{0.11901429, 0.21282895, -0.40481064, -0.100318715, -0.21596675, 0.29181996, -0.29599902, -0.09866515, 0.42496935}, {0.20143986, -0.060309462, 0.19097397, 0.16028519, -0.023463342, 0.26907495, -0.24680872, -0.15542781, -0.029325897}, {-0.18100522, -0.124754265, -0.025351524, 0.12444534, 0.2830838, -0.2791377, 0.4538686, 0.44831508, 0.101169094}, {0.054065097, -0.07308818, 0.18641077, 0.39359477, 0.19729239, 0.34366232, 0.1015125, 0.0676406, -0.03829414}, {-0.20349143, 0.03184217, 0.3648973, 0.3667244, -0.017814124, 0.32581398, 0.3418006, -0.25387028, -0.34388432}, {-0.6924088, -0.52818364, -0.59274334, 0.14864478, 0.18849666, 0.0035403955, 0.25961825, 0.12899853, -0.14187498}};
const float conv1_bias[6] = {-0.09015984, 0.13473655, 0.38389772, -0.20177224, 0.10421821, -0.19511217};
const float conv2_weight[4][6][3] = {{-0.31205732, -0.216752, -0.33857518, 0.20812002, 0.22711249, 0.36611068, 0.06451693, 0.01326234, 0.12546067, 0.06846962, -0.16005696, -0.115077995, -0.012607251, -0.24439195, 0.051117193, 0.38738534, 0.40147504, -0.03236541}, {0.26859468, -1.0026851, -0.9902938, 0.15177056, 0.12048833, 0.09367199, 0.18944664, -0.024001181, -0.028006796, 0.18118334, -0.10722472, -0.06312205, 0.09814157, -0.25832495, -0.124124944, -0.54066235, -0.55798864, 0.14647195}, {0.23565874, -1.4390548, -1.2969456, 0.05102779, 0.1891175, -0.130869, 0.25221196, -0.07741693, -0.17984171, 0.074585095, -0.07331026, 0.11176696, 0.24946167, -0.21004376, -0.23885335, -0.033827227, -0.14830096, 0.15742119}, {1.252595, 0.88236463, 1.1287991, -0.16706567, 0.10379327, -0.15677492, -0.038836345, 0.18299219, -0.0030222808, -0.2038839, 0.00044172604, -0.19034508, 0.42414385, 0.024935523, 0.12741628, -0.14748865, -0.042816184, -0.16757177}};
const float conv2_bias[4] = {-0.16480283, -0.121560924, 0.0027155627, -0.082409725};
const float net1_weight[45][180] = {{0.6173508, -0.11644325, -0.05269097, 0.06322588, 0.06579291, 0.103192896, 0.04352115, -0.0064624357, -0.013192127, -0.00892546, 0.12172038, 0.09437402, 0.08379126, 0.03736815, 0.042538792, 0.10696406, 0.088536635, 0.018384354, 0.12627277, 0.13503414, 0.11409735, 0.037022464, 0.018403675, 0.053502105, 0.07421662, 0.0691153, -0.0039208704, -0.030491924, 0.04349589, 0.13549343, 0.10921965, -0.021071881, -0.024385354, -0.003446279, 0.12743048, 0.09815777, 0.0929305, -0.04995906, 0.093081795, 0.10101494, 0.06471377, 0.025159864, 0.06181523, 0.027216462, -0.2744802, 0.02672302, 0.12339853, -0.06974838, 0.015847685, 0.04243251, 0.07594353, 0.047201306, -0.025489517, 0.068372846, -0.043923583, 0.11239913, -0.05553313, 0.06707512, 0.024596116, 0.078204304, 0.036902554, -0.0077611106, -0.06463357, -0.018013388, 0.039354824, 0.13144271, -0.021560354, 0.01980856, 0.044026922, -0.00093139405, 0.04384334, -0.087432444, -0.1529653, 0.029153788, -0.025913289, -0.058324028, -0.07223399, -0.057775676, 0.043890815, 0.022617126, 0.07175706, 0.050842874, 0.015971055, 0.03179328, -0.01986242, -0.027118938, 0.0010755272, -0.070384204, 0.0063474122, 0.12353873, 0.0329633, 0.089479335, 0.06414837, 0.094094485, 0.15469871, 0.14019461, 0.09644198, 0.05033319, 0.11890559, 0.21872266, 0.23263603, 0.05145753, -0.023309939, 0.14594555, 0.19505727, 0.2355526, 0.058479447, 0.051879518, 0.11322601, 0.08553192, 0.20683756, 0.057716753, 0.04800227, 0.16317675, 0.14155312, 0.2957434, 0.16763735, 0.08007285, 0.17383294, 0.017862188, 0.15783791, 0.011093504, 0.0063184393, 0.10072528, 0.15097159, 0.1354795, -0.07459282, -0.012312223, 0.09809588, 0.07794654, 0.32058585, 0.06242587, -0.113285474, 0.023707872, 0.080431744, 0.050320175, 0.017034682, -0.08496048, -0.029074827, -0.06735716, -0.041220058, 0.024238847, 0.031945866, 0.006524496, -0.049277622, -0.019486787, 0.023319153, -0.020803953, -0.009248057, 0.00096001785, 0.024837652, 0.022176126, -0.024522638, 0.018660823, -0.015499088, -0.018931689, -0.07606805, 0.032183163, 0.023052149, -0.008892248, 0.021919118, -0.026720827, -0.02309918, -0.014726447, -0.10609727, -0.0042267456, -0.010455312, 0.005035088, -0.03965985, -0.061775587, 0.013177466, -0.06740359, 0.004192249, 0.016798638, -0.052913934, 0.05301609, -0.004781933, 0.02423658, 0.060781267, 0.06614558}, {-0.6960066, 0.4516886, 0.04862944, 0.112802304, 0.06805774, 0.094936244, 0.08122547, 0.11978248, 0.12426865, 0.15223233, 0.047215145, -0.015929233, -0.028296761, -0.005592925, -0.06365952, 0.011502079, -0.036162212, -0.060835652, -0.0042486377, -0.05809982, -0.08159358, -0.0600161, -0.044804666, -0.11229494, -0.03343763, -0.13644063, -0.091703504, -0.15987821, -0.16614498, -0.06943354, -0.04656507, -0.13370878, -0.10835975, -0.11930981, -0.021988092, -0.08761423, -0.13024697, -0.09973824, -0.23851146, -0.102561556, -0.11635697, -0.14080991, -0.2576833, -0.30918932, 0.019790579, 0.011023004, -0.24954541, 0.013256223, -0.01317876, 0.03134523, -0.08827585, -0.14265427, -0.07998725, -0.086761825, -0.03645513, -0.08683741, -0.09153174, -0.08027695, -0.019155426, -0.038171757, 0.024304092, 0.019493764, -0.028147578, -0.08929776, 0.032415356, -0.08504535, 0.058040474, -0.056471, -0.030474134, -0.03899986, -0.050312113, -0.010220535, 0.0518048, -0.010482109, 0.057511497, 0.093763694, 0.11169795, 0.06502972, 0.021618744, 0.099161185, -0.061350636, -0.067829855, -0.014473282, 0.05125559, 0.11999213, -0.049126886, -0.03308206, -0.028782591, 0.018669846, -0.086602546, 0.053237982, 0.081476115, 0.09260736, 0.024531167, -0.06653235, -0.13502078, -0.14895432, 0.060011975, -0.0892715, -0.17929184, -0.19872294, -0.08510664, 0.17168319, -0.05019334, -0.2899901, -0.20946583, -0.09480395, 0.03028882, -0.06669147, -0.050145995, -0.14462848, 0.033242404, 0.005624217, -0.03207209, -0.20340946, -0.18282883, -0.050167836, 0.07631532, -0.014373242, 0.022751722, -0.0885959, 0.06641773, 0.08980885, -0.019690324, 0.0015347757, -0.21573082, 0.100690834, 0.0880377, 0.048811916, 0.010314123, -0.22949637, 0.00060721074, 0.27212396, 0.09641882, -0.030304173, 0.12962815, 0.032751508, 0.10711708, 0.0065290285, 0.1132282, -0.003974367, 0.020342723, 0.051440038, 0.123001896, 0.1340104, 0.13345061, 0.084416986, 0.14343537, 0.05306161, 0.091234475, 0.02980841, 0.1150375, 0.102807894, 0.022866717, 0.17912582, 0.13155755, 0.1965058, 0.1026068, 0.115011215, 0.108339936, 0.17374195, 0.100240014, 0.13814579, 0.07091938, 0.22553155, 0.10707217, 0.12719469, 0.100851096, 0.11182446, 0.1375379, 0.17190674, 0.21434498, 0.18254425, 0.12436312, 0.18628319, 0.100839116, 0.039117213, 0.11520702, 0.10272781, 0.14595473}, {-0.6347517, 0.29286286, 0.09614164, 0.027198497, 0.102273114, 0.033157617, 0.06362138, 0.056780457, 0.027951092, 0.09647162, 0.059688207, -0.053729553, 0.04372939, -0.04533847, -0.041218903, 0.027043622, 0.028687587, -0.030511048, 0.014734451, -0.007882702, -0.044032227, 0.031081913, 0.004221879, -0.04824945, -0.052367955, -0.009465781, 0.025234833, -0.049184766, 0.007033973, -0.07676508, -0.028315144, 0.0050819204, -0.05096145, 0.0067352457, -0.046155374, 0.01873031, 0.016702179, 0.02679226, -0.06787338, -0.033656385, -0.004271016, 0.03252345, -0.05097734, -0.11345844, 0.16194075, -0.05106651, -0.1548826, 0.080479614, 0.09986468, 0.069033995, -0.08227585, 0.06576493, 0.04093646, -0.025321223, 0.052157182, -0.14117484, -0.049688593, -0.03454311, -0.037751805, -0.028976295, 0.026788848, 0.0746556, 0.0036233277, -0.07368049, 0.03703676, 0.01687824, 0.062067553, 0.08814256, -0.0405148, 0.037037946, -0.058407474, 0.10102313, 0.09595536, -0.01314596, -0.039278746, -0.06665918, 0.032527726, 0.08573778, -0.008466854, 0.07833459, -0.011996522, 0.032011725, -0.01660931, 0.026693966, 0.02085156, -0.054329272, -0.038988292, 0.014747388, -0.053731635, 0.021635642, 0.058535434, 0.036957122, 0.07969802, -0.062463984, -0.032250118, -0.10801184, 0.0050994908, 0.022779241, -0.08539528, -0.21330394, -0.31138632, -0.06700363, 0.13293502, -0.12725812, -0.22711372, -0.17424846, -0.03493701, -0.030935077, -0.15049711, -0.18453781, -0.20403646, 0.04687841, 0.002475272, -0.020517422, -0.16832173, -0.21462311, 0.020070704, -0.017831232, -0.09309492, 0.0057102274, -0.18924639, 0.037673872, 0.011216818, -0.0032479372, -0.046817232, -0.13590142, 0.04311493, 0.10971493, 0.022576805, 0.020593517, -0.27866003, -0.073969975, 0.24558605, 0.17109321, 0.11559966, 0.07332672, 0.019484907, 0.10715834, 0.15047322, 0.18612552, 0.060305018, 0.15684353, 0.083105534, 0.13669771, 0.113283135, 0.06010515, 0.060315385, 0.10538754, 0.13034698, 0.07915497, 0.17759915, 0.1651809, 0.14608786, 0.1404545, 0.060636885, 0.11853866, 0.16704826, 0.17195041, 0.042778958, 0.09064583, 0.15807037, 0.07168192, 0.1499632, 0.09235855, 0.16986272, 0.20400365, 0.18223454, 0.08467867, 0.14270657, 0.06634947, 0.08847797, 0.12315407, 0.11278306, 0.19827996, 0.07225716, 0.16857058, 0.10741188, 0.10683432, 0.15542786, 0.053461514}, {0.6216941, -0.11633223, 0.027132032, 0.05871488, 0.023079919, 0.10898229, 0.04707109, 0.031817876, -0.03125167, 0.053003043, 0.05741858, 0.004699686, -0.0077859, 0.010358939, 0.0804111, 0.05690375, 0.092902236, 0.050790302, 0.0019814183, 0.07770577, 0.13855493, 0.037944965, 0.03983222, 0.073961236, 0.052271165, 0.038902223, 0.035425145, 0.0013211345, 0.12421495, 0.032453787, 0.0947306, 0.010835909, 0.014790573, 0.02247477, 0.029465377, 0.09015274, 0.04597033, -0.05000084, 0.06682577, 0.105828986, 0.029025244, 0.06733699, 0.010898124, 0.11714582, -0.18767701, -0.06398263, 0.21594998, -0.009464243, 0.029620808, 0.044888034, 0.09368156, 0.087815896, 0.099607445, 0.04556832, 0.08689739, 0.15135999, 0.09930681, 0.079576015, -0.025161946, 0.027261784, -0.019291013, 0.057365004, -0.044104327, 0.097022064, 4.313841e-05, 0.06638322, 0.06251849, 0.015622041, 0.030329697, 0.025362667, -0.03079191, -0.08737504, -0.06588444, 0.052773178, 0.008364018, 0.07651573, -0.034592018, -0.048896793, 0.06697197, 0.004138284, 0.0040239748, 0.02387993, -0.062401183, 0.10353712, 0.0071490267, 0.065145716, -0.04040223, 0.027682895, -0.019205676, 0.079541735, -0.046096463, 0.06025179, 0.062689856, 0.06977067, 0.08817691, 0.17681688, 0.10763486, 0.042998523, 0.12567885, 0.16911, 0.2504644, 0.088397294, -0.058295153, 0.18947235, 0.2624151, 0.16768609, 0.10117798, 0.041182835, 0.13978572, 0.20068716, 0.24086578, 0.12594318, 0.09309407, 0.16475286, 0.20996387, 0.23196562, 0.068862036, 0.13813686, 0.14698797, 0.115221396, 0.23251621, 0.10513348, 0.0753077, 0.13391322, 0.13704292, 0.24335825, -0.004591561, -0.060347732, 0.04508746, 0.16484325, 0.37189794, 0.068863876, -0.075745635, -0.025150115, 0.035786137, 0.059026703, -0.015783863, -0.10632073, -0.0047188615, -0.07106564, -0.06514837, -0.012292973, -0.016794818, -0.07645154, -0.099659026, -0.062154524, -0.06590002, -0.08459351, -0.06670912, -0.03547114, -0.11452472, -0.12222147, -0.013196127, -0.027610954, -0.1200451, -0.122838415, -0.007632781, 0.0048234356, -0.06420798, 0.009818315, 0.0038930534, -0.006524704, -0.042095527, -0.06039547, -0.055744115, -0.082258455, -0.14201757, -0.020460231, 0.006975675, -0.10334677, -0.13437125, -0.1400288, -0.102729484, -0.116078846, -0.08957655, -0.10507143, 0.016694292, 0.042398863, 0.0042095673, 0.00049660215}, {-0.58347696, 0.21356432, 0.02996389, 0.014860392, 0.09096967, 0.032679923, 0.056690644, 0.024408918, 0.027293883, 0.020757088, -0.015492734, -0.011056938, 0.031405557, -0.01891007, -0.03250768, -0.07012172, 0.05242643, -0.026363939, -0.010682143, -0.08285045, -0.07423229, 0.055593792, -0.0076754787, -0.066365, -0.009614506, -0.09957857, -0.040145285, 0.01553024, -0.0119340625, -0.045540724, -0.06755601, -0.031334154, 0.031230034, 0.05675466, -0.032580845, -0.013454004, 0.051056627, -0.0030812926, 0.045480113, 0.03725064, -0.059927635, 0.025037298, 0.024507472, -0.0089627, 0.28601477, 0.016474865, -0.14407569, 0.044873483, 0.041958172, 0.05910298, -0.09631482, -0.013804883, -0.0661791, 0.023865728, 0.009362216, -0.028541252, -0.025972696, 0.02174703, 0.046097375, -0.025183173, -0.08285903, 0.05412788, -0.010822544, 0.025598805, -0.030734872, -0.058559325, 0.0020142796, -0.086403005, -0.010508418, -0.022242917, -0.046386153, 0.0041396376, 0.09413839, 0.0063447556, -0.014836114, 0.02703619, 0.060928777, 0.068490684, 0.07128633, 0.06762645, -0.0501019, -0.0120947445, 0.043837506, 0.038580183, -0.024291575, -0.06511728, -0.055199444, 0.09434701, 0.04485392, -0.102506906, -0.022415299, 0.067401536, 0.046762876, -0.043284904, -0.10118683, -0.1423031, -0.009024591, 0.06355233, -0.044800464, -0.17708878, -0.12114025, -0.05751368, 0.10280832, 0.0315828, -0.1602157, -0.1904738, 0.018722052, -0.013229779, -0.015966037, -0.078677535, -0.17574115, -0.03841156, 0.011712976, -0.0828574, -0.05410905, -0.19293828, -0.07583332, 0.018962238, -0.09766851, 0.026529828, -0.095641956, -0.06086195, -0.028646758, -0.076501355, -0.045641832, -0.15238945, 0.13380747, 0.06864146, 0.060245637, -0.047407143, -0.20087595, -0.046053458, 0.17091814, 0.15348303, 0.12156393, 0.03952543, 0.12602332, 0.15945752, 0.15171951, 0.1390808, 0.09791486, 0.11983504, 0.05240798, 0.1602509, 0.17935316, 0.19964781, 0.08044332, 0.19242744, 0.17766306, 0.15945324, 0.10822862, 0.19694611, 0.161987, 0.18178196, 0.08520201, 0.15907758, 0.17435604, 0.07890384, 0.19476222, 0.18968144, 0.07340326, 0.09338567, 0.11070842, 0.18649071, 0.20044412, 0.1978285, 0.17617817, 0.07179547, 0.17798972, 0.19130261, 0.10036918, 0.14694223, 0.21093144, 0.13985452, 0.08050173, 0.16874188, 0.13225318, 0.16314732, 0.09698295, 0.1375794}, {0.69842535, -0.063144825, 0.031098768, 0.037941102, 0.008214607, 0.027467825, -0.018255174, 0.031092547, 0.06468669, -0.0044158953, 0.036797788, 0.11569547, 0.048595995, 0.019836504, 0.13630559, 0.027623223, -0.0077274926, -0.0029429393, 0.058238618, 0.089964, 0.10996522, 0.014916711, 0.020167727, 0.016227886, 0.028536534, 0.09982741, 0.1138816, 0.08152577, 0.011879233, 0.12437037, 0.06266505, 0.03405397, 0.019482335, 0.090873145, 0.11718248, 0.014807243, 0.043709926, 0.031760532, 0.040171914, 0.038859468, 0.022990711, 0.0016368136, -0.03289246, 0.0694814, -0.2099536, 0.016972125, 0.16711082, -0.0110153165, -0.03051924, 0.12343361, 0.065275714, 0.0568654, 0.009037731, 0.08200306, 0.10248108, 0.17557773, -0.015511934, 0.07552361, 0.0795168, 0.023661995, 0.06853499, 0.024799136, 0.030568074, 0.12692927, 0.01034148, 0.06924038, -0.024200704, 0.035963938, 0.052531872, -0.019250441, 0.014602653, 0.019312337, -0.05211831, 0.098612994, 0.01985893, 0.06804101, -0.0020675783, -0.057435732, 0.042716723, 0.029233873, -0.010990969, -0.0071953232, 0.03616373, -0.029738238, 0.015724355, 0.052866034, -0.037949562, -0.037855446, 0.057706445, 0.14651966, 0.0520316, 0.035527084, -0.002024979, 0.16364075, 0.22472891, 0.21557608, 0.10919685, 0.104026884, 0.11199293, 0.18129353, 0.20251843, 0.06529122, -0.07355293, 0.07055803, 0.25369513, 0.23058404, 0.13371688, 0.14324728, 0.13261715, 0.12900662, 0.27385953, 0.028419867, 0.14793359, 0.19582626, 0.13604438, 0.29292285, 0.1336801, 0.10133343, 0.11870412, 0.10121541, 0.23440963, 0.121395685, 0.079873264, 0.08509457, 0.20300676, 0.2580949, 0.05596087, 0.012152405, 0.08443322, 0.15077168, 0.40284097, 0.08469896, -0.114406854, -0.009774873, 0.10148071, 0.03789313, 0.02046772, -0.022991503, 0.004781263, -0.0193749, -0.032511972, -0.06846872, -0.06945309, 0.012794139, -0.111018546, -0.113755375, -0.05530371, -0.1031313, -0.033830903, -0.08899442, -0.059774704, -0.08571642, 0.01781576, -0.08115494, -0.047344707, -0.06309335, -0.122000284, -0.016065361, -0.033476476, -0.112756126, -0.10949366, -0.045458052, 0.022853341, -0.06758223, -0.119093455, -0.16186632, -0.05639442, -0.08319594, -0.08516294, -0.04418874, -0.023750154, -0.054734174, -0.04479594, -0.03511761, -0.049761597, -0.04297279, -0.027565267, -0.06342096, -0.044396676, -0.07979399}, {0.7238052, -0.17429037, -0.06584267, 0.008637873, 0.07367455, -0.012911058, -0.00059107936, -0.005499406, -0.02459396, 0.06648187, 0.14818472, 0.102589376, 0.025422378, -0.0023727822, 0.0305464, 0.06668502, 0.0041097007, -0.0336562, 0.07896241, 0.048130225, 0.097128384, 0.002423572, 0.022344997, 0.033410154, 0.11979136, 0.01916871, 0.033793293, 0.035161003, 0.047856037, 0.088412106, 0.12991641, 0.04453287, 0.026867751, 0.04530621, 0.013794552, 0.039289717, 0.057311576, -0.0055825114, 0.06407508, 0.033327807, 0.12663391, 0.09745419, 0.013809652, 0.030113436, -0.16871014, -0.059705332, 0.1657702, -0.049468137, 0.03511247, 0.09156163, 0.06576508, 0.10324563, -0.010031902, 0.023280496, 0.091831096, 0.098579675, 0.051128726, 0.011845286, -0.013667497, 0.08242439, 0.068653576, 0.05522819, 0.04006734, 0.067644395, 0.060797192, 0.113241285, 0.005226294, 0.026613375, 0.058383092, 0.056122262, 0.0092301015, 0.02188564, -0.0709442, 0.02466198, 0.07184076, -0.02896988, 0.017121414, 0.01375546, 0.01643707, -0.018921249, 0.012205721, 0.027639335, -0.06329484, 0.011751388, -0.053153805, -0.024158642, -0.081789315, -0.07403183, 0.105291165, 0.1383289, -0.048126876, 0.032283895, 0.10995024, 0.15732686, 0.20074512, 0.17413825, 0.06622322, 0.012160578, 0.18593016, 0.112231866, 0.20934922, 0.1240044, -0.029917179, 0.15413636, 0.2888495, 0.18209125, 0.07990025, 0.04957747, 0.14919974, 0.15996318, 0.2828421, 0.08926437, 0.14401828, 0.15782912, 0.21160798, 0.23370418, 0.13216792, 0.1037535, 0.12553817, 0.15227762, 0.20540205, 0.10827648, 0.15150326, 0.1863127, 0.14625712, 0.2796236, 0.06069545, -0.07329576, 0.078537695, 0.15193757, 0.35207585, 0.024273658, -0.14545982, -0.011334415, 0.08802591, 0.05544077, 0.02778924, -0.12791744, -0.043871686, -0.04890785, -0.06869191, -0.055849873, -0.0635165, -0.016782586, -0.020560374, -0.031750742, -0.07529368, 0.018082483, -0.04786471, -0.10678458, -0.010271838, -0.007701302, -0.001317028, 0.01629622, -0.025757115, -0.03908287, -0.03036964, -0.10929496, -0.049665112, -0.08633975, -0.03175176, -0.12197574, -0.020338546, -0.022543464, -0.11571181, -0.1272193, -0.12786543, -0.032777958, -0.09194302, -0.073397376, -0.07017815, -0.06377501, -0.1095348, -0.07420505, -0.15393868, -0.104113236, -0.1686803, -0.070461586, -0.045638345, -0.03146418}, {0.7417384, -0.053212218, 0.04423985, 0.04942548, 0.0668603, 0.07113168, -0.04427463, 0.051844865, 0.011039269, 0.012500395, 0.062692784, 0.12049125, 0.09033596, 0.047272272, 0.06372019, 0.04825275, 0.06963458, -0.020990606, 0.015401733, 0.03382072, 0.09887993, 0.09723588, 0.045202114, 0.0831656, 0.020513892, 0.03588787, 0.023873152, -0.023249026, 0.038852904, 0.049351607, 0.06379364, -0.0025025408, 0.046581607, 0.034171194, 0.064869404, 0.10499153, -0.031802256, -0.034139413, 0.021995027, -0.022585824, 0.09681864, 0.0026315395, 0.08845606, 0.1417379, -0.16782631, -0.035041153, 0.24603498, -0.1179275, 0.022081098, 0.10386211, 0.16111104, 0.051060446, 0.02999311, 0.059863355, -0.022771658, 0.119857416, -0.022535393, 0.03197784, 0.008828536, 0.12984376, 0.011475309, 0.059642237, -0.026247557, 0.05521217, -0.054764576, 0.15628225, 0.01288868, -0.038718887, 0.06986624, 0.06403918, -0.00371111, 0.035954017, -0.021567931, 0.059157904, 0.1183689, 0.061554596, -0.02752702, -0.040832486, 0.037719708, -0.029809313, 0.06311661, -0.06296168, -0.038225222, 0.0714243, -0.078213975, 0.013035851, -0.027078534, 0.008442111, 0.048638675, 0.046692457, 0.05758906, 0.05327794, 0.037080053, 0.15625022, 0.10944923, 0.15882564, 0.0734097, 0.031177929, 0.14268991, 0.23201397, 0.2233195, 0.07031311, 0.007352574, 0.1523933, 0.24819474, 0.22480199, 0.17418593, 0.078187026, 0.13534436, 0.09584681, 0.24207802, 0.120396614, 0.09424963, 0.13520125, 0.14837964, 0.22828487, 0.18071795, 0.09874508, 0.1197705, 0.018883575, 0.22513743, 0.085383266, 0.16055058, 0.10996572, 0.0906056, 0.24550413, 0.039181374, 0.040111363, 0.15933947, 0.17479183, 0.39612576, 0.056729138, -0.050785765, -0.023857968, 0.10616619, 0.02859655, -0.012714031, -0.08807156, -0.059405122, -0.023579549, 0.003452258, -0.055208355, -0.067897655, -0.007921791, -0.008696451, -0.08235095, -0.015426216, -0.021585518, -0.00763528, -0.030735798, -0.014246996, -0.107927725, -0.005499821, -0.087679565, -0.061674803, -0.01624452, -0.112718455, -0.10950391, -0.07119038, -0.054311216, -0.051603824, -0.1081252, -0.011644461, -0.056490153, -0.11897864, -0.0973018, -0.06471928, -0.0421947, -0.08665594, -0.021755194, -0.060111213, -0.105535805, -0.011129665, -0.07743646, -0.02106851, -0.007174637, -0.021037258, 0.026283108, -0.050641574, 0.013173705}, {0.6892536, -0.08295897, 0.03130774, -0.012630051, 0.084708795, 0.04660779, 0.050213207, -0.04790669, -0.020606864, 0.07979857, 0.039888866, 0.07322156, 0.10141857, -0.013518636, 0.09038055, 0.10002204, 0.07703157, 0.003463861, -0.0013498695, 0.03802683, 0.10634414, -0.00288278, -0.023616793, 0.06088951, 0.102196984, 0.04770565, 0.04032894, 0.06268678, 0.020519037, 0.032057468, 0.06493197, 0.09621421, 0.0049807145, -0.014790028, 0.013026519, 0.06348508, 0.08545664, 0.024294367, 0.004821193, -0.014253994, 0.02118548, 0.07023923, 0.099706635, 0.10648701, -0.19451755, 0.038300775, 0.20352256, -0.061726782, 0.059687383, 0.043428816, 0.11398121, 0.0516321, 0.05964814, 0.049561556, 0.09387954, 0.04524405, 0.08093434, -0.03138684, -0.013906127, 0.031145038, 0.026498372, -0.0029889524, -0.082719944, 0.094036326, 0.024750363, 0.16706514, -0.04237448, -0.027446022, 0.080226794, 0.08777601, 0.060478196, 0.009356423, -0.04170857, 0.10524309, 0.016019551, -0.0631138, -0.08796687, -0.07963544, 0.022851862, 0.053865742, 0.06663953, -0.03901689, 0.021438163, 0.09973754, -0.0083797015, 0.02568125, -0.027858086, -0.032257836, 0.088153414, 0.076340236, -0.010946881, 0.11933271, 0.008764211, 0.10599994, 0.17032722, 0.2130254, 0.09382593, 0.04083348, 0.10776609, 0.24060787, 0.2598417, 0.068852596, -0.08019614, 0.09903822, 0.1744015, 0.21894686, 0.1419448, 0.07407317, 0.21824996, 0.13967827, 0.18909763, 0.034653462, 0.057353467, 0.23787035, 0.24514563, 0.34408674, 0.12251145, 0.10929534, 0.14419349, 0.12958363, 0.10873308, 0.048780452, 0.025528945, 0.14358315, 0.06925668, 0.18921687, 0.011787092, 0.055965908, 0.14910626, 0.16883746, 0.3523477, 0.09782612, -0.18158531, 0.037695356, 0.08249951, 0.062611625, -0.028091801, -0.09601666, -0.09803365, -0.11969809, -0.09522372, -0.052987993, 0.0067904172, 0.009410617, -0.0740406, -0.012768004, 0.009839254, -0.0220122, -0.054274175, -0.095840134, -0.005419392, -0.070324, -0.07655086, -0.005931333, -0.05308118, -0.10492513, -0.14010991, -0.06837982, -0.07898393, -0.07045461, -0.07054762, -0.00893781, 0.022661038, 0.014754359, -0.057048306, -0.072939895, -0.02043687, -0.04142736, -0.0037276014, -0.03080409, -0.12860903, -0.04685952, -0.08075922, -0.13998689, -0.022033067, -0.10352263, 0.00080096896, -0.06934757, -0.0616154, -0.091073565}, {0.73962224, -0.09762309, 0.053841174, 0.04813841, -0.0121052805, 0.0555782, 0.073046386, -0.05047648, -0.040962677, 0.017095786, 0.04479025, 0.053830523, 0.11061543, 0.097187065, 0.036263645, 0.050791558, 0.08657656, 0.018023817, 0.034136567, 0.09207653, 0.068767294, 0.06847845, 0.03304717, 0.099655055, 0.11888851, 0.11328038, 0.08730974, 0.004622659, 0.0043732147, 0.087065496, 0.033586018, -0.015723987, -0.0380591, 0.013390904, 0.008120656, 0.08913015, 0.062919065, 0.036664467, -0.04269389, 0.10460515, 0.08244963, 0.11302814, 0.07504935, 0.086022004, -0.1927334, 0.05988296, 0.15638855, -0.010679876, 0.08836952, 0.07593359, 0.0657283, -0.0095111495, 0.036955647, 0.11239403, 0.05433714, 0.09499476, 0.0018311709, 0.036145482, 0.07582426, 0.09918515, 0.05534329, -0.036187172, 0.028879436, 0.06360953, -0.059437174, 0.15687712, 0.055656444, 0.03241952, 0.053851195, 0.10121112, 0.08695489, -0.0073149465, 0.013426799, 0.08534764, 0.085972406, 0.009978683, -0.021117559, 0.017132882, -0.016933149, -0.055216596, 0.06700985, -0.007938107, 0.054462135, 0.023719037, -0.053559892, 0.039539736, 0.007475436, -0.009362351, -0.02197567, 0.04265111, 0.003699785, 0.1611502, 0.0047069862, 0.09624711, 0.1668993, 0.21029246, 0.13300113, 0.026781077, 0.13892378, 0.13596736, 0.33249393, 0.14595184, -0.0035578157, 0.06783197, 0.27762982, 0.18073454, 0.113258906, 0.12562823, 0.17456107, 0.11159727, 0.26580486, 0.13749073, 0.107002206, 0.13750584, 0.16400017, 0.21560378, 0.08887814, 0.026820457, 0.13196076, 0.021210825, 0.22112961, 0.019354666, 0.048748013, 0.10619574, 0.116445884, 0.2682783, 0.045614798, 0.057836343, 0.06905927, 0.13223144, 0.3775041, 0.13757989, -0.09261571, 0.031138362, 0.10407685, 0.07432803, 0.036235873, -0.039729513, -0.09146444, -0.08372311, -0.06306597, -0.08755155, -0.030493874, -0.08353844, -0.09857705, -0.063334405, -0.05956621, 0.0001077636, -0.091524325, -0.04509506, -0.032769106, -0.09699302, -0.020381004, -0.07096478, -0.060485713, -0.09788715, -0.07954975, -0.086418554, 0.00461458, -0.04718529, -0.11207041, -0.064300165, 0.007544613, -0.07878732, -0.13543014, -0.1205864, -0.1495141, -0.08253071, -0.04583644, -0.1110883, -0.13405089, -0.11992378, -0.108969785, -0.09354458, -0.03460633, -0.016944632, 0.03537969, 0.007838651, -0.082527585, -0.054059178}, {0.643511, -0.07766634, 0.012207709, 0.051583055, -0.03235086, 0.09326167, -0.043882173, 0.035424937, -0.059431996, 0.08593538, 0.041785516, 0.005381522, 0.07316616, 0.1141104, 0.082718655, 0.113512255, 0.09028212, -0.039741337, 0.08791486, 0.08917691, 0.034047086, 0.08148024, 0.090724945, 0.10748751, 0.02199765, 0.1454326, 0.11839962, 0.04428111, 0.055141572, 0.1424612, 0.03616995, -0.007660819, 0.05898426, 0.074692935, 0.0487167, 0.13715018, 0.06430867, 0.02359366, 0.077233896, 0.10729835, 0.10274643, 0.10551765, 0.039982446, 0.121312715, -0.14369133, -0.03541783, 0.23542817, -0.06725296, 0.00018218343, 0.11390325, 0.11312461, 0.10123545, 0.050139915, 0.08355714, 0.092082456, 0.09104358, 0.07719935, -0.010281829, 0.030019544, 0.089678355, 0.08795411, 0.04078225, 0.058661588, 0.020208819, 0.005787861, 0.090056, 0.06487367, 0.09332272, 0.08347519, -0.021892272, -0.039393697, -0.0097528165, -0.11813055, 0.028562058, -0.005226636, 0.049666204, -0.029356763, -0.089415096, 0.054508366, -0.06847181, 0.011739705, 0.07443203, 0.03575472, -0.027376559, -0.0017704131, 0.025883488, 0.042843666, 0.035980746, 0.094366245, 0.089405134, 0.033103414, 0.009140612, 0.096382536, 0.16764562, 0.106266975, 0.13385046, 0.060441546, -3.5757206e-05, 0.17995127, 0.1770665, 0.2980742, 0.09127797, 0.036769096, 0.11749649, 0.22667821, 0.19561143, 0.121391006, 0.06570052, 0.13305254, 0.09728298, 0.26667792, 0.10566043, 0.054454915, 0.22127682, 0.21472275, 0.2550139, 0.12517735, 0.09500126, 0.18724608, 0.015683813, 0.1312657, 0.025052039, 0.041159347, 0.14898013, 0.18432462, 0.2524566, 0.022263682, 0.003754421, 0.08887084, 0.061157446, 0.42688063, 0.16724993, -0.12750618, -0.0011307999, 0.080211215, 0.079357274, 0.03377049, -0.07964383, -0.07349378, -0.036617875, 0.0018915547, -0.1074358, -0.0017419679, -0.0022995614, -0.026581593, -0.02193738, -0.08077349, -0.030584097, -0.08683166, -0.01929913, -0.10533364, -0.107789256, -0.06911411, -0.06298946, -0.048762448, -0.017378753, -0.06350926, -0.009699856, -0.044632964, 0.0055418857, 0.00897774, -0.017387968, 0.011205428, -0.0780253, -0.02781946, -0.15369906, -0.1285056, -0.091224864, -0.06629278, -0.03547092, -0.059313897, -0.12844975, 0.0014284834, -0.026840476, -0.013492281, -0.10322856, 0.026509969, 0.010324749, -0.043075424, -0.07431416}, {0.7415644, -0.14019606, -0.06616443, 0.077700384, 0.04677657, 0.061810534, 0.06729194, 0.026890509, -0.01215744, 0.018281644, 0.14226918, 0.06039237, -0.023055283, 0.0016601057, 0.03370342, 0.09179978, 0.078843266, 0.063821785, 0.08123067, 0.099615775, 0.045461934, 0.10864294, 0.05711182, 0.01004039, 0.029247236, 0.022337558, 0.041753687, 0.07272014, 0.070446774, 0.0535761, 0.10320589, -0.013496801, 0.04364374, 0.07786189, 0.09463145, 0.053275153, 0.007364642, 0.02237492, 0.06653655, 0.025976384, 0.059172783, 0.04764827, 0.029386738, 0.007413151, -0.24353826, 0.061428107, 0.16187935, -0.020546967, 0.062367465, 0.04914794, 0.060181763, 0.048779245, 0.023555972, 0.011355746, 0.11859175, 0.104109585, 0.021472821, -0.020092836, 0.052547637, 0.093411915, 0.10533518, -0.016685767, 0.025073854, 0.059196416, 0.048015255, 0.09760976, -0.0048524495, 0.05521088, 0.031493463, 0.0793287, -0.048558075, -0.069420256, 0.012672121, 0.027742192, -0.009131284, -0.040522087, 0.041955177, -0.04503917, -0.057596207, -0.017319739, -0.012254558, -0.04104722, -0.032089677, 0.0910764, 0.018221691, 0.08003485, 0.017034464, -0.054963864, 0.018464, 0.052851547, -0.051375907, 0.020763915, 0.04741028, 0.16615818, 0.21330687, 0.1648837, 0.073029034, 0.03463876, 0.18150525, 0.18825416, 0.24142517, 0.08498561, -0.08511734, 0.087662436, 0.21384129, 0.21695957, 0.065331586, 0.11234191, 0.14055103, 0.21974832, 0.16048543, 0.13061096, 0.06895503, 0.15497631, 0.14622137, 0.21770154, 0.081041254, 0.08521721, 0.21026865, 0.09842329, 0.20724003, 0.08221015, 0.07004139, 0.11170337, 0.11546654, 0.17594934, 0.034855243, -0.023421416, 0.052870035, 0.12936749, 0.36559564, 0.1314487, -0.1575537, 0.0803093, 0.0427704, 0.031752024, 0.0872783, -0.07373687, -0.10303479, -0.12125003, 0.012919747, -0.121836156, -0.059377838, 0.019190019, -0.105607115, 0.011853661, -0.048574165, -0.009811954, -0.02513352, -0.040894106, -0.014695268, -0.1066185, -0.0114164185, -0.056710664, 0.0054109106, -0.012744633, -0.088041395, -0.031750556, -0.063871756, -0.022798782, -0.067250244, -0.093759514, 0.010965474, -0.0073309382, -0.027286217, -0.07401208, -0.1060468, -0.031753335, -0.0396996, -0.0015761803, -0.041609686, -0.026041217, -0.06006276, -0.1350155, -0.09119379, 0.008190939, 0.03690124, 0.0020428242, -0.08532332, 0.016817812}, {0.7076149, -0.17686658, 0.00860327, 0.086353295, -0.0327113, 0.041525196, 0.038319238, -0.027543968, 0.04786895, 0.09216811, 0.15218042, -0.002767498, 0.041162506, 0.10907946, 0.14874591, 0.0648817, 0.07170908, 0.07162214, 0.05182737, 0.119813226, 0.113774434, 0.02612947, -0.006455841, 0.010876318, 0.013385034, 0.038931537, 0.078777604, 0.0436686, 0.04616045, 0.08268285, 0.13148299, 0.045826852, -0.028774053, 0.0876661, 0.09885684, 0.078211084, 0.05888044, -0.07382135, 0.05866075, 0.053643834, 0.04615566, 0.025803877, 0.09226519, 0.0820852, -0.22248203, 0.032279104, 0.2078397, -0.09736045, 0.08757305, 0.12979506, 0.087424695, 0.01398369, -0.005550337, 0.026084922, 0.08137681, 0.15268736, -0.012856382, 0.06402841, 0.035126455, 0.080507204, 0.015054304, -0.056233633, -0.07253185, 0.1044012, -0.0028904926, 0.091586456, -0.03666165, 0.011070048, 0.035252415, 0.037645537, -0.059075344, -0.015663948, -0.121090144, 0.016804192, 0.044535764, -0.00033267267, -0.042215608, 0.003420034, 0.009243314, 0.008354631, 0.047392644, 0.008627173, -0.06578538, 0.0064246943, 0.031773802, 0.07519979, 0.033127166, 0.031504508, 0.0078097605, 0.07112434, -0.01079585, 0.042127974, 0.09803384, 0.07945362, 0.16634963, 0.22048055, 0.043163627, 0.08736921, 0.092294045, 0.19103453, 0.21093775, 0.12605964, -0.002471948, 0.1388375, 0.22162946, 0.1861118, 0.039486688, 0.09722495, 0.23297833, 0.09253853, 0.18624867, 0.11091008, 0.12831946, 0.19525994, 0.23782358, 0.281941, 0.122016326, 0.018119385, 0.08991238, 0.021775523, 0.20629334, 0.13019587, 0.14539228, 0.19150662, 0.1451661, 0.27644607, 0.01130933, -0.06591908, 0.064918555, 0.04258263, 0.4120833, 0.103106014, -0.06257081, -0.017946808, 0.14117813, 0.049771808, 0.051745605, -0.04770704, 0.02864203, -0.043490913, 0.041828595, -0.02245674, -0.03137725, -0.037839323, -0.074849024, 0.0006026162, -0.006663642, -0.05456988, -0.08424996, -0.0035293405, -0.045600478, -0.085236356, 0.013288788, -0.009813063, 0.027503608, -0.004973211, -0.05132876, -0.02782488, -0.04124187, 0.016318813, 0.016882796, 0.010639424, -0.034674466, -0.04652629, -0.10366148, -0.12732844, -0.11320304, -0.07998797, 0.020868616, -0.048074175, -0.04386266, -0.014328099, -0.0006409052, -0.011940225, -0.04494767, 0.05134168, 0.027591417, -0.0027570014, 0.038269173, -0.05050046}, {0.63514996, -0.081002496, 0.018087214, -0.007886381, 0.0127252545, 0.026465418, 0.05124706, 0.016077286, 0.031486996, 0.09027044, 0.036603924, 0.009395062, 0.023205688, 0.020310987, 0.03924259, 0.15030178, 0.086405694, 0.07760682, 0.016141342, 0.06533754, 0.021636758, 0.015596801, 0.087999105, 0.06398774, 0.101969086, 0.015985446, 0.092834935, 0.06854801, 0.04154874, 0.14447664, 0.115457736, -0.012953383, -0.032437213, 0.027993359, -0.01412729, 0.020654505, 0.05380286, -0.034242272, 0.018838707, 0.015935875, 0.10552311, 0.1130266, 0.08917003, 0.0070556235, -0.20383511, 0.034862474, 0.23705053, -0.09185223, 0.069388576, 0.055688955, 0.0968575, 0.08987695, 0.07688033, 0.012732203, -0.0020004867, 0.13167273, 0.07163572, 0.005753214, 0.09992616, 0.07701266, -0.0026414269, -0.002501813, -0.07775254, 0.08194745, -0.06650737, 0.1543503, -0.050537035, 0.07012279, 0.009480455, 0.02055395, -0.030723784, 0.011131564, -0.021737592, -0.019038232, -0.010945319, 0.019337527, -0.02568133, -0.040473092, 0.032012615, -0.026629178, 0.07398661, -0.0003101768, -0.04315702, 0.06099384, -0.064105265, 0.00240667, 0.0021120298, -0.06372318, -0.016301781, 0.12741983, 0.018565036, 0.096768774, 0.0602264, 0.07552566, 0.13453507, 0.1326368, 0.16481659, 0.005548934, 0.11052209, 0.14999488, 0.25504777, 0.1345601, 0.028724963, 0.19198525, 0.26395532, 0.27594107, 0.14046162, 0.1248168, 0.11649942, 0.14520673, 0.19700189, 0.041937824, 0.0650705, 0.2400464, 0.22087996, 0.33535036, 0.16765928, 0.07349313, 0.19468708, 0.11212842, 0.17526017, 0.051767536, 0.13383353, 0.18948475, 0.18534951, 0.22368473, -0.07605417, -0.0056244847, 0.1034772, 0.080987036, 0.38154924, 0.07387231, -0.061123982, 0.017149504, 0.047966104, 0.057939563, 0.03849182, -0.083949484, -0.011667362, 0.0010861303, -0.0054601613, -0.057668056, 0.023111494, -0.05854608, -0.0006934358, -0.09873911, -0.05816997, 0.026622264, -0.0071296585, -0.052152093, -0.00157561, -0.012988406, -0.07755507, -0.034037806, -0.09703255, -0.05852511, -0.05081156, -0.07126926, -0.05121251, -0.011933192, -0.03274555, -0.111381605, 0.006024907, -0.07808073, -0.11420429, -0.046441946, -0.025811037, -0.053830594, -0.059062794, -0.013644818, -0.10789187, -0.022628002, -0.00010471472, -0.04445763, -0.07715636, -0.0583375, -0.12782761, -0.028845085, 0.007206124, 0.03513235}, {-0.33906338, -0.15396403, -0.1116146, 0.008418972, -0.040006213, 0.009819674, 0.06298438, -0.018929351, -0.057749365, -0.0036564337, 0.087479696, 0.077530645, -0.0029996622, 0.038629454, 0.07603289, 0.00017846577, -0.04712492, 0.039403703, 0.0430489, 0.06733909, 0.049048293, 0.025015572, -0.0075656115, 0.03261731, 0.113031216, -0.0013421264, 0.07787253, 0.042150628, 0.075852774, 0.12290031, 0.10546627, 0.10850187, 0.048251905, 0.11386089, 0.13829575, 0.1680918, 0.12916963, 0.027869126, 0.13603498, 0.019513747, 0.10580292, 0.12641221, 0.066496894, 0.14210823, -0.24912477, -0.06005881, -0.30252576, -0.51684743, -0.5294829, -0.7464614, -0.89351666, -0.54336953, -0.49586266, -0.5471658, -0.7764185, -0.6532402, -0.5060308, -0.42539388, -0.5688024, -0.7472838, -0.82910264, -0.58440596, -0.48916438, -0.55984354, -0.5542632, -0.7086821, -0.58689576, -0.4868586, -0.3302351, -0.53624374, -0.48788035, -0.37045327, -0.38692987, -0.4673327, -0.50596505, -0.54154766, -0.60926837, -0.48600456, -0.6146444, -0.40348312, -0.44677928, -0.45676532, -0.5766351, -0.5224864, -0.40978804, -0.37582555, -0.4821303, -0.4429474, -0.36420137, -0.31686145, -0.0427401, -0.37400502, -0.5558818, -0.95384884, -0.82056594, -0.96995133, -0.52300566, -0.8021799, -0.99410117, -0.8789451, -0.72770935, -0.5525612, -0.6474327, -0.9855773, -0.9053556, -1.0103118, -0.7445845, -0.7756824, -0.9218097, -1.0653864, -0.71326953, -0.6133783, -0.8265191, -0.9562078, -0.6058104, -0.61340225, -0.39043048, -0.6793432, -0.71902317, -0.67815834, -0.6288166, -0.4818831, -0.6931185, -1.0128869, -0.53809714, -0.39112574, -0.46551326, -0.38184798, -0.5748224, -0.6182311, -0.37281033, -0.37007967, -0.49952203, -0.7322005, 0.08981807, -0.009235736, 0.03996873, 0.064837754, 0.099741414, 0.07652088, 0.11385072, 0.04206112, 0.050537184, 0.13251838, 0.006762567, 0.080125175, 0.05433865, 0.07329065, 0.056832213, 0.05659233, 0.08681125, 0.057769313, 0.044046987, 0.08762699, 0.19442955, 0.09752558, 0.08292015, 0.0027429266, 0.09380118, 0.13477875, 0.11487138, 0.06251641, 0.06114012, 0.102804884, 0.20921075, 0.08185192, -0.011292778, 0.07466974, 0.16730264, 0.15551038, 0.09795964, 0.1325456, 0.046415746, 0.116372675, 0.06383596, 0.0031527781, 0.022112513, 0.037138697, 0.11306485, -0.12231629}, {0.67495805, -0.068958096, -0.013605186, 0.03743768, 0.038968984, 0.08449048, 0.07370008, 0.046000168, 0.025168046, -0.013237925, 0.053135727, 0.033372443, -0.019879423, 0.12625091, 0.07488632, 0.05746577, 0.012021262, 0.07287573, 0.041111823, 0.043716293, 0.05371685, 0.08167192, 0.050189544, 0.015376296, 0.046648353, 0.04138233, 0.09682647, 0.05914103, 0.0842177, 0.073043324, 0.054159626, 0.07230789, 0.014541675, 0.030124487, 0.05129986, 0.10042142, 0.06288801, 0.060422603, 0.09342113, 0.03333344, 0.07201172, 0.013399898, -0.010612207, 0.12514888, -0.20117676, -0.035823327, 0.21873724, -0.06212155, 0.045587298, 0.067880936, 0.07269014, -0.025997672, -0.04071428, 0.10926582, 0.07870958, 0.022447478, 0.053239502, -0.0764735, 0.050198287, 0.11107702, 0.06232214, 0.0075366166, -0.081099235, 0.019268008, 0.007474276, 0.11191163, 0.05998414, 0.022326944, 0.08102934, -0.03970973, -0.024816083, -0.0018597087, -0.07767344, 0.10177012, -0.04107839, -0.06018801, -0.022053394, -0.05782346, -0.06545617, 0.009370489, 0.013285567, 0.016084697, 0.016039578, -0.010607615, -0.06518092, -0.030791515, 0.045018215, -0.091296405, 0.10185615, 0.052499015, 0.01587934, 0.09737203, -0.03265826, 0.059331898, 0.13527046, 0.08450152, 0.10282009, 0.04161991, 0.1693482, 0.15346979, 0.16844687, -0.0042446763, -0.12691976, 0.14333425, 0.20547283, 0.18435225, 0.051562615, 0.005282137, 0.21526508, 0.0905265, 0.1491069, 0.13948798, 0.097025715, 0.18253261, 0.21595147, 0.2121623, 0.12432346, 0.002930753, 0.113243476, 0.06592103, 0.12939149, 0.12425541, 0.05384582, 0.15744118, 0.11033654, 0.11859514, -0.088265404, -0.097691685, 0.07954729, 0.042977974, 0.2796598, 0.08389885, -0.22428069, -0.05633854, 0.06660106, 0.06259696, 0.11738192, -0.029413199, -0.06432828, -0.0054230667, 0.045930825, -0.04805443, 0.0463225, 0.015095545, -0.075786486, -0.039249964, -0.08463641, 0.005967724, 0.015014322, -0.08540009, -0.042560227, -0.01994961, 0.055530712, -0.03675408, -0.024893213, -0.025261743, -0.049159016, -0.050385233, -0.017731989, -0.031030511, -0.015742354, -0.010510854, 0.02031347, -0.023428492, -0.00512572, -0.008432724, -0.046045326, -0.025034402, -0.055366404, -0.06692279, -0.023459539, -0.033066556, 0.0070157917, -0.06514959, -0.010801428, 0.014525834, 0.1074512, 0.08456989, -0.022514766, 0.011192816}, {-0.3423655, -0.102313265, 0.007117902, -0.05737472, -0.014641134, -0.031711668, -0.022527559, -0.044619523, 0.028395485, -0.050828367, 0.016179522, 0.00039529512, 0.07593569, 0.025047515, 0.10350504, 0.0009767499, 0.05629266, 0.021332197, 0.026484443, 0.10284241, 0.046895567, 0.035439905, 0.09058082, 0.09415002, 0.097769916, 0.14679155, 0.03490833, 0.07293585, 0.12614974, 0.13881834, 0.075489886, 0.02490349, 0.029586378, 0.12660395, 0.07713192, 0.08151987, 0.10644506, 0.030984273, 0.07661726, 0.07880171, 0.028881585, 0.041179057, 0.0432004, 0.023162013, -0.29168314, -0.06878352, -0.34427184, -0.63025284, -0.66584796, -0.9252441, -1.0239638, -0.5887638, -0.6707331, -0.6255642, -0.97089165, -0.914049, -0.63649863, -0.62861764, -0.63359064, -0.79081905, -0.9923094, -0.7520881, -0.634458, -0.62572837, -0.5883888, -0.662344, -0.5152565, -0.53518844, -0.39731026, -0.41844994, -0.46716022, -0.30336532, -0.28702798, -0.36673257, -0.20111333, -0.34347463, -0.3774266, -0.37490326, -0.34178007, -0.25514948, -0.1868902, -0.24167171, -0.29121715, -0.29073232, -0.18692888, -0.09190904, -0.24064364, -0.18966934, -0.16451475, -0.14693037, -0.061395787, 0.144818, -0.15631293, -0.45284107, -0.55097055, -0.6930186, -0.3314182, -0.5750944, -0.7051164, -0.86935115, -0.64183515, -0.37414718, -0.44317865, -0.62647164, -0.7769055, -0.8067342, -0.45965642, -0.6096269, -0.9814304, -0.94980377, -0.757063, -0.7039574, -0.76912284, -0.9875087, -0.6284376, -0.71240443, -0.41903558, -0.6577922, -0.7644967, -0.64136523, -0.6261806, -0.5555679, -0.68968666, -0.9846436, -0.6690643, -0.43690205, -0.4090961, -0.36676234, -0.7443444, -0.6896154, -0.19623943, -0.26088402, -0.6026821, -0.860764, 0.07877899, 0.052455876, -0.0036415798, 0.05365807, 0.046478886, -0.052738648, 0.011096825, -0.10466927, -0.09528311, -0.06508928, -0.0289397, -0.034077358, -0.021128122, -0.010127014, -0.022162883, -0.029634908, -0.021498937, -0.11317533, -0.08013824, -0.022609653, 0.14791027, 0.096088156, 0.07428449, -0.00080778496, 0.08488732, 0.095957905, 0.20782988, 0.17165498, 0.11506591, 0.1669226, 0.24169749, 0.0799138, 0.16723225, 0.21995282, 0.26802546, 0.29414, 0.2849824, 0.14526397, 0.149889, 0.3182514, 0.07855007, 0.13037077, 0.025144482, 0.1459784, 0.23589621, 0.022774654}, {-0.7895299, 0.2358926, -0.023534063, 0.010258918, 0.05678049, -0.008201127, 0.042865768, 0.065271884, 0.07056504, 0.022119636, 0.026453637, -0.054526016, 0.02235118, -0.06086222, -0.063536294, -0.0024729767, -0.007838482, -0.0016303263, 0.005134556, 0.030357152, 0.020821944, -0.060054887, -0.010130989, -0.011539706, -0.061263844, 0.033501644, 0.012266861, -0.045123946, -0.031035796, -0.037510026, 0.029758727, 0.012041947, -0.03299465, 0.016489292, -0.0143870795, -0.013413935, 0.018777722, -0.032474693, -0.09903452, 0.010440939, -0.056860913, -0.032157276, -0.08660728, -0.07335836, 0.043963052, -0.032700036, -0.22100773, 0.13615383, -0.014939429, 0.006462317, -0.010669121, -0.074458316, -0.07630668, 0.0039375704, -0.03132863, -0.12830366, 0.027972307, -0.07355365, -0.036588714, -0.09835304, 0.00906625, 0.020249998, 0.050348543, 0.007926886, 0.005592599, -0.095193624, 0.07120337, -0.012576922, -0.01165223, -0.046383474, -0.09202556, -0.009688532, 0.016008332, -0.013043469, -0.061694108, 0.006637293, 0.09811324, 0.01858801, 0.018537864, 0.00804986, 0.02293501, 0.008828281, 0.0044694403, 0.017999517, 0.033632126, -0.04013969, -0.046986643, -0.02387881, 0.03360252, -0.111201815, -0.06858114, 0.03630098, 0.05497208, -0.03596168, -0.072844476, -0.089811616, 0.04036109, 0.013033054, -0.031345632, -0.13896208, -0.21900529, 0.0047149807, 0.14008261, -0.036377355, -0.18555123, -0.0826579, 0.05526389, 0.020737816, -0.048652083, -0.096055314, -0.18736874, 0.049026787, 0.0074383216, -0.037860673, -0.21761832, -0.1488218, -0.0073840804, 0.0420518, -0.10719071, -0.026588429, -0.1348908, 0.0825756, -0.040834345, -0.06890275, -0.09520651, -0.19397849, 0.11552569, 0.08170436, 0.055486076, -0.004696821, -0.2955985, -0.011889741, 0.2339194, 0.07441083, 0.017045604, 0.02547201, 0.07971366, 0.08338161, 0.1666569, 0.18531244, 0.17790365, 0.20021775, 0.07088912, 0.07233182, 0.19018221, 0.12274929, 0.09387084, 0.08458999, 0.17295451, 0.09127078, 0.15712631, 0.08174194, 0.1565307, 0.1358553, 0.18678342, 0.14168046, 0.17599492, 0.19743803, 0.11044102, 0.08362132, 0.072646804, 0.1904375, 0.061602287, 0.065409385, 0.11812295, 0.15212497, 0.18980494, 0.07644372, 0.09897213, 0.207641, 0.13446872, 0.12823713, 0.17277402, 0.10070745, 0.06547297, 0.12911521, 0.11191638, 0.026905715, 0.18587664, 0.10214282}, {0.6945174, -0.06745306, 0.023017699, 0.048385173, -0.040940903, -0.021531174, 0.051552713, 0.006786375, 0.052197527, 0.070923, 0.030840829, 0.07965846, -0.01433251, 0.015842244, 0.110922895, 0.08364089, -0.016528284, 0.047734205, 0.11231087, 0.0088113835, 0.14771096, 0.0837859, 0.026428528, -0.010856279, 0.049085166, 0.10881576, 0.03449883, 0.0019777617, 0.0414097, 0.15300685, 0.14503065, -0.018859837, -0.0005954139, 0.09226749, 0.053154975, 0.038883653, 0.03829576, 0.04607486, 0.015042765, -0.019956278, 0.040373378, 0.09343604, 0.02751341, 0.120506614, -0.15825045, 0.0006343459, 0.2243083, -0.081320845, -0.027442355, -0.0001950671, 0.036708426, 0.035133466, -0.019377165, 0.065024294, 0.050542943, 0.16515334, 0.036214437, 0.037385676, 0.060944423, 0.0672205, 0.00040489837, -0.06549288, -0.08684501, 0.06587758, -0.024374157, 0.1128537, 0.021937186, 0.082401805, 0.058681868, 0.03463417, 0.060824532, -0.01326107, -0.028414177, 0.021346088, 0.0040091476, 0.06483326, 0.022077544, -0.069553204, 0.011959289, -0.06905859, 0.018812064, -0.07153653, 0.030686533, -0.035290115, -0.019392394, 0.107936084, -0.046685833, -0.0698338, 0.110595696, 0.05944755, 0.015820451, 0.124234855, 0.051195048, 0.091903605, 0.23108384, 0.196958, 0.05631065, 0.0101153655, 0.12355003, 0.19686088, 0.28333348, 0.12103771, 0.022696387, 0.19628996, 0.26730826, 0.24160245, 0.14552729, 0.094935805, 0.17937337, 0.2147653, 0.26995674, 0.14519411, 0.071541406, 0.15865213, 0.16164383, 0.21234906, 0.11818675, 0.118436925, 0.16051045, 0.07316815, 0.16559508, 0.01890734, 0.037402026, 0.13391589, 0.09854405, 0.24143147, 0.03794031, -0.0019337857, 0.141328, 0.0789992, 0.3692717, 0.019420205, -0.113914244, -0.040030725, 0.13454376, -0.019157931, 0.07639328, -0.096680805, -0.030989671, -0.07380568, -0.05323852, -0.08902186, 0.01827366, -0.02237562, -0.034258824, -0.0497476, -0.08245107, -0.029641304, 0.039079744, 0.032598488, -0.0562565, -0.027085464, 0.010361342, 0.04430513, -0.025148254, -0.043932214, -0.06473308, -0.041153826, -0.09966655, -0.100705706, -0.043162588, -0.0686297, -0.03178742, -0.018197944, -0.024775883, -0.044983856, -0.07713849, -0.025233679, 0.045507662, -0.010069361, 0.0023120607, -0.067281544, -0.085320845, -0.09969902, -0.09768699, -0.110554494, -0.122817025, 0.05049494, -0.087175824, -0.009887272}, {-0.7917292, 0.27573946, 0.09110348, 0.060060702, 0.04539993, 0.016890064, 0.02367074, -0.0030409324, 0.12605079, 0.14206591, 0.002258066, 0.01703889, 0.025785962, 0.018717809, -0.02439849, -0.050481405, 0.06651609, 0.035415445, 0.02854463, 0.044879764, -0.013832455, 0.019583877, -0.018530833, -0.0070561464, -0.021214735, 0.025509497, -0.05352509, -0.034696966, -0.102814004, -0.027525105, -0.079034686, -0.093137905, -0.1088451, -0.07025631, -0.07048148, -0.09739974, -0.15888932, -0.1451716, -0.12138903, -0.1289271, -0.16082704, -0.15240313, -0.19917522, -0.17780918, -0.04364897, 0.06635528, -0.21167703, 0.026029259, 0.017564809, -0.06329302, -0.07092648, -0.07470495, -0.05419967, -0.074739866, 0.011590948, -0.15220766, -0.041035153, -0.015341043, -0.08836135, -0.1190742, -0.086553335, -0.0022117689, -0.0664358, -0.047225926, 0.002906905, -0.07861429, -0.054522365, -0.030305838, 0.0042210314, 0.034183558, -0.03218257, -0.056172743, 0.09635906, -0.04367703, 0.025927559, 0.016876925, 0.009076392, 0.07017377, -0.025777396, 0.024999706, -0.06748029, -0.072073564, 0.010834983, 0.0440663, 0.009903958, 0.02591398, -0.058173355, 0.09331624, -0.005405871, -0.05227026, -0.023690172, 0.12596354, -0.05187348, -0.08356288, -0.14320384, -0.13251, -0.043104433, 0.031773992, -0.15604165, -0.12894218, -0.20624727, -0.114362255, 0.08631197, -0.15076998, -0.29498786, -0.21673635, -0.14025022, -0.078439295, -0.12887692, -0.13000652, -0.1354819, -0.013643393, -0.12361109, -0.17465392, -0.1986281, -0.3575356, -0.11800272, -0.012503138, -0.13171697, -0.014127584, -0.19956061, -0.06658342, -0.07123125, -0.097515404, -0.07467125, -0.2254251, -0.039043225, 0.13438125, -0.048554543, 0.031048698, -0.27923667, -0.078467175, 0.24575262, 0.12162274, -0.023508018, 0.069682434, 0.10285928, 0.050773855, 0.06572288, 0.03942194, 0.11233339, 0.13474484, 0.12751074, 0.08781355, 0.08263087, 0.07611225, 0.037023634, 0.1194228, 0.05624204, 0.0992075, 0.09210435, 0.12404772, 0.027982892, 0.07645477, 0.14948605, 0.057448324, 0.08674987, 0.09013357, 0.041023318, 0.19728935, 0.16615917, 0.17787515, 0.036966883, 0.111071244, 0.18034108, 0.19239318, 0.17121792, 0.09404048, 0.1258268, 0.07867422, 0.17414223, 0.19110437, 0.11743913, 0.08964822, 0.114207886, 0.13210602, 0.02294647, 0.114277564, 0.15368974, 0.030000817}, {-0.4178549, 0.25889575, -0.15034951, -0.06687477, -0.13397314, -0.079049386, -0.17605771, -0.10078968, -0.14005367, -0.13187963, -0.04329183, -0.12948972, -0.1587853, -0.098771006, -0.043127235, -0.059196282, -0.1207356, -0.135548, -0.09917712, -0.088181145, -0.083472095, -0.06817131, -0.113683894, -0.091369584, -0.054442894, -0.03281375, -0.048932757, -0.03997121, 0.004560239, 0.0438023, 0.0059664147, 0.018743008, -0.02002319, 0.057776544, 0.069800824, 0.05758663, 0.07885946, -0.0039969534, 0.07868338, 0.11175216, 0.12003318, 0.07997885, 0.013295766, 0.07897537, 0.09269841, -0.07017576, -0.03501036, 0.13768126, 0.18861723, 0.24896011, 0.0916322, 0.15600877, 0.07770453, 0.16308728, 0.1613316, 0.20217799, 0.11474187, 0.06418627, 0.24883962, 0.25859, 0.12878275, 0.12419023, 0.20048414, 0.32271567, 0.20295733, 0.24354374, 0.08847273, 0.23262511, 0.32179698, 0.22748981, 0.1943601, 0.056978635, 0.12805033, 0.19729249, 0.1540941, 0.18665391, 0.11047891, 0.12071936, 0.2732282, 0.30323008, 0.20538922, 0.07746682, 0.12522784, 0.24951419, 0.19119634, 0.2379365, 0.011820262, 0.1337448, 0.17184325, 0.11410662, 0.043554932, 0.3508198, -0.89142156, -0.79084545, -0.86474395, -0.9508927, -0.92439353, -0.97511965, -0.81281096, -0.9282679, -0.78657246, -0.97497106, -1.4154811, -1.1259565, -1.2509773, -1.195378, -1.2372651, -1.2081821, -0.73045814, -0.97029096, -0.99176824, -1.131177, -1.2705631, -0.97901386, -1.0060503, -0.994418, -1.2749835, -1.3995633, -0.8284527, -1.303015, -1.0828981, -1.185608, -1.2391522, -0.8462803, -1.132965, -1.008348, -1.3657786, -1.3122265, -0.831345, -0.82981366, -1.144704, -1.0469937, -0.86142117, -0.6705031, 0.12504081, -0.14020726, -0.09227913, -0.031200647, -0.021000484, -0.07415973, -0.059993904, -0.10070243, -0.024740905, 0.028199788, -0.05500819, -0.07857724, -0.05620438, -0.004879782, 0.05363978, 0.022059426, 0.06487789, 0.04213298, 0.06420274, 0.038949147, 0.068573676, 0.05941313, 0.02869558, 0.08846707, 0.084748365, 0.09402228, 0.011259219, 0.07296781, 0.016568499, 0.051929083, 0.007866734, -0.09889945, -0.024514357, -0.011304171, -0.006793204, 0.008555435, -0.026670055, -0.032969132, -0.029397393, -0.04696994, -0.01267816, -0.08444489, -0.0645532, -0.011102973, -0.07153938, -0.12086758}, {-0.6318538, 0.25034004, 0.09358025, 0.05317287, 0.06699588, 0.035670914, 0.046989504, 0.0018893477, 0.083498135, 0.07725889, 0.06031622, -0.053396866, -0.012535277, -0.03252409, -0.0016662244, 0.0024914348, -0.00064588274, -0.013169816, -0.054910123, -0.0066394513, -0.04605321, -0.024474068, 0.003240738, -0.014023955, -0.023330046, -0.025664294, -0.02078791, 0.0036641925, -0.030641763, -0.05983605, -0.046344344, 0.028994095, -0.039104942, -0.002692518, -0.04979883, 0.018515347, 0.022694193, 0.00034159145, -0.095992334, -0.03289342, -0.0017818691, -0.0065794718, -0.059356894, -0.11094993, 0.13470088, 0.012369484, -0.0964025, 0.15221433, -0.011750986, -0.05600528, -0.09585058, -0.040963635, 0.04858806, -0.051307976, 0.025214793, -0.03401227, -0.02616811, -0.06775512, -0.053739768, -0.027451085, 0.008672124, 0.03315104, 0.069121525, 0.029941237, -0.042931248, -0.043320753, 0.051350135, -0.045360804, -0.078023516, -0.059561, -0.087862074, 0.062492773, 0.07610962, -0.05655103, -0.09008419, -0.076923154, 0.093025945, 0.07304346, 0.020513462, 0.01248082, -0.0012933721, -0.013704136, 0.04007914, -0.0027392865, -0.0014187515, -0.06284275, -0.004543295, 0.04686726, 0.024709651, -0.113975756, 0.03496763, 0.044680122, 0.019881586, -0.09904034, -0.15645598, -0.18862419, 0.0236555, 0.09402068, -0.09858837, -0.20222299, -0.29573983, -0.09447072, 0.06472759, -0.07076496, -0.332655, -0.1885444, -0.03707411, -0.029373888, -0.124110684, -0.13544153, -0.11289629, -0.07839275, -0.062415157, -0.061974034, -0.17384607, -0.16833094, 0.0009827743, -0.057826985, -0.07813936, -0.10848663, -0.10811706, 0.031122519, -0.05563444, -0.09923736, -0.030090969, -0.15846281, 0.023324745, 0.10098727, -0.03155779, 0.015951624, -0.26251227, -0.0066695362, 0.20256041, 0.1021787, 0.01328273, 0.116164714, 0.046235345, 0.13822652, 0.11528075, 0.061404884, 0.11653825, 0.19067484, 0.14590068, 0.102689855, 0.14858487, 0.13268417, 0.13675606, 0.14315365, 0.1396329, 0.15015778, 0.08413502, 0.12759869, 0.15109964, 0.15850064, 0.094623886, 0.16128434, 0.09248356, 0.1611219, 0.14380625, 0.09390587, 0.16923115, 0.19167978, 0.15271749, 0.14073454, 0.20012248, 0.1735889, 0.12873824, 0.15590785, 0.09346123, 0.15237981, 0.10052904, 0.11600785, 0.081122905, 0.13917992, 0.16112284, 0.13295308, 0.073847435, 0.13385352, 0.16581684, 0.08498509}, {-0.79054946, 0.31073755, 0.023710223, 0.018759588, 0.03449626, 0.010818326, 0.006817579, 0.051191173, 0.040237166, 0.10858624, -0.019548552, -0.034133773, -0.050330777, -0.055091746, 0.0064779976, -0.041725736, 0.0055907327, -0.017488224, -0.037515886, -0.017948981, 0.036235858, -0.027943967, -0.027543666, 0.019454371, 0.059244547, 0.042152967, -0.029137233, 0.0078162085, -0.0369124, 0.004305807, 0.03506971, -0.032866143, -0.038555767, 0.0005896215, 0.019631028, 0.037215132, -0.04161276, -0.04533767, -0.12187317, -0.00810827, -0.0727655, -0.13854851, -0.11265731, -0.18181634, 0.0019174827, 0.042752884, -0.2135613, 0.13432987, 0.09895395, 0.044642176, -0.08917688, 0.028636701, -0.056393094, 0.065176606, -0.014019608, -0.10260228, -0.015040343, 0.0679336, -0.0048289807, 0.014438567, 0.0090487385, -0.03843142, -0.019031882, 0.053130526, 0.08746118, -0.024133703, 0.07990289, -0.058973663, -0.06739271, -0.016285999, -0.045094345, 0.016423762, 0.07993415, -0.016336486, 0.016729718, -0.014013843, 0.101378806, 0.054133035, 0.05453732, 0.06861938, -0.02765664, 0.061666984, 0.046972778, -0.06488261, 0.04337365, -0.059995186, 0.005031065, -0.011062402, -0.045289785, -0.08753106, -0.06975017, 0.1237349, 0.024563005, -0.04800644, -0.10630388, -0.13363898, -0.07969848, 0.089511946, -0.09387609, -0.23554578, -0.24693698, -0.064947985, 0.18654738, -0.025617784, -0.2019752, -0.21557517, -0.06886512, 0.04352494, -0.11544342, -0.15152879, -0.1978058, -0.04982873, -0.02395648, -0.112211786, -0.16094531, -0.20520541, 0.02166356, 0.076844715, -0.010340699, -0.10162279, -0.06974274, 0.06331993, -0.0006849643, -0.059304297, -0.048316117, -0.16008456, 0.071093805, 0.123756774, 0.01337607, 0.018946758, -0.22446553, 0.05708532, 0.23594856, 0.053177785, 0.10615155, 0.06854254, 0.0921981, 0.09425521, 0.102835685, 0.14519377, 0.06911436, 0.091955766, 0.12550686, 0.15301971, 0.18521702, 0.14636861, 0.14467941, 0.1455686, 0.09419391, 0.1814811, 0.16560416, 0.064618446, 0.17226546, 0.11307987, 0.07920777, 0.10916221, 0.20623033, 0.08208942, 0.13804822, 0.11350405, 0.061530303, 0.17369534, 0.14409299, 0.19362469, 0.11395052, 0.21346809, 0.21898143, 0.13646343, 0.18504468, 0.20605999, 0.091108434, 0.19038858, 0.15770102, 0.17170179, 0.17736563, 0.123547606, 0.061948817, 0.15906224, 0.16619994, 0.16379882}, {-0.44084463, -0.4284821, -0.18302868, -0.14965154, -0.14413135, -0.11371824, -0.10731504, -0.15167277, -0.19810286, -0.18485673, -0.15010616, -0.08996229, -0.14499588, -0.16547427, -0.15215543, -0.08891344, -0.16339424, -0.10926787, -0.042010717, -0.060038313, -0.07347745, -0.041463416, -0.015176016, -0.03564258, 0.0117406985, 0.026414841, 0.066961356, 0.1088532, 0.14653729, 0.07417469, 0.09582219, 0.11283177, 0.15008773, 0.15201198, 0.106259614, 0.0756992, 0.13381885, 0.107020915, 0.18319346, 0.19524331, 0.11450082, 0.15603623, 0.17717533, 0.2029482, -0.13336915, 0.04639519, -0.13972825, 0.014275443, 0.06834449, -0.098113455, -0.10507734, 0.15062545, 0.15547441, 0.07755599, -0.14452767, 0.027246766, 0.22553091, 0.1448127, -0.019956179, -0.16641124, -0.10305916, 0.108940125, 0.07478215, 0.0085755605, -0.0952106, -0.0874505, -0.11881845, -0.16000356, -0.04506367, -0.47214726, -0.38795736, -0.40994364, -0.47223154, -0.45097885, -0.70921296, -0.7299204, -0.5891014, -0.5486953, -0.6065287, -0.6589636, -0.56428486, -0.5320573, -0.5282582, -0.48282662, -0.7551567, -0.44956243, -0.5837527, -0.56048626, -0.49942467, -0.4825012, 0.0068806745, -0.6526357, -0.42407492, -0.7711063, -0.7278995, -0.7317766, -0.53717256, -0.8081727, -0.8356713, -0.86082494, -0.5612799, -0.44454712, -0.76892346, -1.11618, -0.9403317, -1.1181202, -0.75208, -0.74812824, -0.71746486, -0.71884364, -0.5772233, -0.7594443, -0.88230395, -0.96838176, -0.87275904, -0.8924557, -0.9586283, -1.1370735, -0.95850074, -0.9485638, -0.9416467, -0.77329993, -1.2043661, -1.122755, -0.95992845, -1.0711037, -1.2559195, -1.1301855, -0.91858274, -1.1175783, -1.0719441, -0.98171645, -1.0302188, -1.1729792, 0.07634026, 0.24371064, 0.2641325, 0.2726601, 0.22029561, 0.24680933, 0.29360384, 0.4626947, 0.20010273, 0.23211916, 0.2137925, 0.23726077, 0.3286987, 0.18714683, 0.24817646, 0.17763539, 0.2875819, 0.30047482, 0.092897706, 0.121786624, 0.08636491, 0.18452182, 0.056896728, -0.053441517, 0.098547146, 0.018804478, -0.06800958, -0.0044292607, -0.08151538, -0.083602, -0.06422339, -0.1507809, -0.20251435, -0.23116364, -0.11124564, -0.09854358, -0.118913084, -0.14727, -0.06678815, -0.11399561, 0.012827788, -0.08507855, 0.04096229, -0.051588472, -0.04926743, -0.24080431}, {0.73719305, -0.116906896, 0.05772585, 0.017286647, 0.08638015, 0.024783028, -0.010698824, 0.04336552, 0.023556074, 0.09658492, 0.09144992, 0.009751617, -0.011893619, 0.037706804, 0.080871426, 0.047683228, 0.087499894, -0.016262235, 0.06971049, 0.11806603, 0.09540087, 0.04750706, 0.05909836, 0.020492656, 0.0072383485, 0.107499436, 0.011640351, -0.03848397, 0.018824756, 0.15100397, 0.038367547, 0.09403937, 0.07100739, 0.042633288, 0.01681353, 0.009268491, -0.024930714, 0.037106715, -0.022438973, 0.03786501, 0.07639951, 0.052783173, 0.05702326, 0.016309785, -0.12286419, -0.051294632, 0.16433977, -0.12629563, 0.070292756, 0.025819864, 0.07037835, 0.08400759, 0.02411958, 0.11061859, 0.06885525, 0.106546625, -0.0147816865, -0.040746152, 0.06242469, 0.09438579, 0.105098344, -0.054539423, 0.0016064656, 0.07486845, 0.04689903, 0.12915297, 0.0012989128, -0.03636713, 0.052194163, 0.10665428, -0.04083744, -0.06846966, 0.0075339507, 0.060271423, 0.029834375, 0.020887574, 0.005907911, -0.034092616, 0.059779204, -0.0038233988, -0.012115844, -0.03354695, -0.0086688, 0.026026376, 0.041895747, 0.07636174, 0.03837729, 0.028412173, 0.114676006, 0.032907356, -0.016268957, 0.07524767, 0.1003471, 0.13841105, 0.18804881, 0.1584701, 0.034196578, 0.049298014, 0.14593554, 0.14056884, 0.3322614, 0.054872766, -0.06666674, 0.1017611, 0.19157945, 0.20943183, 0.08944749, 0.14422579, 0.213158, 0.1853484, 0.28349426, 0.0416893, 0.070785515, 0.244421, 0.25933784, 0.28837082, 0.17143317, 0.10896915, 0.15116633, 0.06887593, 0.2108818, 0.027484423, 0.15182057, 0.084770195, 0.089946195, 0.29758316, -0.051245887, -0.03341051, 0.07915133, 0.06317798, 0.36910224, 0.07802812, -0.11755895, 0.021629842, 0.022691458, 0.0045363135, 0.033256304, -0.13894925, -0.099764496, -0.023386182, -0.1054212, -0.08961752, -0.06818392, 0.031380106, -0.009747735, -0.019648269, -0.08330629, -0.07569318, -0.03928021, -0.006329352, -0.03565846, -0.09200683, -0.08150464, 0.013670326, -0.045362275, -0.026871467, -0.12209366, -0.058527727, 0.0069643464, -0.11109594, -0.096342884, -0.10352704, -0.0405295, -0.04254051, -0.056951895, -0.119876705, -0.041382868, 0.0037177384, -0.0045733014, -0.110609844, -0.05181366, -0.046139877, -0.017228525, -0.1383474, -0.13339764, -0.11245016, -0.1325245, -0.0040374645, -0.059990928, -0.016371477}, {-0.7027405, 0.21235828, 0.110728376, 0.040369518, 0.08773984, 0.012757048, 0.109663114, 0.051354192, 0.07752867, 0.062029902, 0.013897387, 0.039962284, -0.034139127, 0.028249424, -0.037274327, -0.013654976, -0.029141905, 0.017313806, -0.09434298, -0.0016519846, -0.047996894, 0.039896738, 0.045514066, -0.010107769, -0.09253026, 0.0016517629, -0.07601161, -0.012686842, -0.08368213, -0.01195944, -0.04970701, 0.0015747066, -0.0028721818, 0.007858149, 0.017155753, -0.017599016, -0.027603647, 0.06074025, -0.052684613, -0.03339267, -0.0322357, 0.0064011, 0.009354719, -0.09028822, 0.1535417, 0.065762766, -0.12634338, 0.037936218, 0.03287565, -0.052072503, -0.09065105, -0.09005314, -0.083637655, -0.0597631, -0.034520917, -0.09171202, -0.11712891, -0.05569175, -0.012137956, -0.039869886, -0.022201747, -0.049843784, 0.017064806, -0.0067477287, -0.048094913, -0.10957194, 0.020603226, -0.01091788, 0.005955605, 0.009560425, 0.00913686, -0.031265877, 0.03548389, -0.045850184, -0.05698688, -0.05536297, 0.033909846, -0.009979297, -0.03148725, -0.025839021, -0.014642842, 0.0026125961, 0.0040951823, 0.016148115, -0.027596798, 0.010585793, -0.033993762, 0.07577401, -0.098783374, -0.018741863, 0.04029113, 0.11073676, 0.069292024, -0.071164735, -0.10363736, -0.13976887, -0.011196415, -0.032123756, -0.080708936, -0.26120612, -0.29486233, -0.06279435, 0.07292903, -0.072208904, -0.18915717, -0.1878786, -0.059733108, -0.013541787, -0.12259526, -0.07041775, -0.14860739, -0.009971611, -0.067143284, -0.068746865, -0.14595485, -0.19248442, -0.049237948, -0.01137973, -0.055522647, -0.04720153, -0.18797602, -0.10022164, 0.016617645, -0.11769867, -0.051404465, -0.14402145, 0.1013756, 0.08784375, 0.0044300216, 0.026108254, -0.33560956, -0.11806567, 0.2518406, 0.15879294, 0.10448297, 0.08863025, 0.017931253, 0.17404728, 0.06719122, 0.1533811, 0.15960449, 0.102457896, 0.04734578, 0.04329095, 0.10286676, 0.124150746, 0.19674979, 0.11931163, 0.07102585, 0.112393506, 0.09877027, 0.14604111, 0.12687482, 0.06379873, 0.15280554, 0.16835366, 0.1257561, 0.08810327, 0.16123712, 0.065580495, 0.14568172, 0.1468654, 0.07840495, 0.08571676, 0.18443303, 0.13034394, 0.16293007, 0.18268804, 0.11474348, 0.081403956, 0.18615481, 0.18400028, 0.18816231, 0.12794386, 0.044431433, 0.0862953, 0.12940411, 0.10761496, 0.16924304, 0.13816594}, {0.6108441, -0.1783372, -0.013985613, -0.021435987, -0.023217218, 0.052009743, 0.013545265, 0.06178288, -0.029059071, 0.06862353, 0.053947452, 0.032121927, 0.10517151, 0.066238716, 0.16384268, 0.026863357, 0.00090622733, -0.042195458, 0.116049424, 0.11019511, 0.08245168, 0.110431254, -0.018773278, 0.0050736833, 0.14330259, 0.06929852, 0.111082844, 0.058092203, 0.09002906, 0.047877997, 0.063624315, 0.10223381, 0.050639, 0.008282774, 0.07910493, 0.05400711, 0.024067543, 0.0044486923, 0.07356809, 0.110001735, 0.12257238, 0.04213742, 0.04726582, 0.008056796, -0.18819728, 0.0041691866, 0.14822428, -0.010877669, 0.008751315, -0.0016114239, 0.059409637, 0.036293644, -0.022237876, 0.11333207, 0.06167019, 0.067940176, 0.03753101, -0.028664628, 0.069397874, 0.08746186, 0.03684048, 0.016848892, -0.039380673, 0.101385474, -0.053225134, 0.084638916, 0.06450825, 0.039570533, 0.017831795, 0.106605195, -0.02984703, -0.052911565, -0.01553754, 0.012814555, 0.050137725, 0.04014951, 0.024812708, -0.073774, 0.0779839, 0.044809286, -0.008358688, 0.008480208, -0.02678104, -0.0049762577, 0.053779945, 0.09191866, 0.029294591, 0.034643527, -0.01304362, 0.10215727, -0.035657857, 0.06749184, 0.021957776, 0.06810774, 0.15727808, 0.18884677, 0.06466072, -0.002923515, 0.09153304, 0.23165675, 0.16496308, 0.03712338, -0.10120071, 0.08926028, 0.18485317, 0.2122046, 0.14460865, 0.07826559, 0.16273935, 0.16568527, 0.09148571, 0.06867639, 0.08815623, 0.16740099, 0.15953283, 0.23819567, 0.071864, 0.11718411, 0.0720418, 0.042586926, 0.17093845, 0.025303362, 0.019231781, 0.06274106, 0.11977665, 0.17481963, -0.07095167, -0.085755266, 0.0085556945, 0.08895289, 0.31225613, 0.09629618, -0.16290426, -0.0599937, 0.13014711, 0.034495678, 0.07410741, -0.00046788537, -0.032934733, -0.007340247, -0.053930447, -0.07790138, -0.0024450896, -0.07813597, -0.045995373, -0.14786994, -0.08749851, 0.034798607, -0.03319039, 0.0069961026, 0.037227646, -0.03883277, -0.022578161, -0.037046548, -0.077271335, -0.038147714, 0.009719667, 0.031281434, 0.03171611, 0.012496653, -0.06406058, -0.097979076, -0.059540093, 0.013899161, -0.041970674, -0.08756918, -0.008849789, -0.06357656, -0.016783748, -0.023885, -0.011201822, 0.014232147, -0.05970515, 0.03016046, 0.05794895, 0.007966762, -0.015355178, 0.028401626, -0.02084375, -0.04185392}, {0.7602035, -0.15531875, -0.004542605, 0.01937613, 0.016940666, 0.10093871, 0.026442774, 0.017495865, -0.050440405, -0.0110733975, 0.13131289, 0.050118286, 0.073679164, 0.021130962, 0.077346236, 0.14887795, 0.102706365, 0.058988255, 0.034026932, 0.061440885, 0.0794757, 0.09488877, -0.0076162876, 0.019820426, 0.010095451, 0.034101028, 0.10443565, -0.003023319, 0.051910296, 0.09910516, 0.083771974, 0.02818359, 0.038652938, 0.018777033, 0.12202909, 0.09585822, 0.080084026, 0.018041939, 0.08357252, 0.07811137, 0.022590272, 0.02706884, 0.04071608, 0.032166995, -0.27069542, 0.060011126, 0.24436975, -0.10395447, 0.037284296, 0.10693493, 0.03712652, 0.018730948, -0.034468062, -0.013508092, 0.07855902, 0.11565321, -0.043211184, -1.2345795e-05, -0.012145148, 0.05224933, 0.019518098, 0.025119964, -0.0018288663, 0.008922814, 0.0379411, 0.10408512, -0.030907497, -0.009688706, 0.047525655, 0.03678027, -0.08287411, -0.061346732, -0.13994585, -0.027196227, 0.064142816, -0.02848815, -0.107889704, -0.061861683, -0.03408376, 0.026482841, 0.0077816076, -0.034477882, -0.025344953, 0.016922738, 0.03854479, 0.033769045, -0.062296864, -0.07389345, 0.081905425, 0.0028959436, -0.026711069, 0.12333728, 0.0034438362, 0.18315655, 0.10639218, 0.20555857, 0.1061305, 0.010780186, 0.09311462, 0.15571867, 0.2588747, 0.058325052, -0.098607935, 0.062244657, 0.25946003, 0.2629817, 0.078513704, 0.0856145, 0.1471356, 0.18915121, 0.17162925, 0.052238517, 0.06603796, 0.16777395, 0.19622108, 0.19242145, 0.08445836, 0.010572136, 0.11630138, 0.059810784, 0.17430034, 0.09292283, 0.03603605, 0.14714587, 0.18783279, 0.23736572, -0.057954602, 0.029916506, 0.029177373, 0.13212293, 0.41235742, 0.093322106, -0.11754879, 0.026919074, 0.09700226, 0.00068646454, 0.048015673, -0.02469837, -0.022644063, -0.09913266, 0.029796721, 0.01621324, 0.02440217, 0.03227175, -0.0015618884, -0.06871548, -0.06802911, -0.007284039, -0.020629818, -0.02084396, -0.047727358, -0.10435523, -0.0046335934, -0.06770887, -0.09779553, 0.006031463, -0.014976446, -0.013823573, -0.04321209, -0.009846876, -0.009288694, 0.006592028, 0.015920576, 0.03701675, -0.07749466, -0.023978448, -0.008383099, -0.03285151, -0.07242511, -0.05291988, -0.012611207, -0.096977785, -0.061794825, -0.0450342, -0.015116306, 0.03250788, 0.025816869, 0.013519465, -0.00081393187, -0.014908237}, {0.6175635, -0.14407995, -0.0720199, 0.07597611, 0.025083896, 0.049614847, 0.017253345, -0.035091568, -0.04591462, 0.0220958, 0.1070898, 0.024506005, -0.004398599, 0.09991439, 0.06636215, 0.1269569, 0.09551942, 0.089162685, 0.006619146, 0.080981165, 0.022434203, 0.04415353, 0.03800826, 0.022819387, 0.09640412, 0.061415255, 0.10189228, 0.020791382, 0.11804658, 0.1394121, 0.10221463, 0.052090537, -0.0093350625, -0.016784318, 0.1070733, 0.12117676, 0.04038164, 0.05011361, 0.059329465, 0.088590816, 0.04375582, 0.06193596, -0.027138218, 0.0045887413, -0.14782842, -0.04369244, 0.25338304, -0.12673363, -0.019176159, 0.0049783103, 0.1415549, -0.0018123279, -0.023660531, 0.097287655, 0.03546344, 0.04310894, 0.08479639, 0.080458805, 0.08651645, 0.13119152, -0.013613746, -0.018376717, -0.03520212, -0.010460402, 0.060914375, 0.06756086, 0.035132702, -0.006792021, 0.1300099, 0.08419583, 0.06321364, 0.014463791, 0.006105467, 0.07471358, 0.06163109, -0.0027978308, 0.040919896, -0.10033139, 0.06303059, -0.008914692, 0.018252129, -0.038332418, -0.029181728, 0.046514094, -0.040138707, 0.06530765, 0.023123827, -0.08720423, 0.08430271, 0.06833136, -0.025692783, 0.058464788, 0.07465408, 0.09295864, 0.11278035, 0.18735166, 0.060149424, 0.032671675, 0.09964583, 0.20145881, 0.2958644, 0.07140538, -0.006318226, 0.13164665, 0.22379291, 0.27116063, 0.12844802, 0.103743605, 0.17939673, 0.14452544, 0.25857896, 0.1069212, 0.11704888, 0.24069351, 0.24355446, 0.2554614, 0.07595228, 0.10366101, 0.092355415, 0.0015240896, 0.23195314, 0.020123195, 0.1580025, 0.08398013, 0.08680271, 0.28553143, 0.00066171534, -0.038484618, 0.109076045, 0.06599349, 0.3335012, 0.03694414, -0.15754758, -0.057184555, 0.1143097, -0.017007664, 0.041236218, -0.108006254, -0.06811522, -0.023761608, -0.028755264, -0.038810212, -0.012872909, -0.0775192, -0.025993975, -0.009212467, -0.05256577, 0.0053199106, -0.07794448, -0.0980258, -0.107894495, -0.07559776, -0.040895432, -0.07685465, -0.085095935, -0.086868554, -0.006484077, -0.065649696, 0.003743948, -0.0510447, -0.022558209, -0.029914726, -0.074388936, -0.07267982, -0.14117922, -0.047055162, -0.07367195, -0.08571286, -0.10281991, -0.037205726, -0.066753365, -0.11686377, -0.11255993, -0.122295134, -0.038460124, -0.09814619, -0.026425218, 0.015849747, -0.018382493, -0.03690499}, {-0.7684656, 0.4073555, 0.13060512, 0.14867762, 0.12899932, 0.0979759, 0.10387886, 0.016112203, 0.075923294, 0.1375056, 0.04701681, -0.016586361, 0.015067566, -0.062347062, -0.03792125, -0.0151128685, -0.0004278869, -0.059495986, -0.038920153, -0.029554877, -0.0740966, -0.1176285, -0.0885434, -0.08067289, -0.10928004, -0.10083172, -0.17891257, -0.0885453, -0.096862786, -0.08672262, -0.11070734, -0.19008557, -0.16917816, -0.124225244, -0.14334635, -0.08006095, -0.1274438, -0.09421274, -0.25362515, -0.18539996, -0.17518687, -0.20494907, -0.26464093, -0.25408778, 0.054386806, -0.0033995863, -0.1229819, 0.0023548603, -0.058190256, -0.023665644, -0.034367394, -0.026064875, -0.082843415, 0.01958102, 0.0047669597, -0.09973242, -0.012870312, -0.027848955, -0.025408898, -0.0789369, -0.072185114, -0.05558035, -0.00251359, -0.08207442, 0.03516318, -0.068175875, -0.05906105, -0.061712317, 0.021975404, -0.021797752, 0.0030461857, -0.00051541877, 0.047924172, 0.01791384, -0.0055652577, 0.05665273, 0.04296379, -0.013083028, 0.019905748, 0.07992361, 0.0062606954, 0.027070278, 0.027632525, 0.049266197, 0.088645294, -0.035490155, -0.03261249, 0.08921666, -0.06038289, -0.099828795, 0.022664458, 0.08467004, -0.006810746, -0.059419703, -0.07784911, -0.20359346, -0.021033242, 0.055290055, -0.0679509, -0.18649878, -0.2600117, -0.01100949, 0.07726429, -0.113848425, -0.22123887, -0.1496625, -0.09591704, -0.020475417, -0.004314223, -0.13807282, -0.1405553, -0.016255597, -0.040615663, -0.124333054, -0.11422891, -0.17508473, 0.008013642, 0.050661165, -0.01424376, 0.031406716, -0.04524638, 0.07028271, 0.048864573, -0.013034676, -0.011482494, -0.18006064, 0.15063886, 0.15783764, 0.07133673, 0.007734854, -0.18413024, 0.028696878, 0.22538203, 0.12348725, -0.023523709, 0.062497742, 0.14792414, 0.113477536, 0.056523994, 0.08234697, 0.06908874, 0.041789547, 0.024022494, 0.119076155, 0.08824922, 0.10017188, 0.06000405, 0.015735706, 0.085527934, 0.12246465, 0.017220372, 0.031717744, 0.056391172, 0.12844902, 0.043238882, 0.1654138, 0.18372364, 0.103655465, 0.10387177, 0.11726846, 0.17276263, 0.1386269, 0.10385707, 0.084594466, 0.1610253, 0.1287226, 0.15896598, 0.11694526, 0.13090461, 0.14581664, 0.08053132, 0.18840224, 0.17118506, 0.19649705, 0.16213746, 0.11831829, 0.104491785, 0.11135706, 0.14782032, 0.02333136}, {0.7163244, -0.12873176, 0.018160222, 0.047815975, -0.03261943, 0.0076568173, -0.028324971, -0.020008303, 0.030124996, 0.048116714, 0.14173518, 0.012777716, 0.06109125, 0.10741106, 0.031330843, 0.02748271, 0.0414766, -0.008978261, 0.07903101, 0.041058667, 0.08670249, -0.018362997, 0.0868754, 0.01108997, 0.014377989, 0.050597228, 0.06395169, 0.086925894, 0.080758475, 0.071734175, 0.029481474, 0.062343225, 0.021110885, 6.238006e-05, 0.030334268, 0.07792861, 0.06566609, -0.0583119, 0.00151917, 0.07769869, 0.01317103, 0.05453468, 0.091777205, 0.11646406, -0.2402083, -0.03374588, 0.20984377, -0.026235411, 0.0062729334, 0.0013679396, 0.094737776, 0.0900838, -0.0042540818, 0.0025886653, 0.04519047, 0.17509997, -0.020943023, 0.039717894, 0.077902086, 0.0838414, -0.0034827897, -0.023364829, -0.06264042, 0.06749598, -0.016069094, 0.0980246, -0.011064809, -0.021793615, 0.13626647, 0.055670362, 0.05096423, 0.022274856, -0.029308157, 0.04067359, 0.039229136, -0.024907282, -0.097694084, -0.09704252, -0.02895014, 0.059184738, -0.051267546, -0.05174713, -0.064788, -0.018923856, 0.053836174, -0.009889716, -0.08645576, -0.057946227, 0.07338541, 0.0747726, -0.047155622, 0.15001374, 0.051552333, 0.11043043, 0.1499575, 0.21039054, 0.11708588, 0.005033911, 0.1359713, 0.15673478, 0.30547577, 0.066565655, 0.041347925, 0.13933128, 0.2721697, 0.23667438, 0.15654632, 0.06647688, 0.16659266, 0.1235038, 0.28470242, 0.0922411, 0.11066403, 0.25514415, 0.19047722, 0.2657994, 0.12436896, 0.12802203, 0.16028073, 0.051348075, 0.22054069, 0.092553385, 0.0777767, 0.16203216, 0.06961115, 0.1917478, -0.044072837, 0.023951042, 0.08566049, 0.17414531, 0.3169762, 0.124617375, -0.14844729, 0.013311642, 0.11998546, -0.017530462, 0.003084164, -0.042337462, -0.082279295, -0.056787174, -0.07859215, -0.06014587, -0.07702384, -0.060171176, -0.09482921, -0.06332688, -0.004865626, 0.0002821589, -0.086103156, -0.02163349, 0.0035912131, -0.0027205532, -0.02355384, -0.018683579, -0.011660205, -0.0083105, -0.06680804, -0.07745826, -0.0051028533, -0.078811355, -0.010760428, -0.013883994, -0.003656059, -0.08400156, -0.04120128, -0.07247268, -0.07546551, -0.03598246, -0.0130641805, -0.021471838, -0.10732466, -0.1273445, -0.028868925, -0.116304, -0.1936541, -0.054137666, -0.17716955, -0.041577213, -0.0840881, 0.018142676}, {0.6738246, -0.15765476, 0.050639328, 0.08881028, 0.057305258, 0.09645036, -0.0433034, -0.06492296, 0.04191624, 0.015403566, 0.11539362, 0.12950413, 0.022839244, 0.0144445775, 0.15693022, 0.05009023, -0.015549959, 0.07657962, 0.057725906, 0.039598316, 0.10200858, 0.004027482, 0.030135846, -0.0026859632, 0.05727353, 0.1395824, 0.070907675, 0.009282894, 0.12155399, 0.12878321, 0.12413072, 0.06972874, -0.004045276, -0.036059506, 0.014416034, 0.029962542, 0.048096027, 0.047988914, 0.08733714, 0.09808172, 0.06708257, 0.09973823, 0.03937756, 0.10147041, -0.22429685, 0.06932079, 0.23196891, -0.070098445, -0.00043789163, 0.075313896, 0.087123655, 0.0014380749, -0.007752295, 0.02256306, 0.0645676, 0.06445616, 0.07514972, -0.009860512, 0.07143504, 0.08804636, 0.040573325, 0.019956617, -0.009254742, 0.0981458, 0.0036770236, 0.07265486, 0.017556509, -0.012653067, 0.091865584, 0.039679013, 0.05022395, -0.034250576, -0.05367424, 0.016093634, 0.018285196, 0.014473526, 0.018040508, -0.059462603, 0.06218346, -0.030408164, 0.0063769715, 0.06548637, -0.011334065, 0.072499536, -0.019108782, 0.08094183, 0.020236542, -0.06028544, -0.014036693, 0.14402443, 0.017697997, 0.073282644, 0.030610899, 0.1058896, 0.10814925, 0.1748578, 0.025452198, 0.038571663, 0.19524057, 0.21911861, 0.30166838, 0.1205173, -0.06107229, 0.16648088, 0.29150966, 0.24279353, 0.15431774, 0.033853333, 0.12319195, 0.1353992, 0.2486298, 0.1405238, 0.07592782, 0.1470835, 0.23721568, 0.27565712, 0.12862453, 0.023290051, 0.13316941, 0.110714905, 0.24981412, 0.0769691, 0.13334213, 0.1534787, 0.07728204, 0.237609, -0.029952377, -0.017732421, 0.05685957, 0.16499376, 0.3100686, 0.04845325, -0.1476313, 0.049333226, 0.04311721, 0.040738024, 0.061068013, -0.02945139, -0.06988729, -0.061594088, -0.07578376, -0.079897456, -0.0906396, -0.08075749, -0.04934296, -0.10887914, -0.041788958, 0.00048317524, -0.029473495, -0.037397996, -0.11511482, -0.09097082, -0.07385548, -0.091702975, -0.037079044, -0.054457664, -0.010685234, -0.08392843, -0.093730085, -0.1152467, -0.049323224, -0.10524338, -0.017478842, -0.014254326, -0.049260166, -0.119503446, -0.13551407, -0.091154754, -0.018168097, -0.05223588, -0.07799768, -0.14618725, -0.03599722, -0.057088096, -0.05633322, -0.07248715, -0.05923873, -0.027162857, -0.05316104, -0.029974105}, {-0.33724618, -0.0058638076, 0.037377227, 0.0161045, -0.005401033, 0.056425992, 0.07781791, 0.016308066, 0.04623471, 0.05715647, 0.052356098, 0.07476035, 0.03876325, 0.10387992, 0.07224219, 0.118484825, 0.11678564, 0.06001611, 0.10182478, 0.041656513, 0.1608624, 0.10429927, 0.06016789, 0.10837103, 0.017042497, 0.05190036, 0.089127004, 0.03139709, 0.14075539, 0.12005345, 0.10673156, 0.0149983885, 0.019174289, 0.018245159, 0.05008457, 0.016979655, 0.053446006, 0.018875327, -0.002724956, 0.0098033985, 0.03379204, 0.02198347, -0.010892166, 0.07324482, -0.30496126, 0.027301297, -0.2959738, -0.6040378, -0.48294395, -0.7363449, -0.9515653, -0.456361, -0.52262795, -0.46458498, -0.64501816, -0.6436786, -0.43042603, -0.40044594, -0.4406691, -0.66453594, -0.7899591, -0.5303387, -0.4647829, -0.31843078, -0.4031541, -0.42802823, -0.36714154, -0.319291, -0.22097427, -0.307249, -0.36880282, -0.30376384, -0.34057295, -0.46659797, -0.50985074, -0.47350878, -0.477911, -0.4633123, -0.5097621, -0.6034619, -0.55467135, -0.52090573, -0.5542515, -0.6357927, -0.7001471, -0.4801994, -0.54963946, -0.548599, -0.37871435, -0.40855467, 0.055285253, -0.18575718, -0.53656423, -0.6787582, -0.71017784, -0.8234589, -0.29645872, -0.65239453, -0.63160145, -0.7999126, -0.6533275, -0.46525362, -0.55797094, -0.7254546, -0.8592834, -0.9581749, -0.60803205, -0.6134258, -0.90951943, -0.9150429, -0.6691423, -0.550237, -0.73013675, -0.9650927, -0.6810169, -0.7071587, -0.4152518, -0.54841435, -0.7445872, -0.70857173, -0.58131856, -0.39672178, -0.649152, -0.8697364, -0.7068896, -0.4976221, -0.4060981, -0.5234229, -0.74857444, -0.94819665, -0.5077722, -0.478867, -0.56894153, -0.6861049, 0.040135507, 0.01477553, -0.015987787, 0.035628155, 0.045503914, -0.035140313, 0.06912078, 0.00072249945, -0.020922655, 0.061965268, 0.025248855, 0.009767002, -0.008034662, 0.016640903, 0.095718, 0.094901234, 0.13713369, 0.107484326, 0.009940777, 0.08421345, 0.24818781, 0.20432237, 0.24251094, 0.0033439, 0.06721638, 0.1550106, 0.16979384, 0.12842189, 0.06312251, 0.09410085, 0.18654801, 0.06565269, -0.0128711155, 0.062550485, 0.19012558, 0.14376222, 0.099615715, 0.08711821, 0.011237213, 0.09185345, 0.0395042, 0.029747166, -0.0011008094, -0.020174373, 0.1400209, -0.1967233}, {0.71337533, -0.09358969, -0.018470073, -0.03184272, -0.04305164, 0.058495607, 0.04081456, 0.04325703, -0.029800965, 0.088191085, 0.15517251, 0.051890448, 0.011799922, 0.031890742, 0.027948461, 0.12585446, 0.032316554, 0.05191363, 0.10429543, 0.042126063, 0.076046035, 0.09739764, -0.028772892, 0.114792235, 0.11125007, 0.060525693, 0.0028012132, 0.05731089, 0.101753265, 0.057371918, 0.11770957, 0.05806798, 0.09144817, 0.06326917, 0.06686475, 0.00040302056, 0.08582237, 0.050842486, 0.0004125027, 0.033473857, 0.052305926, 0.04590642, 0.07379663, 0.07712649, -0.24454994, 0.023090722, 0.15652382, -0.04712219, 0.051966216, 0.02807099, 0.14324579, 0.048507947, 0.001031444, 0.11091842, 0.09386241, 0.16278432, -0.014311925, -0.02586635, -0.022911238, 0.13233317, 0.08313109, -0.031984314, 0.020537402, 0.06691406, -0.022272302, 0.10031128, -0.032824297, 0.008886028, 0.09255319, 0.04388078, -0.04027788, -0.00475522, -0.06701945, 0.0049926895, -0.015966212, 0.018382365, -0.066635385, -0.07503689, 0.024326798, -0.0021037702, -0.0113370465, 0.019057745, 0.038191445, 0.007993555, -0.03595644, 0.050659485, 0.03125417, -0.004401082, 0.08376884, 0.0965223, 0.023523763, 0.049235437, 0.039589282, 0.18318859, 0.091978416, 0.11636165, 0.022004949, 0.09889417, 0.13319063, 0.2501358, 0.21998209, 0.07787953, 0.021814387, 0.08235561, 0.17377122, 0.17165008, 0.107884996, 0.023228701, 0.18892594, 0.2055754, 0.2067861, 0.07930232, 0.037397537, 0.16771944, 0.19769564, 0.28868186, 0.095642686, 0.04483159, 0.11057111, 0.12594308, 0.15295419, 0.08700882, 0.078259535, 0.113821715, 0.12789099, 0.29146653, 0.04731594, -0.029016098, 0.07271523, 0.07770008, 0.33819237, 0.08387974, -0.075560324, 0.0027105832, 0.00088653166, -0.006337449, -0.024939043, -0.025368348, -0.049513444, -0.085875824, -0.020495722, -0.1262603, -0.054629475, -0.022403676, -0.019776331, -0.009931976, -0.07453661, -0.10586908, -0.041288294, -0.095417544, -0.0055128685, -0.0823077, -0.048653405, -0.048784595, -0.0042982823, -0.04044224, -0.107731454, -0.053417593, -0.029048268, -0.07741317, -0.0283531, -0.121567346, -0.056150164, -0.013956065, -0.044926863, -0.09304249, -0.1314148, -0.03746722, -0.08711525, -0.11361924, -0.11496719, -0.08952177, -0.052953362, -0.08939326, 0.0029941485, -0.057283297, 0.033471, -0.067516185, -0.08685479, -0.03859759}, {0.728303, -0.09745505, 0.06310951, -0.01417767, 0.088678226, 0.065655395, 0.042080827, 0.0015378264, -0.046120245, 0.072960496, 0.10350381, 0.113932975, 0.093436085, -0.0063459408, 0.15809086, 0.070550285, -0.01981043, 0.08471766, 0.051881347, 0.08878473, 0.09089732, 0.005557622, 0.07612933, 0.08414229, 0.13474803, 0.06562479, 0.010406749, 0.035022583, 0.049666144, 0.09249459, 0.028696714, 0.10335324, -0.012672627, 0.025293387, 0.06275801, 0.046020508, 0.07414501, -0.064531475, 0.014479778, -0.0029953877, 0.100956224, 0.0025250812, 0.0958884, 0.011084869, -0.2459011, 0.0017404398, 0.13173026, -0.0010938096, 0.089739494, 0.031826474, 0.15065387, 0.02166297, 0.057041824, 0.0023969212, 0.046212733, 0.09255244, 0.05402151, 0.05345128, -0.03695796, 0.09067465, 0.09742819, 0.07104043, 0.02683068, 0.06391393, 0.061629858, 0.13673313, -0.034239337, 0.02712164, -0.0003163357, 0.040981792, 0.020539204, -0.06701857, -0.036217004, 0.103902236, -0.009574521, -0.04910358, -0.05100544, -0.019756792, -0.060209353, -0.016271835, 0.07749295, -0.05003189, -0.015696771, 0.019966708, 0.03316149, 0.014013423, 0.06785307, -0.06190689, 0.06734448, 0.08906539, 0.062408887, 0.05231022, 0.022704525, 0.19557065, 0.10233802, 0.17723346, 0.118781544, 0.03346983, 0.2080077, 0.12668839, 0.25947464, 0.066250116, 0.008847672, 0.19793874, 0.16336311, 0.18634045, 0.055912286, 0.0506961, 0.20303111, 0.15222615, 0.17041343, 0.05600404, 0.060057733, 0.18663019, 0.1411216, 0.22632843, 0.075262874, 0.14521477, 0.19011393, 0.04375415, 0.19871002, 0.06398403, 0.061691497, 0.18018666, 0.10091883, 0.24308075, 0.049286325, -0.06969316, 0.14353026, 0.16085269, 0.39727724, 0.079959914, -0.15032311, -0.040844273, 0.012822639, -0.049096443, 0.025087643, -0.064716734, -0.10790763, -0.006128209, -0.08158837, -0.064541586, -0.05369955, 0.027647352, -0.089930475, -0.04262374, -0.05039303, -0.012564324, -0.08935777, -0.08809756, -0.052739184, -0.11523879, -0.050518192, -0.08408821, -0.030332703, -0.06100973, -0.123172045, -0.004071182, -0.022044184, -0.09653376, -0.05282491, -0.025723267, -0.058491237, -0.032467417, -0.07491616, -0.14262466, -0.12212333, -0.06519112, -0.09956351, -0.015125782, -0.0625789, -0.10495792, -0.066933855, -0.0934441, -0.031585112, -0.008305718, -0.069982305, -0.0419713, -0.03006274, -0.08081184}, {-0.6615967, 0.18761072, 0.09233684, 0.01122532, 0.11504381, 0.066607326, 0.002810636, 0.040957168, 0.0494537, -0.0032992074, -0.049292114, 0.01699092, 0.02113646, -0.06981175, -0.031221574, -0.0199592, 0.017018951, 0.035208642, -0.0139115695, 0.01964459, -0.05418868, -0.017886052, 0.036736682, -0.08031636, -0.07630246, 0.014334479, 0.030264359, 0.01283563, -0.005617762, -0.02043119, -0.039929777, -0.027398324, -0.008906348, -0.05433945, 0.025634205, 0.004161469, -0.03515342, 0.057884984, -0.037051722, 0.03996813, -0.072460614, -0.0266256, -0.019274903, -0.023496052, 0.16533986, 0.01352305, -0.23855005, 0.020052457, 0.076330476, -0.033865333, -0.066378325, -0.09612945, 0.011351926, -0.039771184, -0.015624981, -0.047806766, -0.025781907, -0.11482435, -0.082135476, -0.029791757, -0.051635623, 0.02708215, 0.009490636, -0.07818082, -0.054171946, -0.07180206, 0.04262675, 0.020663464, -0.07914104, -0.019531125, -0.010627611, -0.047290254, 0.05650492, -0.030036302, 0.027439151, -0.08987497, 0.030859686, 0.07455859, -0.07360282, 0.007011532, -0.03563084, -0.071427904, -0.057344634, -0.031874422, 0.05951497, -0.11331311, -0.15810902, -0.036286015, -0.09970761, -0.009920934, -0.03191544, 0.08802369, -0.006898487, -0.094150685, -0.061848857, -0.18227392, 0.006985602, -0.018339517, -0.028556358, -0.18168958, -0.3058887, -0.10476499, 0.07142475, -0.17253102, -0.2672838, -0.24426004, -0.13793977, -0.07020056, -0.22038811, -0.19495916, -0.15633132, -0.014858839, -0.010848855, -0.21149449, -0.17639588, -0.26070562, -0.13828892, -0.04678665, -0.11263627, -0.057428855, -0.1925021, -0.06013998, -0.06192191, -0.16170144, -0.15160911, -0.20729549, -0.035062592, 0.031764466, -0.003665958, -0.015017853, -0.39158115, -0.15174523, 0.1505051, 0.060414765, 0.10906916, -0.009060819, 0.09864055, 0.12682705, 0.16662873, 0.082720496, 0.12355776, 0.07122368, 0.022417268, 0.13707042, 0.13532744, 0.1764976, 0.14548296, 0.064629935, 0.059824158, 0.16943273, 0.09658984, 0.070194244, 0.03741664, 0.05970194, 0.09436449, 0.06491161, 0.18372898, 0.1293884, 0.12145603, 0.08544973, 0.093292475, 0.16233435, 0.05602673, 0.15514041, 0.13671422, 0.12789711, 0.098669134, 0.059361808, 0.13995409, 0.06701628, 0.06721501, 0.094962224, 0.07372075, 0.085181326, 0.054866806, 0.16149877, 0.063466094, 0.04904146, 0.07645114, 0.144967}, {0.63670105, -0.09260225, -0.024501424, -0.041302573, 0.06406273, 0.071508884, 0.07098746, 0.03151903, 0.01247452, 0.0509049, 0.028688341, 0.12931459, -0.009190845, 0.100043416, 0.041964397, 0.03092857, 0.0530878, 0.065090664, 0.038427424, 0.09205466, 0.011603681, 0.029702265, 0.0888561, 0.11848309, 0.050954826, 0.10902356, 0.12539725, 0.04411921, 0.07778211, 0.02983687, 0.10224155, 0.053716082, -0.021728385, 0.06119144, 0.007900695, 0.13837427, 0.02175151, 0.035680648, -0.0007005101, 0.0009850878, 0.10529264, 0.09224652, 0.10345962, 0.087683655, -0.21322694, -0.042532858, 0.1273888, -0.0683241, 0.098599434, 0.03494536, 0.07908586, 0.09401273, 0.09711605, 0.06798541, 0.050762266, 0.17663026, 0.09219789, -0.02002699, -0.023514995, 0.06856939, 0.06627009, -0.03476262, -0.041603614, 0.057914868, -0.010450608, 0.14258955, 0.050874583, 0.073863685, 0.10347386, -0.010838405, -0.0433475, -0.07189728, -0.0646736, 0.10365673, 0.03207344, 0.07700504, 0.033458073, -0.1028472, 0.038242422, -0.037073035, -0.049166337, 0.03012811, -0.02619538, -0.030858578, -0.06462447, 0.087831154, -0.0074345246, 0.024679558, 0.011866125, 0.1624138, -0.01803809, 0.14940067, 0.06984445, 0.08851398, 0.18636823, 0.18882872, 0.02482588, -0.023814665, 0.14422998, 0.22284698, 0.3199427, 0.08956554, -0.09017235, 0.16184945, 0.25046107, 0.21216983, 0.1536661, 0.09972708, 0.23549694, 0.19918695, 0.2400182, 0.14323448, 0.118558526, 0.11064551, 0.25448114, 0.28066283, 0.11622121, 0.14444938, 0.19743982, 0.024823923, 0.2059951, 0.037100375, 0.07433837, 0.15900429, 0.11431529, 0.20435199, 0.030685458, -0.026603296, 0.11095615, 0.17844005, 0.3810197, 0.10761272, -0.06893067, -0.032959078, 0.06299355, -0.05408111, 0.0028093574, -0.08581981, -0.0006166758, -0.03734734, -0.058384325, -0.08950954, -0.022523269, -0.057326376, -0.07259527, -0.04129887, -0.08683485, 0.0021632756, -0.022220561, -0.06197183, -0.06635527, -0.056312833, 0.00097623037, -0.02112723, -0.076554276, -0.045205425, -0.067525126, -0.1105394, -0.098207325, -0.06302948, 0.0028733688, -0.09439599, 0.011681956, -0.068414494, -0.060547538, -0.118346915, -0.116217606, -0.03786701, -0.019716647, -0.11148176, -0.07751775, -0.068364136, -0.05115349, -0.032506514, -0.10759868, -0.002521442, 0.0071081067, -0.08634191, -0.08138972, -0.022781456}, {-0.8202524, 0.28535268, 0.017143762, 0.04671328, 0.066570014, 0.007847518, -0.028972654, 0.038839184, 0.0037842758, 0.0401569, 0.022665437, -0.032083437, 0.0035917482, -0.081456885, -0.06287638, -0.0019089467, -0.058724716, 0.020074012, -0.06903641, -0.028961979, 0.037297674, -0.028876333, -0.06586394, -0.037305262, 0.027983863, 0.029263103, 0.029064773, -0.039828528, -0.011779038, 0.041107994, 0.011253253, 0.009134891, -0.05184105, -0.011961257, 0.050142974, 0.02310514, -0.07030943, 0.00047785015, -0.01908964, -0.04122678, -0.01621338, -0.12112588, -0.06435001, -0.14141761, 0.028799335, 0.04973332, -0.20110334, 0.050957654, -0.035958655, -0.07548314, -0.17607176, -0.027707547, 0.014978795, -0.061572462, 0.04883532, -0.092369534, 0.003223322, 0.060364675, 0.06779897, -0.09636778, -0.005801636, -0.05414097, -0.056571815, -0.04634093, -0.010522391, -0.0628218, 0.02358141, 0.021759002, -0.0061475774, -0.06017706, -0.1123389, -0.051625792, 0.08585363, 0.035797264, -0.07427809, 0.031207724, 0.041752145, 0.07506948, 0.03480907, 0.021753175, -0.029924367, -0.12311834, 0.06434639, -0.03842778, -0.03252807, 0.006857915, 0.047364622, 0.0781052, -0.013600315, -0.04135438, 0.022513866, 0.08000108, 0.022845289, -0.05789266, -0.20089884, -0.21890444, -0.065315634, 0.025035882, -0.12688062, -0.13957801, -0.21007451, 0.030561581, 0.05324647, -0.051511437, -0.3179864, -0.16337582, -0.07679468, -0.06387457, -0.10961471, -0.17655571, -0.11058383, -0.015899956, 0.006527436, -0.15012424, -0.24275056, -0.34965727, -0.06982978, 0.00963029, -0.016579218, -0.03728604, -0.1113994, 0.0010771336, 0.03376068, -0.0037258372, -0.10597666, -0.33450967, -0.07923306, 0.12206302, 0.053393614, -0.075813405, -0.22315073, 0.05817608, 0.25637832, 0.13726668, -0.00025727146, 0.09898765, 0.049905144, 0.07890817, 0.03422362, 0.09710995, 0.15525952, 0.19642143, 0.1550759, 0.0363457, 0.16549608, 0.15649578, 0.195307, 0.069625005, 0.17844926, 0.116736814, 0.15520465, 0.07024845, 0.09496198, 0.05714527, 0.10481339, 0.11308364, 0.094708346, 0.1645612, 0.17428732, 0.15111825, 0.086623706, 0.12716569, 0.08334351, 0.12185852, 0.15814546, 0.19725537, 0.15772428, 0.071770936, 0.09193626, 0.102179326, 0.1687552, 0.2103009, 0.19640583, 0.16688512, 0.06659956, 0.08559181, 0.08578302, 0.092546515, 0.15377532, 0.15449175}, {-0.64665276, 0.21397947, 0.06863011, 0.04767971, 0.06971955, -0.030710958, -0.023822682, 0.10975398, 0.10977359, -0.00097011577, -0.03290047, -0.0040039215, -0.03273742, -0.07586241, -0.011300179, -0.07974915, 0.00918243, -0.04491878, -0.04336745, -0.03926098, -0.021925285, -0.028443536, -0.047928173, 0.010572703, -0.047416124, -0.07662944, 0.03844876, 0.015911369, -0.047628812, -0.012044749, -0.00797683, 0.041778456, 0.06985449, 0.016808154, 0.037865803, 0.012218948, -0.01691168, 0.045747332, -0.022452412, 0.06269963, -0.027818056, 0.027499285, -0.037929825, -0.011100715, 0.18449442, 0.039851658, -0.22170733, 0.062391214, 0.08610269, -0.057706654, -0.11610254, -0.12214362, -0.105989784, 0.02464997, -0.04300054, -0.07022284, -0.07660194, -0.057525404, 0.073251754, -0.019405182, -0.052175224, -0.023273297, 0.08602669, 0.017103817, 0.07085758, -0.0023197508, 0.009757471, 0.0053695133, -0.026882986, -0.021388248, -0.123787545, 0.04594303, 0.11088278, -0.020171834, -0.054577567, 0.07336862, 0.008366146, 0.04607806, -0.01195625, -0.018360943, -0.10214708, -0.00056962617, 0.06601882, 0.013906032, 0.023294903, -0.035362422, 0.043798335, 0.084935084, 0.044811428, -0.03777509, -0.027139876, 0.07627535, 0.060719263, -0.11312937, -0.1870999, -0.17859206, -0.04967286, 0.037508707, -0.14066176, -0.15737598, -0.26007533, -0.01527332, 0.05895874, -0.13036369, -0.28272456, -0.17696418, -0.031258017, -0.13813603, -0.193405, -0.10297703, -0.14229806, -0.08477929, -0.0353727, -0.13501589, -0.23009765, -0.371414, -0.13949212, -0.04614603, -0.05961406, -0.0142695345, -0.08690319, 0.036626726, -0.068531826, -0.10292947, -0.12617393, -0.21632247, -0.11229512, 0.0359468, -0.06986429, -0.031839896, -0.29168797, 0.025454164, 0.13191023, 0.124280915, 0.02867988, 0.0527121, -0.010231643, 0.14041616, 0.1575542, 0.1435783, 0.11231389, 0.10451371, 0.029076587, 0.107017584, 0.17120188, 0.15027303, 0.18837613, 0.07400579, 0.1601375, 0.1763731, 0.18072695, 0.097231336, 0.16057546, 0.042951394, 0.08984788, 0.15915973, 0.1784805, 0.18493833, 0.084723175, 0.08467171, 0.15811542, 0.10347909, 0.14828503, 0.107471764, 0.18889087, 0.16173846, 0.13541247, 0.09598483, 0.09308464, 0.105632514, 0.06978173, 0.1647497, 0.15950018, 0.07135075, 0.071138404, 0.019445203, 0.06702862, 0.041227493, 0.15908319, 0.041975357}, {-0.34934956, 0.09029527, 0.06145846, 0.10547573, 0.06806252, 0.17634447, 0.048494782, 0.08085337, 0.022235077, 0.15094528, 0.17089912, 0.1064397, 0.12316721, 0.11860216, 0.108554155, 0.09360423, 0.14357558, 0.15766382, 0.1323135, 0.16113088, 0.13976514, 0.1288303, 0.0933084, 0.10927344, 0.063284196, -0.002598502, 0.055496752, -0.012040745, -0.044560373, -0.0490448, -0.002394894, -0.05918584, -0.034800187, -0.09843105, -0.111374594, -0.103470735, -0.1727746, -0.13588297, -0.15501733, -0.15172437, -0.100202, -0.17434126, -0.037127886, -0.10124246, -0.3869385, -0.03720339, 0.06927877, -0.28665388, -0.031721305, -0.28329873, -0.49798417, -0.21195465, -0.117553785, -0.08247714, -0.31113747, -0.380425, -0.37900883, -0.29501998, -0.262858, -0.4742801, -0.6428328, -0.48707393, -0.3637759, -0.36839074, -0.4546347, -0.67698747, -0.57704675, -0.37352732, -0.47891816, -0.64108735, -0.49333227, -0.3828376, -0.22198206, -0.49511787, -0.7401981, -0.7339904, -0.6860895, -0.531485, -0.7647229, -0.6729678, -0.68692476, -0.53778213, -0.47460467, -0.5542712, -0.6620954, -0.4143839, -0.564196, -0.43563503, -0.38748872, -0.5975907, -0.043581933, -0.0529097, -0.16800998, -0.33193776, -0.3726974, -0.6741049, -0.25785303, -0.33456028, -0.57083327, -0.5132635, -0.5170939, -0.31371582, -0.40477294, -0.6330697, -0.6249015, -0.91952455, -0.6039702, -0.53613466, -0.6940645, -0.89055216, -0.9200565, -0.62952346, -0.48796365, -0.83921623, -0.6307233, -0.8070835, -0.39859077, -0.47491884, -0.6000782, -0.7023749, -0.8578728, -0.4795658, -0.6064885, -0.95003474, -0.6095698, -0.6357255, -0.51128167, -0.39409247, -0.7106749, -0.9205793, -0.82883763, -0.5735802, -0.5655888, -0.8014497, -0.0030325637, 0.16346271, 0.13822483, 0.2262982, 0.19036724, 0.075004004, 0.14815193, 0.13516016, 0.10870147, 0.052139953, 0.103543915, 0.10153834, 0.034272335, 0.013940211, 0.04297867, 0.06909885, 0.07701679, 0.012706295, -0.037094228, 0.049615964, 0.18414964, 0.14592227, 0.051234078, -0.033737972, 0.056936108, 0.027798163, -0.0060853907, -0.0071611768, -0.038729455, -0.00042001889, 0.005279156, 0.010107445, 0.020510057, -0.022497695, -0.013586319, 0.010011619, 0.026051283, 0.124080405, 0.031125879, 0.057911627, 0.062845044, 0.04441116, 0.03916527, -0.03466701, 0.010353865, -0.23893432}, {-0.8320482, 0.2852089, 0.08183791, 0.07485655, 0.119823046, 0.05027062, 0.048417196, 0.012850633, 0.055435035, 0.05943286, 0.0035382148, 0.006537272, 0.019646043, -0.0011069058, 0.0045401705, -0.047775324, 0.04739179, -0.055586386, -0.02610656, -0.060897175, 0.0064555877, -0.07489885, 0.033248212, -0.09608118, -0.0587248, -0.028120458, -0.07354896, -0.004635556, -0.081506126, -0.04106511, -0.03924955, -0.045088056, -0.026283618, -0.07696322, 0.020748593, -0.04513565, -0.051699422, -0.020568063, -0.033053342, -0.059004053, -0.076862626, -0.04549034, -0.075080074, -0.02904419, 0.10930609, 0.018211469, -0.19980863, 0.0871002, 0.0055523324, -0.03461695, -0.02154377, -0.0064459424, -0.060857814, 0.03462776, -0.0468204, -0.028316518, -0.08655919, -0.08281993, 0.06100885, -0.0023193692, -0.012640473, -0.048733126, 0.05993752, -0.05616974, 0.033217505, -0.0717007, 0.049395658, -0.041408036, 0.038137227, -0.04069053, -0.03794109, 0.10910183, 0.0027793534, -0.04526849, -0.003112151, 0.020433271, 0.0058493903, -0.016915955, 0.0685133, -0.040280946, 0.04655773, 0.0018824156, -0.034917697, -0.0027485318, 0.040257886, -0.085132755, 0.031880464, -0.0012761024, -0.035155993, -0.09795609, 0.015781842, 0.029472025, 0.09081985, -0.060589813, -0.044172633, -0.14868894, -0.048414845, -0.008849134, -0.025625482, -0.17874658, -0.26815706, 0.01431466, 0.12880526, -0.09763628, -0.2738258, -0.16777468, 0.008551437, 0.013651786, -0.14357862, -0.16427477, -0.09402026, 0.009674433, 0.023162179, -0.1470376, -0.12513237, -0.14745009, -0.03483548, 0.07214042, -0.04081061, -0.0153745385, -0.0961314, -0.022266483, 0.004938889, -0.073499545, -0.0365567, -0.13257247, 0.07446957, 0.15933765, -0.018379001, 0.039520275, -0.27012607, -0.023627155, 0.23091747, 0.117192484, 0.058121134, 0.12916507, 0.118063085, 0.21138608, 0.15947223, 0.13342561, 0.07701235, 0.10679908, 0.14851572, 0.09135012, 0.06583374, 0.12366004, 0.11772504, 0.05678712, 0.057530105, 0.11596326, 0.14849624, 0.17325942, 0.052482396, 0.052351035, 0.08256235, 0.13775642, 0.1348657, 0.17829055, 0.065575756, 0.20293926, 0.100788705, 0.078673445, 0.060294278, 0.1427235, 0.15972827, 0.23216303, 0.171984, 0.18065225, 0.18774158, 0.1131881, 0.15250196, 0.14561535, 0.10682629, 0.0943956, 0.08848394, 0.15630424, 0.072981805, 0.028936638, 0.136134, 0.14061673}, {0.68968517, -0.058022592, -0.059678864, -0.004808926, 0.016392644, -0.0034943246, 0.047782037, -0.010963378, 0.073002145, 0.013628759, 0.041077223, 0.122709095, 0.11372238, 0.10975294, 0.04083262, 0.05569908, 0.064929344, 0.08941803, 0.11096669, 0.018435387, 0.057188895, 0.04162002, 0.06732533, 0.009893706, 0.10865037, 0.075267844, 0.09099456, 0.016711863, 0.1413877, 0.09007573, 0.06449876, 0.034042574, -0.006106255, -0.022567894, 0.10825071, 0.03451478, 0.0030985577, -0.040341385, 0.025826547, 0.085445315, 0.04473082, 0.058638964, 0.019842125, 0.12911981, -0.19415651, 0.050765865, 0.17480358, -0.09207166, -0.009737195, 0.010032641, 0.12577565, -0.024381319, 0.047279567, 0.10701567, -0.0064841723, 0.13622615, 0.04805925, 0.031736683, 0.09779829, 0.036552053, 0.08006754, -0.024005368, 0.032252666, 0.07034187, 0.013157267, 0.033423785, 0.016110513, -0.02658237, 0.0045887395, 0.07357734, 0.009951139, -0.04280607, -0.069837354, 0.10873588, 0.045782294, -0.035853855, 0.04993034, -0.073735975, 0.059321713, 0.05049118, 0.03249073, -0.060413446, -0.021423178, -0.024881028, -0.07428669, -0.016716227, -0.02922249, -0.09766717, 0.0015387873, 0.037903626, -0.055380564, 0.005438072, -0.03435785, 0.14086044, 0.16112569, 0.1324175, 0.15309191, 0.064389296, 0.18159066, 0.2230405, 0.20936468, 0.11995369, -0.006513535, 0.06846808, 0.3051505, 0.16847968, 0.10454452, 0.013521609, 0.12179528, 0.20027286, 0.15555902, 0.16207545, 0.12518577, 0.24038124, 0.1669866, 0.21172604, 0.1795664, 0.0442122, 0.120741926, 0.13991566, 0.1488815, 0.053305723, 0.12261251, 0.2020754, 0.13328299, 0.2258731, 0.044941016, -0.04216782, 0.13922769, 0.16292416, 0.36691695, 0.05149009, -0.06337998, -0.034200516, 0.07426696, 0.0076522087, 0.06924716, -0.10673276, -0.007640052, -0.051660765, 0.008181382, -0.0373269, -0.03883114, -0.028136479, -0.065132976, 0.009406958, -0.10347621, -0.004883456, 0.026248593, -0.016726635, -0.060486354, -0.015538746, 0.023055276, 0.02029748, -0.015791321, -0.07692167, -0.010652268, -0.039532922, 0.022252629, 0.028089793, -0.03681977, -0.035343815, 0.052369643, -0.030931327, -0.05831461, -0.10168505, -0.047141876, -0.053493958, -0.06509666, -0.08265788, -0.006577478, -0.042317923, -0.008382598, -0.0012267036, 0.0029767822, 0.046221286, 0.045096792, -0.039638095, 0.02742942, -0.05892087}, {0.7141609, -0.12059205, -0.07276843, 0.011237686, 0.08338368, 0.013579185, -0.0010048948, 0.04566372, 0.025586855, 0.06672668, 0.047801968, 0.04726352, 0.0014331781, 0.07744773, 0.11141798, 0.057216875, -0.004384823, 0.0627351, 0.0725114, 0.093831405, 0.0642273, -0.016243124, 0.078218564, 0.12433864, 0.140776, 0.039866786, 0.035897344, -0.023271888, 0.13751623, 0.15322435, 0.061141297, 0.058147456, 0.07988761, 0.087750554, 0.027691174, 0.04626786, -0.024825772, -0.075611435, 0.0055008326, 0.023379851, 0.10272782, 0.10760412, 0.026336957, 0.10414893, -0.1821814, 0.036216743, 0.13128754, -0.086610906, 0.003123541, 0.110796645, 0.118826956, 0.07288816, 0.068992816, 0.018871652, -0.008571104, 0.06652926, 0.020422658, -0.008109228, 0.06769881, 0.14143188, 0.1071124, 0.052134022, 0.0151414685, 0.078051336, -0.020153847, 0.106703, 0.047296103, 0.0355206, 0.058511116, 0.025841812, -0.05195409, -0.019025598, -0.047267575, 0.11342605, 0.07420146, 0.07806363, -0.021747438, 0.01553532, -0.043929826, 0.016236257, 0.08555223, 0.016587669, -0.04649114, 0.07132695, -0.07017348, 0.06457637, -0.048458926, 0.00860195, 0.051932573, 0.12615289, -0.032611616, -0.04548197, -0.02898336, 0.1720518, 0.16582176, 0.07605415, 0.040162057, 0.070393525, 0.10850963, 0.17460409, 0.2045181, 0.09883722, 0.012921611, 0.09821221, 0.26439062, 0.13033552, 0.128888, 