const float conv1_weight[6][3][3] = {{0.28862917, 0.19181255, -0.15186727, -0.04426503, -0.23251507, 0.4341447, -0.065336876, -0.079168424, 0.067154884}, {0.24007542, -0.034987528, 0.22671366, 0.22317025, 0.07886104, 0.33986786, -0.32614076, -0.15814333, 0.027129471}, {-0.29163805, -0.23412731, -0.11335693, -0.2179332, 0.1292217, -0.2251501, 0.39892012, 0.37570727, 0.10146432}, {0.07662598, -0.108470924, 0.14410539, 0.4196495, 0.33152243, 0.39124158, 0.14583229, 0.11058133, 0.00222505}, {-0.24513434, 0.001394108, 0.34424916, 0.25712502, -0.113240436, 0.27196568, 0.35712603, -0.27466813, -0.37466046}, {-0.50049114, -0.64475274, -0.67930716, 0.16316886, 0.26005846, -0.078497, 0.13615613, 0.07394372, -0.07567886}};
const float conv1_bias[6] = {-0.22368601, 0.08422576, 0.32139793, -0.26998657, 0.18363051, -0.2566224};
const float conv2_weight[4][6][3] = {{-0.029916313, -0.10019005, 0.44786304, 0.11377245, 0.0430556, 0.103991434, 0.039497096, 0.03458846, 0.08057882, 0.41538867, -0.07437883, -0.18451256, 0.03322382, -0.2782781, -0.020849545, 0.19226989, 0.28507018, -0.1056062}, {0.71600074, -0.023661051, 0.22041892, 0.25485435, 0.15617515, 0.058732882, 0.054822125, -0.0080773765, -0.04371992, 0.073737495, -0.03316277, 0.04294957, 0.14306803, -0.20557788, 0.0026670056, -0.09942326, 0.082935944, 0.33235762}, {-0.065547094, -0.09328631, -0.15607995, 0.32725152, 0.3669852, -0.15289906, 0.23029816, -0.05776937, -0.12904857, -0.019445088, -0.035841707, 0.18168145, 0.007045323, -0.45333606, -0.4660446, 0.090815395, 0.29142597, 0.2877955}, {0.5851059, -0.1502899, 0.16345549, -0.09680673, 0.18491477, -0.10713516, -0.0005422343, 0.26630634, 0.060236488, -0.17588313, 0.07308933, -0.09454268, 0.607373, 0.20523661, 0.30183873, -0.59311527, -0.14214745, -0.008012962}};
const float conv2_bias[4] = {-0.1737207, -0.21839976, -0.024042167, -0.09304893};
const float net1_weight[45][180] = {{0.21964893, 0.12151416, -0.52583134, -0.52329105, 0.4987395, -0.14468402, 0.024204094, 0.101769045, -0.17718437, 0.29593763, -0.051232293, 0.026140092, 0.03511355, -0.3947941, -0.2640282, -0.05377571, 0.06148561, -0.20191583, -0.21305661, 0.4336403, -0.12492282, -0.01625821, -0.4939883, -0.55195284, -0.064386934, -0.121688776, -0.3237594, -0.6664038, -0.7846483, 0.07933798, -0.23112291, -0.38148046, -0.54289037, -0.52356774, 0.25254807, -0.3244585, -0.43428987, -0.61440647, -0.4699883, 0.54943144, -0.17002822, -0.5272238, -0.14752166, -0.701951, 0.3996684, 0.026791286, -0.20960902, 0.03479871, 0.14895838, 0.1088633, -0.014869663, -0.049367078, -0.080550686, 0.1459066, 0.038219478, 0.07132084, -0.09614431, 0.113177985, 0.0058867433, -0.034791246, -0.020199494, -0.058066145, -0.08751017, -0.089262225, 0.0466638, -0.01289409, -0.14270245, 0.00054315245, 0.065726, 0.079127714, 0.09751625, -0.023663953, 0.0138824, 0.09703263, -0.073284805, -0.20881777, -0.15708427, 0.028884005, 0.17807442, 0.07631271, 0.14391162, 0.068802424, 0.079401456, 0.17736411, -0.0015346376, -0.118001305, -0.12567449, -0.09285851, -0.03836332, 0.2009, 0.20467824, -0.49514675, -0.30533844, -0.31279567, -0.5850699, -0.81177723, -0.5989946, -0.24461901, -0.22322266, -0.6361158, -0.76620734, -0.45660794, -0.20984954, -0.17754391, -0.5127793, -0.57287747, -0.66175133, -0.39783955, -0.22738029, -0.59963953, -0.7126937, -0.49368665, -0.38023847, -0.11636824, -0.48414472, -0.57982314, -0.6138058, -0.5218002, -0.2931266, -0.84788764, -0.91234267, -0.67365843, -0.5229399, -0.59825337, -0.45178017, -0.7623206, -0.76243764, -0.684841, -0.31022465, -0.4732784, -0.8087311, -0.6210674, -0.5086422, -0.17445031, -0.17382489, 0.16591796, -0.040571827, 0.024156872, 0.091107704, -0.027449364, 0.05763645, 0.1434477, 0.06810451, 0.107590966, 0.027153336, 0.09372536, 0.1595802, 0.014047282, 0.059735227, 0.09219824, 0.11978234, 0.08640882, 0.0016326888, 0.081177816, 0.03527539, 0.07019341, -0.051448196, 0.13409896, 0.055962138, -0.009107791, 0.09427051, 0.013999596, -0.0042799655, 0.06704452, -0.042396836, 0.1112818, 0.037447136, 0.08893451, 0.062328752, -0.029358018, 0.16432026, -0.046423074, 0.04830741, 0.14967059, -0.16995302, 0.10862523, -0.07769363, -0.031145025, 0.017828051, -0.16480576}, {0.5568099, 0.78723395, -0.18712896, -0.34811634, 0.07936303, -0.3546767, 0.020902457, 0.23910192, -0.09236194, 0.35385987, -0.12464566, -0.046164375, 0.009783681, -0.39789754, -0.2632217, -0.20011501, -0.13441643, -0.19379616, -0.44273698, 0.14036292, -0.3175782, -0.17072046, 0.09930012, -0.24545276, 0.19168817, 0.004695864, -0.084968835, -0.033042543, -0.6579643, -0.00982164, -0.14783154, -0.48344037, -0.46215674, -0.4460654, 0.4258666, -0.009317645, -0.15174592, 0.38261947, -0.47675964, 0.39121953, 0.06674221, -0.44552067, 0.1869315, -0.44964203, -0.06455959, 0.01104007, -0.06572589, 0.00033107007, 0.19832338, 0.1771351, -0.008015022, -0.1588865, -0.15495642, 0.009268732, 0.03460174, -0.025046753, -0.21683556, -0.10595347, -0.053903434, -0.039648224, -0.0094161425, -0.0887709, -0.08938607, 0.10311685, 0.21107526, 0.08480662, -0.04308046, -0.063202076, 0.10041052, 0.12069107, 0.08067949, 0.017751707, 0.07834327, 0.19895707, 0.0015652417, -0.0612657, 0.054149967, 0.017841259, 0.16435666, 0.09107045, 0.01090414, -0.1098579, -0.17899647, -0.026200607, -0.008869829, -0.23501465, -0.27297807, -0.26372388, -0.03718575, 0.07198847, 0.23163879, -0.7485826, -0.5342864, -0.022965237, -0.3583696, -0.53720534, -0.43474504, -0.33935916, -0.22343962, -0.51684636, -0.601037, -0.56772107, -0.5576202, -0.44436508, -0.5392555, -0.57917523, -0.6525464, -0.50468075, -0.1675836, -0.16796353, -0.4926596, -0.36986956, -0.33213812, 0.09901597, -0.25679493, -0.24492142, -0.37979084, -0.49504933, -0.20301782, -0.45108804, -0.55964637, -0.30792373, -0.21866615, -0.055190004, -0.14944905, -0.40916014, -0.3225327, -0.49593875, -0.16579309, -0.19051348, -0.49659032, -0.47266692, -0.3876013, -0.33026984, -0.21405342, 0.011105357, -0.13205814, 0.053612657, -0.029392473, -0.04381344, -0.06791924, -0.0895372, -0.055393543, 0.0722181, -0.003061616, 0.06355419, -0.016955923, 0.037141133, 0.03103277, 0.022181904, -0.005293314, 0.056716423, 0.04468652, 0.013181969, 0.09241519, 0.06973759, 0.11514373, 0.048629187, 0.11957276, 0.057330564, 0.21808676, 0.083599605, 0.16548079, 0.0948864, 0.13596101, 0.021502664, 0.028770141, 0.06379664, 0.14987977, 0.0462632, 0.14767948, 0.15408562, 0.087953076, 0.018255236, 0.018781936, 0.030545048, -0.0140520735, 0.026378386, -0.020216031, -0.08639679}, {0.5001393, 0.41648397, -0.22277938, -0.36377046, 0.19849388, -0.37987307, -0.24133779, -0.16668837, -0.46239188, -0.33935755, -0.37212765, -0.44130152, -0.30224535, -0.4448374, -0.2579222, -0.19385016, -0.121266276, -0.2564026, -0.38621026, -0.26937646, -0.3854805, -0.10282916, -0.00906573, -0.3777367, -0.14332111, -0.055108365, 0.13773677, 0.38267517, -0.062710464, -0.04019398, 0.22502568, 0.36188895, 0.3428841, 0.079652846, 0.20389637, 0.15251079, 0.003961612, 0.22127056, 0.025749201, 0.27869922, 0.28498107, 0.23621723, 0.43624106, 0.27053204, 0.17317152, 0.010276304, 0.1003647, 0.28086114, 0.4688646, 0.33250853, 0.25096008, 0.22811177, -0.018433444, -0.075554505, 0.17390923, 0.033847336, 0.18526037, 0.021621328, 0.10031105, 0.21303476, 0.21994112, 0.1442737, -0.11103256, 0.15216646, 0.0051158518, 0.09241131, -0.1369006, -0.2698947, -0.1715905, 0.079307474, -0.2953548, 0.12836723, -0.17395781, 0.21567418, 0.0480269, -0.08875019, -0.14762942, -0.2804909, 0.021566922, -0.07694703, 0.08224375, -0.34966642, -0.65276384, -0.19815773, 0.06852062, -0.13026467, -0.34914565, -0.4689711, -0.042130534, 0.27672473, 0.48182142, -0.05021914, -0.17226842, -0.060624808, 0.1860181, 0.031414133, 0.0005387752, -0.22397643, -0.15841314, -0.05199158, -0.094374366, -0.089442134, -0.002953081, -0.21150601, 0.15781553, -0.08986702, 0.103731684, -0.14529726, -0.10972742, -0.047913507, -0.1406563, -0.09002975, -0.28184703, 0.0400806, 0.103269584, -0.012088354, 0.22752881, -0.081061624, 0.24847305, 0.32899442, 0.17694111, 0.29562882, 0.11613694, 0.2724173, 0.31758094, 0.21555364, 0.13976435, 0.124378935, 0.21810013, 0.3323055, 0.2428801, 0.27926964, 0.19817069, 0.3959927, -0.07543176, -0.08633438, -0.06289714, 0.048881833, 0.20780829, 0.059579328, -0.05097536, 0.037346777, -0.004690692, 0.11753782, 0.06963854, -0.0869151, -0.05920146, 0.008249089, 0.13449375, -0.0041003623, 0.10486764, 0.05673572, 0.06266752, 0.15053032, -0.091636404, -0.057124894, 0.033978026, 0.058407407, -0.042999722, 0.036010236, 0.09343769, 0.010230187, 0.10077862, 0.10207851, 0.066747054, 0.028141866, 0.07810611, -0.014820494, 0.14879054, -0.08464044, -0.049563583, -0.04038521, -0.0938943, 0.0253986, -0.09646416, -0.019625068, -0.021609757, -0.047031254, 0.053781003, -0.08830436}, {0.19037157, -0.13200793, -0.06722157, 0.20888299, 0.015911832, 0.15865508, -0.0022341856, -0.03317148, 0.031588785, 0.03125602, 0.027960716, -0.2040808, -0.26522014, -0.20919387, -0.23967613, -0.20366126, -0.23078562, -0.3640704, -0.044951685, -0.0043706186, 0.12879029, -0.0037340086, -0.046773892, 0.21858436, 0.04394182, 0.1380284, 0.10821285, -0.114816755, 0.18157044, -0.06365406, 0.06758944, 0.046410326, -0.08314056, -0.033116035, -0.36215502, -0.25379172, -0.13007471, -0.42289805, 0.099978246, -0.026717747, 0.08154918, 0.057472743, -0.104666725, 0.18520744, 0.06866769, 0.17098056, 0.3146744, 0.1566334, -0.027803397, 0.02407981, -0.04633601, 0.29379547, 0.41299993, -0.012833585, 0.033842288, 0.06155505, 0.19281065, 0.38116184, 0.03332424, 0.019999817, 0.09558438, 0.20880596, 0.24178049, 0.0021813211, -0.0583143, 0.08283668, 0.124647856, 0.22230387, 0.07790482, -0.019894704, -0.035337385, -0.014102196, 0.23766956, -0.07842334, -0.02282366, 0.22396359, 0.116891116, 0.091599114, 0.014623201, 0.055635393, -0.15673147, 0.12667507, 0.20824909, 0.1520277, -0.06922743, -0.045413528, -0.0024000998, 0.22382624, -0.04254094, -0.21768491, -0.3640386, 0.124760486, -0.0055273282, -0.21818356, -0.042853676, 0.1859535, 0.17386717, 0.17309861, 0.040531375, 0.18584614, 0.23591627, 0.13871463, 0.12899548, 0.049862567, -0.11502734, -0.042766325, -0.07883831, -0.07857043, -0.17085429, -0.01201788, 0.08885662, 0.022350142, 0.11777692, 0.06420018, 0.2213894, 0.25883403, 0.20169738, 0.42710677, 0.22087675, 0.25464705, 0.29026812, 0.09089988, 0.08111303, -0.07176483, -0.1352571, -0.1121814, -0.14458518, -0.0844018, -0.10264685, -0.0051967595, 0.19964969, 0.15326928, 0.3220835, 0.12587209, 0.16203788, -0.0029468157, -0.13562228, -0.07253209, 0.05455199, 0.16617088, 0.06202445, 0.19946675, 0.15024793, -0.005550226, 0.008303945, -0.039283194, -0.072499104, -0.07737768, -0.16138598, -0.08983871, -0.187971, -0.23509698, -0.087667026, -0.13235188, -0.10212746, -0.020726044, 0.13257354, 0.17358272, 0.11349098, 0.19336204, 0.118768565, 0.099847056, 0.033644084, -0.12041621, -0.02076193, -0.106753215, -0.21559794, -0.11898418, -0.17415765, -0.20236953, -0.24700758, -0.21406639, -0.05962228, -0.06480858, 0.0119288275, -0.035490014, 0.08975964, 0.18125385, 0.0658786, 0.17536958}, {0.10098824, -0.21384299, -0.15866216, 0.03279335, -0.059617035, 0.07304997, -0.05965333, -0.18443768, -0.0837528, -0.19082756, -0.098919906, -0.20032991, -0.23346867, -0.16836856, -0.21678787, -0.1390551, -0.21513475, -0.38266736, 0.047303535, -0.10655848, 0.0040094177, 0.045128573, -0.112424575, 0.11913187, -0.0033702974, 0.028082121, 0.09284159, -0.13414179, 0.12975918, -0.04212158, -0.07276436, -0.13676104, -0.2625238, 0.0050119148, -0.3114764, -0.17675295, -0.02567477, -0.37412474, 0.16940048, -0.015962165, 0.03835259, 0.09788244, -0.018557461, 0.18277623, 0.13896762, 0.23630977, 0.3046168, 0.027887704, -0.0493164, 0.08835535, -0.06673023, 0.26709434, 0.30373198, 0.01889716, 0.019224426, 0.10087077, 0.12874115, 0.3451296, 0.04429292, 0.05023362, 0.049965985, 0.18919306, 0.22177522, -0.080108345, -0.16412784, 0.08078211, 0.022615809, 0.14940952, 0.13796721, -0.036344737, -0.0149549125, 0.039176885, 0.29778254, -0.049889028, -0.047309455, 0.112063915, 0.15474266, 0.17622168, 0.0120439865, 0.040326133, -0.15934253, 0.09039889, 0.29758975, 0.14117265, -0.13950592, -0.09008362, 0.0052512125, 0.24132589, 0.09269636, -0.21749581, -0.3876965, 0.12094795, 0.1356711, -0.044318017, 0.010677943, 0.07628524, 0.05061568, 0.08290398, -0.06516978, 0.015326867, 0.15254992, 0.0019111215, 0.08610376, 0.024343872, -0.07420134, 0.017405083, 0.06386546, 0.10173051, 0.08270462, 0.10528653, 0.13188936, 0.020772781, 0.16644754, 0.076510735, 0.15889446, 0.16943757, 0.09912799, 0.25676942, 0.0159176, 0.065208584, 0.0979359, -0.0740256, 0.04099463, -0.040409707, -0.033704907, 0.0738745, 0.11704995, 0.1228666, 0.13932896, 0.023128092, 0.27085474, 0.06938134, 0.15903789, 0.086035535, 0.2084436, 0.07370248, 0.117588945, -0.016352696, -0.007413175, 0.07936088, -0.04314977, -0.0062913992, -0.03915028, -0.014595967, 0.019643666, 0.033714034, -0.10472051, 0.119414605, 0.014473101, 0.07555164, 0.024736399, 0.06983387, 0.10257559, 0.008291371, -0.028342163, 0.04771445, 0.04325758, -0.0806714, 0.046865173, 0.020889748, -0.13019183, -0.15497094, -0.029576486, -0.048275296, 0.0043993075, -0.0026440537, -0.025009414, -0.037847087, -0.000102585116, 0.07365497, -0.086483926, -0.07855109, 0.06953202, -0.09210632, -0.061218534, -0.00893094, -0.0006528074, 0.0794324, -0.09233146, 0.08872353}, {0.119469196, -0.069578834, -0.04340378, 0.10708033, -0.13021943, 0.052858144, -0.09959982, -0.13270605, 0.045674816, -0.1440777, -0.06977898, -0.07545232, -0.1913978, -0.09866883, -0.025731945, -0.059349198, -0.10853975, -0.2002548, 0.14526908, 0.09045057, 0.11794254, -0.057561778, -0.15678202, 0.06034382, -0.114808, 0.09142589, 0.13345943, -0.103873655, 0.049999062, 0.012447683, -0.028175402, 0.023029022, -0.14366172, 0.11093313, -0.052235816, -0.08352818, 0.050732475, -0.21133794, 0.2072145, -0.036582228, 0.060922615, 0.014444946, -0.122518085, 0.11103131, 0.03479179, 0.25110686, 0.2525256, 0.12656376, -0.10848243, 0.07134258, -0.0635675, 0.26674488, 0.32050514, -0.002708534, 0.030152587, 0.08710811, 0.08265245, 0.37244737, 0.03769365, -0.06985478, 0.094764106, 0.17144991, 0.31093723, 0.020346962, -0.10059618, 0.038197733, -0.0011214688, 0.21577449, 0.08760384, -0.025924677, 0.011783221, 0.09396762, 0.25081322, -0.051463973, -0.08310851, 0.17095985, 0.17127085, 0.0815605, 0.017017685, 0.08014801, -0.17161931, 0.09525258, 0.3071988, 0.029162189, -0.04681776, -0.036806792, -8.5830245e-05, 0.16536641, 0.04550118, -0.13028446, -0.26681706, 0.09752947, 0.088514164, -0.014995656, 0.15039593, 0.24112251, 0.14105855, 0.18294641, -0.057193913, 0.102129094, 0.058525287, 0.0036957702, 0.0010465063, -0.12408932, -0.14220679, 0.06321707, -0.015167488, 0.08862232, -0.07352139, 0.067246616, 0.2640601, 0.039358642, 0.27451453, 0.14293666, 0.10308154, 0.20680273, 0.1510454, 0.28775433, 0.06791307, 0.070068575, 0.14399534, -0.00545359, -0.005906292, -0.13636842, 0.0009879818, 0.05469312, 0.13205193, 0.1943833, 0.13525005, 0.1392151, 0.30178556, 0.16292506, 0.26410097, 0.07330222, 0.1440281, 0.1246958, 0.025750732, 0.06932294, 0.08028513, 0.18993019, 0.031321444, 0.02311027, -0.02385863, -0.04090063, -0.119297534, -0.17911184, -0.113152735, -0.108704984, -0.080117375, -0.06964628, -0.008576487, -0.043732237, 0.10675851, -0.050120883, 0.10391962, 0.119018205, 0.018208617, 0.10937025, 0.033409577, -0.063055225, -0.1619481, -0.09754738, -0.03806134, -0.21795829, -0.17076088, -0.2089906, -0.08450615, -0.097931355, -0.14480355, 0.025326997, 0.01717417, -0.0097232675, 0.07459255, 0.054942153, 0.03236946, -0.01847894, -0.055895735, -0.055930696, -0.10553076, -0.034717288}, {0.1424839, -0.21626824, -0.22690925, 0.019018814, -0.06740362, 0.019758971, -0.07099092, -0.15611643, -0.056456972, -0.058328725, 0.047069598, -0.08050952, -0.21630618, -0.13172449, -0.17235792, -0.04838811, -0.12173033, -0.2940236, 0.065831065, -0.07713691, 0.043715235, -0.09155956, -0.16738202, 0.041087605, -0.064624235, -0.0088270875, 0.038204934, -0.17063862, 0.06565104, -0.037735835, 0.04618044, 0.03938378, -0.1425932, 0.054544464, -0.1511798, -0.08035895, 0.05879708, -0.25290847, 0.17691034, -0.09254182, 0.13093884, 0.073627144, -0.10713566, 0.06609006, 0.033998575, 0.1743246, 0.25076795, 0.08767592, -0.042763464, 0.035753615, -0.06852366, 0.31420866, 0.306986, -0.068821646, -0.0028673662, -0.0186984, 0.1469832, 0.30770653, -0.09095951, -0.0596246, 0.07797492, 0.19859077, 0.3229523, -0.09118193, -0.07120315, 0.08061143, 0.028844403, 0.20424485, 0.08235012, -0.009761093, -0.0025423316, 0.08319247, 0.21787773, -0.15500586, -0.055980697, 0.04522734, 0.1786966, 0.15582353, -0.014653843, 0.023005499, -0.15520896, 0.1267471, 0.20049284, 0.06631159, -0.12518062, -0.123259164, -0.015972648, 0.12211659, 0.06927504, -0.16381909, -0.3697139, 0.05900173, 0.19838776, -0.02224009, 0.108799085, 0.1539569, 0.04407607, 0.0754652, 0.0039081136, 0.015735583, 0.0672117, 0.09092385, 0.11582137, 0.014861166, -0.029173777, 0.0774559, -0.006060499, 0.0576062, -0.022297129, 0.10742217, 0.25676924, 0.059299994, 0.21182753, 0.034735247, 0.082336314, 0.107274145, 0.117011406, 0.2523922, 0.06841642, 0.14756225, 0.17750113, 0.06315897, 0.15614244, 0.051529758, 0.022822578, 0.11453266, 0.1675512, 0.115272745, 0.1128543, 0.11289073, 0.19585459, 0.052847642, 0.16840506, -0.0045410534, 0.15506716, 0.13515031, 0.03536442, -0.083132416, -0.00021504604, 0.120339245, -0.03671647, 0.044017226, 0.008749248, -0.022089634, 0.040391687, 0.005111375, -0.05100947, 0.11482487, -0.036082953, -0.024443923, 0.09735351, 0.068059556, 0.08648944, 0.03341555, 0.09552708, 0.09091909, 0.057387006, -0.05859033, -0.018512527, -0.058558993, -0.06762725, -0.16602269, -0.044819895, -0.100235835, -0.07673561, -0.08689765, -0.106932715, 0.008987989, -0.12380917, -0.0026709964, -0.05345411, -0.049735907, -0.04952957, -0.047315914, -0.052263804, -0.08657719, -0.13430008, -0.06810837, -0.086724, 0.063068405}, {0.16254054, -0.10413521, -0.12883031, 0.049361013, -0.09040739, 0.09382643, -0.11396937, -0.10549559, -0.03377182, -0.124847956, -0.04740398, -0.072365746, -0.16498391, -0.09753403, -0.15199889, -0.08954468, -0.07727906, -0.29749504, 0.0012160983, -0.074497655, 0.034310617, -0.009278388, -0.13969497, 0.09910685, -0.14694118, 0.017295692, 0.03456373, -0.22161889, 0.061382886, -0.07781999, -0.024429817, -0.013462527, -0.13015975, 0.030098611, -0.12137786, -0.03868173, -0.049538497, -0.29307055, 0.12787506, -0.14968182, 0.107395194, -0.017573973, -0.038377922, 0.16459918, 0.025448339, 0.19969748, 0.3335931, 0.01650832, -0.061609104, 0.04672127, 0.026564056, 0.2556749, 0.3393001, -0.03922458, -0.12892833, 0.0027813881, 0.071296416, 0.32307202, -0.062699385, -0.015081662, 0.020937141, 0.19870469, 0.24747476, -0.03433513, -0.1500688, 0.11744372, 0.029282581, 0.13918445, 0.09852703, 0.0095703155, -0.015319216, 0.09698731, 0.26165068, -0.10759185, -0.0015673038, 0.13563849, 0.12061356, 0.0880009, 0.009830863, 0.0068670018, -0.111109875, 0.024911705, 0.21958688, 0.12331895, -0.14589396, -0.0820159, -0.0045465124, 0.20090878, 0.022872293, -0.2636188, -0.26167604, 0.07112261, 0.1228753, -0.025217332, 0.023274533, 0.13766217, 0.050623063, 0.08781473, -0.065065175, 0.11530397, 0.08096248, 0.04149183, 0.14761505, 0.0020491541, -0.08010081, 0.11570521, 0.08909986, 0.07970686, -0.0060933274, 0.05045209, 0.22076344, 0.08962578, 0.16081522, 0.009522585, 0.02687852, 0.11110618, 0.16949245, 0.25441357, 0.07504393, 0.025136577, 0.20158067, 0.039425615, 0.17314936, 0.0059385174, -0.024428798, 0.08591266, 0.13284291, 0.22567439, 0.19812427, 0.14249098, 0.25294736, 0.076629445, 0.29426315, 0.024681479, 0.16220842, 0.10086707, -0.012416026, -0.048759744, -0.028665846, 0.14722298, 0.04685387, 0.037489735, -0.0014467082, -0.018932695, 0.05507936, -0.058416516, 0.019118756, 0.064009696, 0.008119226, 0.05169548, 0.07688128, -0.068418495, 0.0569877, -0.10306365, 0.031984203, 0.10250281, -0.046198837, -0.059298974, -0.036789875, -0.011150706, -0.08357785, -0.13906285, -0.030263374, -0.13436137, -0.08791969, -0.066054255, -0.04337014, -0.019801892, -0.13301626, 0.029530438, -0.06834977, -0.11831211, 0.05869504, -0.05261842, 0.014755902, -0.020506646, -0.07406279, 0.04784658, -0.100001074, 0.09988343}, {0.18494804, -0.11389607, -0.19678862, 0.07786828, 0.054301552, 0.20336005, 0.12586817, 0.062353376, 0.2012412, 0.1527608, 0.0800786, -0.025529077, -0.044982146, 0.0017596314, -0.07460257, -0.06157284, -0.24137922, -0.4792858, -0.32108927, -0.24979165, -0.055740874, -0.18225884, -0.26098523, 0.1559389, -0.0129649155, 0.08823067, 0.15677424, 0.029304797, 0.23827358, 0.15436101, 0.16249603, 0.17815332, -0.04915295, 0.04413908, -0.08555631, -0.056234054, -0.03319653, -0.24885106, 0.07895008, -0.19975688, -0.11461177, -0.16291498, -0.16994172, 0.018678876, 0.079517104, 0.27397197, 0.3171848, 0.14954512, 0.0097054895, 0.052533463, 0.039792664, 0.32056218, 0.39211714, -0.019613279, -0.0050227083, -0.085875496, 0.17498438, 0.27403736, 0.0046674698, 0.04899499, 0.15641402, 0.12441316, 0.19224286, 0.029124167, 0.031717937, 0.20121814, 0.036400888, 0.207005, 0.13008586, 0.05828335, 0.05634955, 0.08392476, 0.27790344, -0.026849719, -0.08023942, -0.017810168, 0.06595265, 0.056141857, -0.01751884, 0.124305815, -0.016317748, 0.09955244, 0.28246093, 0.23203772, 0.0054016206, 0.010508945, 0.090063855, 0.26465, 0.21354422, -0.11711479, -0.3431319, 0.2144733, 0.07773663, -0.04250456, 0.057497814, 0.03972781, -0.02712584, 0.0055845287, -0.1298361, 0.07465878, 0.11640612, 0.10933959, 0.12378074, 0.042443167, 0.006238695, 0.2409528, 0.18902074, 0.1867551, 0.13991366, 0.075638525, 0.023797272, -0.12188871, -0.049424343, -0.073398255, -0.06773381, 0.04759941, -0.0032023261, 0.20402235, 0.08500798, 0.2397326, 0.25365514, 0.18368872, 0.18052143, 0.1539482, 0.15412804, 0.21401006, 0.22365834, 0.27084303, 0.13760005, 0.0052824724, -0.0058225025, -0.12647367, -0.1066817, -0.15159258, 0.08582891, 0.004780645, -0.18557723, -0.10761692, -0.19026603, -0.081697814, -0.1757427, -0.015928512, 0.098526545, 0.03113418, 0.099726476, 0.1951902, 0.23413298, 0.26278707, 0.13665088, 0.13139868, 0.16861784, 0.020995189, -0.05024419, -0.12980185, -0.13597204, -0.21810535, -0.30932525, -0.18524459, -0.19632177, -0.15777472, -0.11382223, 0.016480295, 0.15459378, 0.13519002, 0.21443753, 0.22276047, 0.2515543, 0.19792472, 0.15209746, 0.10328153, -0.13281068, -0.100590914, -0.16128774, -0.29067808, -0.15833561, -0.25237098, -0.15271614, -0.12422429, -0.09340198, 0.11224505}, {0.15706418, -0.1514029, -0.106686875, 0.05438437, -0.16389003, 0.08471639, 0.009368514, -0.20121872, -0.0802014, -0.12326041, -0.073377445, -0.13860393, -0.14383504, -0.047887776, -0.17497332, -0.070517555, -0.04972354, -0.24017626, 0.02661405, -0.021143187, 0.014636796, -0.02450865, -0.14317697, 0.1215782, -0.049475186, 0.10003511, 0.100740604, -0.19493881, 0.0270417, -0.043067336, -0.04809651, -0.011940894, -0.20557283, 0.01646232, -0.16925003, -0.03353365, 0.061518457, -0.21540272, 0.071908824, -0.009719273, 0.10054152, 0.100242816, -0.047283873, 0.11307051, -0.00043886513, 0.29460964, 0.23921354, 0.1232953, 0.008597857, 0.019340709, -0.07124114, 0.1944343, 0.34559867, 0.011506607, -0.06212273, -0.024531418, 0.09493873, 0.32539275, -0.003234071, -0.04725158, 0.05859686, 0.102023445, 0.30427572, -0.085911795, -0.17741942, 0.116500504, 0.07156972, 0.20542578, 0.080189385, 0.035652474, 0.07392108, 0.050125524, 0.29567882, -0.09620401, -0.043372963, 0.08452631, 0.13075984, 0.14632553, -0.049539685, -0.013197867, -0.10624476, 0.07844035, 0.31424293, 0.07631254, -0.12301066, -0.051796608, 0.03510613, 0.18562637, -0.052058823, -0.26684672, -0.3168837, 0.17392017, 0.09354473, -0.088645585, 0.07988124, 0.1902761, 0.11262408, 0.08609237, -0.064466916, 0.012397761, 0.18071203, 0.10373815, 0.13536474, -0.08622182, -0.045937173, 0.07323913, 0.027775237, 0.12543513, 0.011151093, 0.06354878, 0.23994175, 0.10905719, 0.17503881, 0.014437369, 0.04556005, 0.10108325, 0.076868035, 0.18702468, 0.07273294, 0.026811074, 0.18782571, -0.024288807, 0.05993642, -0.0028984288, 0.0069400487, 0.11681963, 0.15121132, 0.24853893, 0.1081107, 0.09819712, 0.22747721, 0.15951052, 0.25092742, 0.07653533, 0.17424269, 0.15893432, 0.056493524, 0.017812511, -0.057279818, 0.082690574, -0.021636492, 0.007567193, 0.047466334, -0.10381903, -0.046935882, -0.033862293, -0.034311064, 0.08978346, -0.09063337, 0.037272763, 0.058811143, -0.049022533, 0.051967822, -0.074391164, 0.049920645, 0.021541303, 0.00738114, -0.014982953, 0.06823063, 0.011470069, -0.13948862, -0.077230245, 0.0019169045, -0.16053389, -0.09936603, -0.08653762, -0.1336451, -0.05932841, -0.07714343, -0.065246984, -0.14371002, -0.12469527, -0.04680943, -0.061944827, 0.009189466, -0.022082433, 0.0023254072, 0.03416679, -0.12830949, 0.033204813}, {0.15949929, -0.029717656, 0.06473018, 0.28596085, -0.00949427, 0.17718633, -0.10464844, -0.103052415, -0.1330246, -0.15231606, -0.114098676, -0.23941341, -0.24865136, -0.1135885, -0.16211487, -0.09134553, -0.19391666, -0.36915132, 0.14334486, 0.15838093, 0.098531224, 0.023638314, -0.005195083, 0.25189883, -0.009531967, 0.21934463, 0.179573, -0.073634334, 0.03580729, -0.0140369255, -0.007609459, -0.0273766, -0.09303655, 0.00064162124, -0.30491212, -0.17832325, -0.1054358, -0.32540148, 0.09142148, -0.030128917, 0.14170654, 0.09546724, 0.0014949988, 0.19293785, 0.14381637, 0.19547845, 0.32959825, 0.099122934, -0.079238325, 0.07160335, -0.043175638, 0.29817867, 0.3692074, 0.046563145, 0.118417636, 0.078480296, 0.16981797, 0.28838927, 0.07106264, 0.087159395, 0.1961874, 0.19960706, 0.3406404, -0.07315, -0.08465449, 0.057106394, 0.09003786, 0.28357047, 0.12232035, -0.06838659, -0.0620095, 0.06849379, 0.18276794, -0.050921205, 0.045034036, 0.26885, 0.15300658, 0.10225373, 0.043846928, 0.009092482, -0.12885244, 0.1792704, 0.30867845, 0.021661973, -0.07742137, -0.10178221, 0.05330995, 0.21451277, 0.05478291, -0.17583948, -0.2872555, 0.1652984, 0.0782371, -0.094756, -0.028783275, 0.1570532, 0.105070844, 0.094849855, 0.032251097, 0.15766138, 0.24042535, 0.08350519, 0.122583084, -0.021430675, -0.15395808, -0.082236506, -0.092079505, -0.052654535, -0.08608629, -0.028988771, 0.18061821, 0.06581937, 0.15304297, 0.1585072, 0.20479195, 0.27393648, 0.21813986, 0.34065017, 0.20353748, 0.09792576, 0.09175465, -0.1436105, -0.07681724, -0.086717606, -0.11122964, -0.12919712, -0.10629195, 0.016432028, -0.009047376, -0.07452246, 0.3053849, 0.2724726, 0.29627106, 0.19782016, 0.19210726, 0.026717497, -0.08527038, -0.044498004, -0.01546618, 0.21572582, 0.1253557, 0.07920267, 0.109059736, 0.02480269, 0.014656926, -0.048799213, -0.17162158, -0.077093974, -0.23098569, -0.0975573, -0.18858214, -0.18327567, -0.09885709, -0.10954499, 0.048357356, 0.17077026, 0.122470565, 0.19414827, 0.13253057, 0.16713275, 0.10222608, 0.047003325, 0.021775438, -0.19343746, -0.05183146, -0.2424734, -0.23270588, -0.18445039, -0.21425518, -0.07974573, -0.08934198, -0.12635882, 0.14459504, 0.10668211, 0.1336004, 0.017391564, 0.15586682, 0.15445027, 0.007736881, 0.09080251}, {0.16235943, -0.19416873, -0.24683674, 0.07070745, -0.114803314, 0.07631555, -0.018456435, -0.14366792, -0.06291311, -0.119547, 0.028824383, -0.13621873, -0.2563029, -0.12505704, -0.17944446, -0.04079407, -0.06671419, -0.21554956, 0.058580805, -0.027346326, -0.0293551, 0.008237446, -0.13977292, 0.021980023, -0.12084247, 0.0039188513, 0.04634805, -0.13592063, 0.06735505, -0.09681391, 0.0058743027, -0.033667818, -0.14554754, 0.06841053, -0.087192565, -0.077910714, 0.009301714, -0.22547567, 0.16889144, -0.10026812, 0.068571135, 0.026427818, -0.0978528, 0.032109912, -0.045872323, 0.293788, 0.24538454, 0.115975685, -0.025107477, -0.008598792, -0.07651078, 0.2504245, 0.33124256, -0.09010618, 0.016214376, -0.011769877, 0.11177523, 0.26584476, -0.036189623, -0.050874177, 0.11361196, 0.1263743, 0.3049254, -0.06425693, -0.07972994, 0.055983864, 0.014402576, 0.22919145, 0.056959704, 0.012591961, -0.06031377, -0.013737733, 0.29416367, -0.1801997, -0.14233638, 0.026321767, 0.19667774, 0.08677777, -0.08073618, 0.023585686, -0.1861716, 0.043662045, 0.21963887, 0.14133136, -0.05130884, -0.01533913, 0.0401101, 0.13557652, -0.008320063, -0.24688867, -0.37268245, 0.037599955, 0.14088356, -0.03242812, 0.11760666, 0.12224492, 0.044311263, 0.08551229, -0.027008526, 0.061813112, 0.09000227, 0.04835464, 0.07061199, -0.043062273, -0.095297895, 0.117134556, -0.013885541, 0.11960814, -0.013360153, 0.16071393, 0.13096462, 0.10045198, 0.13056317, 0.033459857, 0.016527131, 0.09886451, 0.07780207, 0.23788543, 0.14195988, 0.11421339, 0.18751629, 0.0403908, 0.08419369, 0.010422402, 0.019996943, 0.016083233, 0.12773274, 0.16402157, 0.08261282, 0.08612258, 0.21292934, 0.1470574, 0.1819592, 0.13114, 0.108820125, 0.092520796, 0.117003925, -0.036108024, -0.09299556, 0.013614724, 0.058033578, -0.036830615, 0.020801375, 0.011069343, -0.052525233, 0.056112792, -0.007458461, 0.09484344, -0.007506328, 0.05018697, 0.081135154, -0.06409543, 0.058251232, -0.06819709, 0.10752517, 0.106837556, -0.015887324, 0.030367715, -0.016785393, 0.027775204, -0.091067016, -0.12505704, 0.0051209917, -0.07443414, 0.037588067, -0.020724948, -0.07905986, 0.008399677, -0.058259632, 0.07283525, -0.023804134, -0.009535695, 0.009205186, -0.1176741, -0.05767099, 0.011032529, 0.014360074, 0.036373273, -0.12509748, 0.10719125}, {0.13024023, -0.22929429, -0.17168961, 0.07682963, -0.20458324, 0.049323946, -0.04849079, -0.18987282, -0.0003359413, -0.044848878, 0.044818163, -0.19538444, -0.21982557, -0.040376134, -0.072552435, -0.07015454, -0.081408024, -0.20691918, 0.024222514, -0.009878915, 0.045410134, -0.081973806, -0.19886707, 0.016931437, -0.1655225, 0.014053455, 0.08324051, -0.16449516, 0.05168992, -0.052853536, 0.041848324, 0.03216551, -0.20463376, 0.086236805, -0.08758772, -0.0554545, 0.053141538, -0.33457345, 0.16433595, -0.07136227, 0.056327797, 0.005374125, -0.037589084, 0.10140909, -0.03119555, 0.2633309, 0.29325685, 0.041448027, 0.0045255683, 0.07311723, -0.047711167, 0.21693397, 0.31058672, -0.062204115, -0.003263659, 0.05219915, 0.07799969, 0.35580996, -0.040871277, -0.059104674, 0.023268236, 0.08536143, 0.20377813, -0.045006998, -0.116478026, 0.057017058, -0.015623417, 0.19196321, 0.067088924, -0.022180287, -0.06823748, 0.047200955, 0.16452135, -0.15389481, -0.07018205, 0.07871673, 0.11060945, 0.1379852, -0.03363858, 0.048253685, -0.11965105, 0.09739892, 0.19454671, 0.060524497, -0.03773854, -0.016080406, 0.05867204, 0.23171031, -0.016739247, -0.23852833, -0.33065027, 0.0745871, 0.18132979, -0.10879828, 0.07857984, 0.19855314, 0.028400056, 0.15071356, -0.11006719, 0.08940055, 0.07423339, 0.08760511, 0.13614073, -0.016051847, -0.10803768, 0.069775395, -0.047196686, 0.10708155, 0.07803692, 0.03906436, 0.16152926, 0.08408354, 0.20314491, 0.08296823, 0.120581344, 0.171874, 0.12189003, 0.18043402, 0.048395384, 0.044533495, 0.173376, 0.077102214, 0.15161675, 0.06280018, 0.032205623, 0.11129534, 0.10947533, 0.13087736, 0.11583985, 0.0046442193, 0.266873, 0.1288241, 0.2828119, 0.03721182, 0.22451793, 0.10842824, 0.054223236, -0.011995089, 0.058783635, 0.11522822, 0.07899479, 0.064399146, 0.025136756, -0.06347284, -0.034982573, 0.021330003, 0.0068068258, -0.0012462456, -0.11647114, 0.062810175, 0.022340044, -0.06262244, 0.07214535, -0.030422924, 0.13212952, 0.11644051, 0.02474319, 0.033883236, -0.006576325, 0.07393331, -0.002121466, -0.0042260485, -0.06646645, -0.14288366, -0.08090392, -0.11283613, -0.12461267, -0.065929644, -0.011861625, 0.009773642, -0.036470793, -0.00035203062, 0.082329586, 0.031250097, -0.0025195375, 0.063508056, -0.0051490245, 0.022399694, 0.012789381, 0.033819884}, {0.05716225, -0.12749784, -0.13454093, 0.008641117, -0.1335442, 0.055437032, -0.017614663, -0.13163331, -0.0244188, -0.08295085, -0.10183015, -0.22999269, -0.28019285, -0.17390104, -0.23199534, -0.030356301, -0.1094705, -0.21656963, 0.009198785, -0.0408377, -0.030984014, -0.083668575, -0.0949305, 0.0922918, -0.049204975, 0.008172625, 0.11706074, -0.13612802, 0.042214192, 0.000996744, 0.060776, -0.059392523, -0.29132465, -0.03605643, -0.30138516, -0.20616493, -0.040603496, -0.32332468, 0.12548512, -0.097548395, 0.13876605, 0.09536022, -0.044071224, 0.029991772, 0.02820347, 0.26575628, 0.32484052, 0.048597675, -0.009087736, 0.0148172295, -0.03687765, 0.29862446, 0.39684185, -0.007041395, -0.0024287237, 0.11596209, 0.16390659, 0.29821783, 0.043300275, -0.019741869, 0.046078276, 0.1431871, 0.20524809, -0.05749864, -0.17273092, 0.13315362, -0.03066049, 0.25715345, 0.05055157, -0.034769572, -0.029520866, 0.08127959, 0.27390614, -0.15993044, -0.07775411, 0.15634766, 0.12708555, 0.11400783, -0.010126174, -0.025900751, -0.09486137, 0.084968686, 0.22762328, 0.11841038, -0.1305021, -0.08775314, 0.057324395, 0.1418505, -0.02578222, -0.15198986, -0.2999421, 0.119576804, 0.14124922, -0.09026289, 0.037277106, 0.101101115, 0.1364283, 0.048253488, -0.08823195, 0.050671298, 0.10812133, 0.090732716, 0.16905981, 0.052933697, -0.040302586, 0.17143911, 0.048613932, 0.1269477, -0.042838313, 0.08419329, 0.16761346, 0.016637523, 0.13818607, 0.14187942, 0.09920453, 0.21275873, 0.14963996, 0.2309393, 0.1246672, 0.110575974, 0.14190952, -0.020566864, 0.13922355, 0.051495116, 0.046878364, 0.04867359, 0.023059422, 0.19299403, 0.14574835, 0.039728854, 0.23179382, 0.09809999, 0.26467142, 0.047846463, 0.13496186, 0.10861629, 0.052477077, -0.041112464, 0.008538488, 0.1557759, 0.021948693, 0.026985873, 0.085606165, -0.083659515, 0.04589658, -0.07650907, -0.0496616, 0.096632, -0.018422315, 0.012222073, 0.08173032, 0.043230478, -0.023466071, -0.048950344, -0.0069854953, 0.06391077, 0.036003415, -0.0076, -0.019376917, 0.040581428, -0.058136635, -0.14606571, -0.011696298, -0.16345507, -0.068607904, 0.011321563, 0.012277272, -0.021296524, -0.10379447, 0.046072017, -0.1016806, 0.0022575094, 0.09189745, 0.0039930004, 0.036072586, -0.024837373, -0.08642164, -0.0038784842, -0.004827888, 0.14890486}, {0.20206958, -0.046794858, 0.054296188, 0.04773967, -0.08186805, -0.20333622, 0.044891246, 0.03134656, -0.0148264775, 0.079326205, -0.019076752, 0.10628123, 0.26587135, 0.25033018, 0.23090975, 0.084857464, 0.13026671, 0.286953, 0.14486589, 0.1532129, 0.087625705, 0.17006296, 0.2194286, 0.021900682, 0.26584542, 0.0414881, 0.16920805, 0.36451766, 0.17632414, 0.18389791, 0.20699224, 0.16015404, 0.23600145, 0.20884657, 0.19023573, 0.2704571, 0.17848356, 0.29642943, 0.18768315, 0.035470504, 0.08746704, 0.21786256, 0.1606257, 0.17934564, -0.07857688, -0.37873584, -0.18223634, 0.22789362, 0.21159443, 0.14884578, 0.3270364, 0.020645453, -0.035925057, 0.16591251, 0.12280868, 0.21449044, 0.11290567, -0.035668436, 0.18326007, 0.19351815, 0.16505891, 0.19884929, 0.102417395, 0.29075578, 0.18377894, 0.011245278, 0.12446033, -0.087093584, 0.1248053, 0.14776154, 0.13267815, 0.06649614, -0.2670864, 0.17422745, 0.115436226, -0.08453977, -0.4279529, -0.17917633, -0.19208845, -0.21672724, -0.10903239, -0.37118536, -0.64619124, -0.29666498, 0.16905649, 0.0062166154, -0.058860276, -0.27550468, 0.052067675, 0.29332638, 0.30168045, -0.2602012, -0.068658456, -0.12564114, 0.026101643, -0.09143702, -0.11432364, -0.100566015, -0.11843731, 0.028838797, 0.19058146, 0.024691515, 0.1812107, -0.019959092, 0.20495392, 0.2020028, 0.16000211, 0.09010832, 0.122436635, 0.13871107, 0.23044282, 0.23723951, 0.16623156, 0.17829002, 0.29724222, 0.24205825, 0.2648546, 0.1860723, 0.28423184, 0.18173946, 0.22209388, 0.13726358, 0.18694071, 0.066448025, 0.24654287, 0.27294782, 0.1639773, 0.2286653, 0.09065347, 0.23469096, 0.18292415, 0.19236456, 0.1646786, 0.03478567, -0.033126846, -0.102242455, 0.20683704, 0.24178573, 0.22912991, 0.2014465, 0.17016383, 0.18868509, 0.24887429, 0.3389068, 0.19226561, 0.1841939, 0.2786426, 0.22141331, 0.20266806, 0.16223656, 0.06168577, 0.19586481, 0.18246476, 0.21012218, 0.10017476, -0.08515049, 0.0212773, -0.032005563, -0.021798354, -0.048508625, -0.07566919, -0.1250796, -0.13991073, -0.096792504, -0.11884806, -0.16749415, -0.22410505, -0.26689002, -0.25298142, -0.22410148, -0.31755102, -0.107876875, -0.32605132, -0.2771156, -0.15185979, -0.28800765, -0.061600637, -0.15393724, -0.1513937, -0.1857488}, {0.4555588, 0.31797746, 0.30938533, 0.3080888, 0.2715006, 0.056661293, -0.05496119, -0.052706264, -0.18503092, -0.26019076, -0.15695527, -0.22642708, -0.25591382, 0.017163625, 0.033448372, 0.039666608, -0.007353085, 0.06482806, 0.13206288, 0.35449776, 0.31709445, 0.2755659, 0.23021287, 0.121934555, 0.20008326, 0.05705201, -0.08924223, -0.19209677, -0.22109614, -0.27860993, -0.22196561, -0.10334425, -0.19882597, -0.23313498, -0.012757864, 0.09532904, 0.18337502, 0.1978282, 0.26139137, 0.32913586, 0.41284963, 0.024997659, -0.034798786, -0.082418084, 0.008274615, 0.17868571, 0.334977, 0.219131, 0.08409359, 0.10581809, 0.054976057, 0.17833279, 0.18302327, 0.2770905, 0.24947229, 0.12832558, 0.189729, 0.13693526, 0.1727536, 0.21334748, 0.20063427, 0.20805606, 0.08456104, 0.07250203, 0.1511982, 0.13101837, 0.2694869, 0.20315072, 0.163528, 0.062192596, 0.037901115, 0.16596816, 0.15886241, 0.17710017, 0.11602577, 0.17847145, 0.18987446, 0.09804617, 0.013556574, 0.15042894, -0.013975561, 0.05623011, 0.09626923, 0.036765296, 0.0060583893, -0.067133375, 0.19965124, 0.117742166, 0.22924878, 0.096563034, -0.056035496, 0.3980316, 0.2033429, 0.026180841, -0.05184951, -0.10290265, 0.010742617, -0.043793853, -0.0031448232, -0.12330912, -0.2021675, -0.21247265, -0.23881209, -0.036474645, -0.062608905, 0.02164003, 0.043320864, 0.08585759, 0.30544946, 0.20735836, 0.14051387, 0.20725814, 0.17217186, 0.18451524, 0.10800052, -0.06891055, -0.05445703, -0.23376352, -0.27572563, -0.24138823, -0.22955403, -0.151352, -0.16918714, 0.040337946, 0.061849333, -0.076769896, 0.009082076, 0.008875917, 0.18224896, 0.10674137, 0.006031847, 0.059688017, -0.029848902, -0.06512503, 0.0063145915, 0.07920516, 0.023466, -0.1335306, -0.15771623, 0.042898748, 0.08976217, 0.059481997, 0.1044417, 0.13202667, 0.040981576, 0.09147245, 0.0011513178, 0.10148127, 0.059674412, -0.044570882, -0.06733807, -0.038076866, -0.040014204, -0.23005034, -0.16516902, -0.22151136, -0.14132278, -0.11088004, -0.021674227, 0.02965281, -0.008990529, 0.018081909, 0.054091237, 0.021362199, 0.13699326, 0.08574623, 0.03139456, 0.041944817, -0.09256756, -0.055376243, -0.09674116, -0.03866232, 0.0644951, -0.04745393, 0.013998302, -0.00014823336, 0.19021332, 0.19184582, 0.021150611, 0.094180286}, {0.44329214, 0.48892742, -0.40537924, -0.79279304, 0.0720355, -0.5421249, -0.20896555, -0.06678196, -0.43992677, 0.019851329, -0.41665632, -0.09108519, -0.01337689, -0.7375539, -0.35516006, -0.4182264, -0.041335735, -0.36771172, -0.7958331, 0.020924343, -0.49242455, -0.09783043, -0.33921987, -0.6912022, -0.14801992, -0.09928572, -0.39321265, -0.22380708, -0.68506, -0.03783392, -0.33879334, -0.43650675, -0.28969565, -0.55534685, 0.044537667, -0.07592273, -0.09919782, 0.06973733, -0.5176126, 0.47048163, -0.09497312, -0.39900875, 0.2792817, -0.5636717, 0.37353605, -0.06892005, -0.10302593, 0.084190056, 0.1668371, 0.08462359, 0.025134366, -0.06610241, -0.052105173, 0.112063475, 0.08256255, -0.013580138, -0.017805967, 0.052493513, 0.060353898, -0.0069800243, -0.027742894, -0.07957544, 0.034760125, 0.10744157, 0.080445185, 0.029251067, -0.077279545, -0.044135917, 0.04679183, 0.09367112, -0.04210688, -0.012216868, 0.0055564917, 0.12530497, -0.09439502, -0.14086068, -0.028055059, 0.13291702, 0.21484554, -0.06727069, 0.08476031, 0.017172746, 0.009912309, 0.15597752, -0.0477031, -0.104607716, -0.12589617, -0.09911368, -0.03820421, 0.04545668, 0.12406348, -0.5083954, -0.41435006, -0.066689506, -0.4847579, -0.5794282, -0.54659307, -0.2725807, -0.08866728, -0.54574275, -0.5300775, -0.34060046, -0.24455045, -0.22887263, -0.6199448, -0.5364017, -0.43469542, -0.30484465, -0.27801508, -0.38244456, -0.68560994, -0.5291003, -0.3404708, -0.11263012, -0.39412552, -0.5190753, -0.42556572, -0.65014696, -0.41887784, -0.7351668, -0.7809182, -0.5682685, -0.4368335, -0.31119537, -0.500423, -0.5027618, -0.42673188, -0.46813086, -0.34404197, -0.24148275, -0.52625686, -0.45466343, -0.44064042, -0.23525803, -0.13118774, 0.12231754, 0.021891823, 0.11406503, 0.10300799, 0.04927842, -0.034980893, -0.002131863, -0.016123263, 0.08506681, 0.075228594, 0.04229487, 0.11752171, -0.0534457, 0.064149365, 0.0167056, 0.0402842, -0.011235874, -0.08837406, 0.0080529405, -0.0414385, -0.018981244, -0.05596544, -0.04053646, 0.021005701, -0.06321114, 0.13668028, 0.032222282, 0.072054304, 0.047125522, 0.058172245, 0.0013095768, 0.07107518, 0.12828526, 0.067432344, 0.10184184, 0.17516904, 0.052099973, 0.028328702, 0.19825347, -0.040227465, 0.1705575, 0.08748854, 0.09429273, 0.014486359, -0.056548562}, {-0.032376777, 0.27922094, 0.029551994, 0.022255108, 0.2067095, -0.14594583, 0.08635757, 0.22039242, 0.13487883, 0.0801308, 0.027467662, 0.011970901, 0.2747966, 0.04359393, 0.020686708, -0.05103536, 0.0020045575, 0.22091876, 0.10101978, 0.15444063, 0.08436859, 0.12622543, 0.29068327, 0.08853744, 0.120964356, 0.030869382, -0.02831272, 0.17032996, -0.0975647, -0.044220325, 0.018363668, 0.039110575, 0.22720732, 0.12114683, 0.15604016, 0.15047483, 0.14556427, 0.39678538, -0.062952295, 0.10836974, -0.048270732, 0.06919837, 0.1270155, 0.087991826, -0.059653252, -0.2695062, -0.4823508, -0.020040287, 0.13377416, -0.054632563, 0.18058595, -0.2592844, -0.47280267, 0.2813307, 0.13981351, 0.14026839, 0.14038654, -0.44613507, 0.12105252, 0.1957114, 0.06573967, -0.04619702, -0.37938842, 0.29647344, 0.14177494, -0.26166046, 0.034104228, -0.41749004, -0.33216217, -0.20641065, -0.32233617, -0.11795239, -0.36882815, 0.10867326, 0.082653694, -0.10171649, -0.0634499, -0.13028249, -0.06847029, -0.103713125, 0.15969346, -0.30359247, -0.73938054, -0.14693841, 0.19301914, 0.021325707, 0.054265756, -0.13207445, 0.3996319, 0.30390674, 0.25125015, 0.20925967, 0.10015133, 0.25792992, 0.16696468, 0.2515187, 0.3295542, 0.09382211, 0.39049557, 0.366185, 0.26930857, 0.30353448, 0.16109739, 0.2967514, 0.464829, 0.32152024, 0.43981323, 0.11138352, 0.3717754, 0.31812158, 0.12318944, 0.40093613, 0.208673, 0.3875195, 0.24802803, 0.25617585, 0.25730988, 0.20444635, 0.0751979, 0.21569254, 0.23552983, 0.4021212, 0.18193541, 0.30905342, 0.27661416, 0.2259908, 0.32254595, 0.16128841, 0.24036534, 0.2921111, 0.08059409, 0.19848318, 0.088584326, 0.18191618, -0.28963482, -0.28300506, -0.05737716, -0.026547017, 0.10734592, 0.018112455, 0.11204427, 0.10359784, 0.028372746, 0.08959728, 0.14530672, 0.05963094, 0.029933853, 0.018874824, 0.16977191, -0.026789363, 0.00012356248, -0.020219143, 0.09531136, 0.1635848, 0.07141387, -0.021827241, 0.06972806, 0.12320508, 0.01625328, -0.046997137, -0.02069776, 0.12332733, -0.0071932534, 0.086415604, -0.00683403, 0.035683677, 0.14569424, -0.048489153, 0.07309566, 0.08610704, -0.0057845665, 0.03809823, -0.013141936, -0.05873989, -0.08305829, -0.016622402, 0.04567521, -0.10798906, 0.1456706, 0.005956655}, {0.08155002, -0.14355972, -0.15068732, 0.035190266, -0.19737212, -0.012011732, -0.045901947, -0.17960638, -0.015419582, -0.09680507, -0.11464339, -0.12868917, -0.27950567, -0.1564881, -0.15233165, -0.08674234, -0.19078575, -0.24630961, 0.0779383, -0.13223301, 0.08212041, -0.020654077, -0.16846485, -0.0011140726, -0.10443276, 0.10077848, 0.048836693, -0.2213213, 0.027828297, -0.0053822235, 0.040785294, -0.092619695, -0.2707732, 0.013442241, -0.20299993, -0.119202614, 0.020562991, -0.22430533, 0.10979691, -0.16854468, 0.020960659, 0.052882653, -0.11334301, 0.13889566, 0.036777742, 0.23163554, 0.27722976, 0.034870517, -0.13381048, -0.072352275, -0.14204207, 0.18721594, 0.25246018, -0.037664242, -0.047824074, 0.051811203, 0.07902976, 0.28015196, -0.040504515, -0.10310615, -0.00380603, 0.016399737, 0.16469987, -0.12521417, -0.19655307, 0.050093587, -0.0057087056, 0.23826459, 0.053460445, -0.0446618, 0.037132915, 0.028284367, 0.24241048, -0.17033693, -0.17191522, 0.10419872, 0.13372609, 0.04928485, -0.05334853, -0.08497104, -0.18291438, -0.032053575, 0.27499706, -0.005005714, -0.13271822, -0.006785529, -0.017810065, 0.0930222, 0.087894954, -0.258312, -0.30515504, 0.13702416, 0.12763469, -0.063705884, 0.12894686, 0.17578152, 0.011572916, 0.024361305, -0.053622346, 0.089451924, 0.09938764, 0.024638923, 0.12929349, 0.048778407, -0.059540555, 0.14591154, 0.042218372, 0.08892909, 0.045940254, 0.15261349, 0.23460345, 0.08927268, 0.112212, 0.04373391, 0.04062883, 0.08329288, 0.08704905, 0.21345228, 0.08988389, 0.021705208, 0.09304928, -0.08169336, 0.016851643, 0.016933782, -0.016465098, 0.072390884, 0.12075482, 0.17557709, 0.19706936, 0.04381948, 0.19512384, 0.038689032, 0.16874067, -0.012224251, 0.22093807, 0.09023121, 0.10647082, -0.055963885, 0.0059506027, 0.08184196, -0.035734642, -0.007347963, 0.08152983, -0.054174304, 0.00013300647, -0.031285655, -0.07764404, 0.037271045, 0.055920776, 0.13227935, 0.038302667, 0.026589014, 0.069158114, 0.03055959, 0.07151616, 0.07590978, 0.026704628, 0.03319675, -0.059939496, -0.07772659, -0.07844195, -0.123401284, -0.060474467, -0.10267627, 0.025604324, 0.013992295, -0.046310708, 0.024440583, 0.03420883, 0.06355439, 0.040594466, -0.047144316, -0.0094409585, -0.050531857, 0.02193938, -0.050546233, -0.08724348, 0.0883521, -0.1212766, 0.0667023}, {-0.07001128, 0.19583517, 0.20736498, -0.02185395, 0.12750632, -0.10623341, 0.031887732, 0.1143227, 0.09542145, 0.18952732, -0.0051789926, 0.123779476, 0.25101143, 0.10623507, 0.08338057, -0.021393988, 0.16811113, 0.28257903, 0.006697808, 0.108551025, -0.028263303, 0.09721084, 0.16263543, -0.091569155, 0.0784287, -0.009393228, -0.09555425, 0.19844995, -0.13378629, 0.07933612, -0.04414477, -0.06302834, 0.13569662, -0.05060488, 0.09838729, 0.036640923, -0.09079564, 0.21524948, -0.13841256, 0.034736678, -0.14774132, -0.08255303, 0.0210139, -0.10403167, 0.037197582, -0.15402022, -0.28040943, -0.07643984, 0.1629221, 0.025398433, 0.14689246, -0.2046114, -0.33524135, 0.0784793, 0.13754109, 0.041449174, -0.06920838, -0.19933145, 0.086730205, 0.09557565, -0.032415442, -0.07372642, -0.29518408, 0.20430948, 0.18144894, 0.014546863, -0.029714905, -0.21101576, 0.016411807, 0.15679629, 0.045558393, -0.046051096, -0.19491577, 0.1759501, 0.11534308, -0.028660702, -0.08514585, -0.07214853, 0.008934676, -0.06428722, 0.13998675, -0.12220046, -0.26835963, 0.0019851804, 0.08822658, 0.13026915, -0.045242894, -0.1146468, 0.02281091, 0.29964292, 0.29534203, -0.03281256, -0.11213959, 0.13075307, 0.021544334, -0.003083791, 0.07676338, 0.019498633, 0.09490296, 0.083855815, 0.027296744, 0.007957229, 0.022791594, 0.072399326, 0.15910394, -0.058510948, 0.01545406, 0.0153995445, 0.11535069, 0.05094463, -0.04786673, 0.08387499, -0.12236597, 0.03024689, 0.068792336, -0.15487489, -0.020711401, -0.1129291, -0.010784046, 0.09295853, -0.09064427, 0.04301808, -0.02954988, 0.07070192, 0.11094266, 0.022971855, -0.014111549, 0.006405951, -0.042344827, 0.100997135, -0.08407712, -0.021825505, -0.038609825, 0.103431955, -0.11358756, 0.049958214, 0.12058256, 0.078107975, 0.09750439, -0.060939126, 0.14846139, 0.10949816, 0.109269455, 0.1561617, 0.091760315, 0.11805066, 0.09223302, 0.1096806, 0.11945006, 0.094169796, 0.08404144, 0.14900108, 0.017446436, 0.14151707, 0.09771178, 0.002429621, 0.060133826, 0.071056806, 0.04706561, 0.18999097, 0.24179664, 0.24366377, 0.08876384, 0.2423207, 0.18280843, 0.21583046, 0.2012878, 0.098851845, 0.2025663, 0.06495227, 0.22081015, 0.23651806, 0.080512166, 0.106351785, 0.12310074, 0.2059661, 0.12268398, 0.13961788, 0.24463665, 0.0072103}, {0.44083345, 0.26481888, -0.45371643, -0.5559835, 0.27447537, -0.24784508, 0.04344581, -0.024441762, -0.44266143, 0.13897125, -0.093211666, -0.039680004, -0.080162704, -0.5667429, -0.4443019, -0.1478074, -0.08289624, -0.407675, -0.68373215, -0.034364015, -0.42880422, -0.14445548, -0.76068634, -0.9920911, -0.38208514, -0.13052827, -0.3878821, -0.5473689, -0.7978479, -0.29122066, -0.53045857, -0.43567234, -0.67545253, -0.46909466, 0.18734945, -0.26261568, -0.34765774, -0.34823897, -0.45047954, 0.17273939, -0.24003111, -0.560239, -0.45015767, -0.5175874, 0.2906284, -0.07031229, -0.09961354, 0.123713255, 0.24264817, 0.2108073, 0.056822225, -0.007702193, -0.10034886, 0.057479735, 0.0769534, 0.032788422, -0.10019034, 0.024950698, 0.03586078, -0.049045768, -0.091177225, -0.11929197, -0.067616284, 0.048757195, -0.070984416, 0.101056345, -0.20120019, 0.012198336, 0.12287676, 0.06622958, 0.098731875, -0.016949287, 0.0909376, 0.10852301, -0.12639989, -0.077894345, -0.16363241, -0.09014452, 0.1640227, -0.02256333, 0.0009973614, 0.017247027, 0.032945275, 0.080396734, -0.054595396, -0.009504313, -0.18084995, -0.11855274, -0.027498947, 0.12134325, 0.22528072, -0.8566112, -0.35766992, -0.13624732, -0.50160825, -0.6663845, -0.5894012, -0.25913492, -0.12069501, -0.6709288, -0.72057253, -0.40568405, -0.34985667, -0.24538164, -0.5928447, -0.4988258, -0.6090381, -0.4187162, -0.1704782, -0.62185854, -0.6857534, -0.4612139, -0.46415177, -0.25240377, -0.450894, -0.71042633, -0.61784047, -0.59579664, -0.37951958, -0.7675905, -0.8036308, -0.6520067, -0.42608878, -0.42928323, -0.47731155, -0.75381523, -0.79206884, -0.7973999, -0.5725142, -0.46759072, -0.7276445, -0.55128515, -0.4603156, -0.22441582, -0.1365158, 0.12523949, 0.16489612, 0.16529545, 0.18301596, 0.012325844, 0.14231724, 0.08167338, 0.07631014, 0.23270747, 0.08890221, 0.098112516, 0.1084446, 0.018645335, 0.18752646, 0.06252881, 0.17528458, 0.1236724, 0.08180697, 0.06294743, 0.016979508, 0.09620358, 0.029914096, 0.08329074, 0.055447128, 0.035723355, 0.030345304, 0.10124547, 0.028186383, 0.09615883, 0.005462393, -0.054453757, -0.0037086064, 0.019230397, 0.02726208, -0.021484066, 0.05396432, 0.03427487, 0.040000875, -0.024935916, -0.037077628, -0.03936984, -0.07406202, -0.047444806, -0.047630724, -0.30119118}, {0.6104956, 0.66578525, -0.40352154, -0.8301711, 0.13018592, -0.42736655, -0.12369407, -0.0028574849, -0.25691372, 0.23394246, -0.15226935, -0.12207661, 0.027914051, -0.48718485, -0.148836, -0.2663159, -0.1119777, -0.26818198, -0.6289088, 0.1924929, -0.23016703, -0.10303472, -0.09737349, -0.17022015, 0.19423157, 0.08786893, -0.16107048, -0.05287224, -0.6908163, 0.066757254, -0.17365482, -0.19254652, -0.20528978, -0.32306385, 0.3290224, 0.09141317, -0.11435769, 0.11387339, -0.42199165, 0.38962832, -0.04922834, -0.4529634, 0.16515358, -0.5290235, 0.16695116, 0.012403617, -0.08208133, 0.10603793, 0.19442956, 0.093659244, 0.0015674302, -0.11322155, -0.01731396, 0.058352064, 0.13672417, 0.09688371, -0.032202415, -0.006568078, -0.05747109, -0.069474414, -0.033371028, -0.11638199, -0.037543345, 0.16161862, 0.06420684, 0.10631902, -0.09434779, -0.109292574, 0.019449381, 0.06295548, -0.046698745, 0.009771458, 0.04053626, 0.11412807, -0.20241398, -0.23262537, 0.035521593, 0.083329186, 0.23968567, 0.056646347, 0.0940939, -0.01244076, -0.039605815, 0.06801732, -0.08498594, -0.2134295, -0.21971928, -0.17685065, -0.029345239, 0.029480359, 0.041953024, -0.9847892, -0.5658501, -0.20787786, -0.44811085, -0.5727009, -0.27234548, -0.2531375, -0.27959457, -0.46013272, -0.56664765, -0.382401, -0.464739, -0.42411998, -0.5517942, -0.3944567, -0.4456318, -0.4687348, -0.20726314, -0.185839, -0.37414947, -0.45338455, -0.40847978, -0.031769507, -0.25773832, -0.26623785, -0.29672658, -0.5238369, -0.19601984, -0.4798158, -0.501707, -0.33455202, -0.350412, -0.14856389, -0.10559531, -0.30504617, -0.39284587, -0.45299435, -0.21850659, -0.07670025, -0.4026337, -0.33007985, -0.2673808, -0.0018900153, -0.21163732, 0.09082302, -0.0013868945, 0.085547835, 0.121892184, -0.06562904, 0.06484531, 0.0967377, 0.0429028, 0.089724526, 0.03079806, 0.071355164, 0.039389472, 0.011900793, 0.13910325, 0.09090309, 0.040349975, 0.039246794, 0.05536244, 0.12567444, -0.024403537, 0.045120396, -0.051454, 0.07458718, 0.104244165, -0.0019165854, 0.16341463, 0.15203907, 0.13781628, 0.14480591, 0.07805388, 0.054496326, -0.0040412555, 0.10576379, 0.09411131, 0.04995135, 0.06913789, 0.0379668, -0.008441299, 0.056943297, 0.029659778, 0.08140613, 0.04235864, 0.045706637, 0.058467295, -0.17436028}, {0.45853087, 0.811285, -0.34846842, -0.6950907, -0.089932315, -0.40405813, -0.09097108, 0.040807445, -0.50221425, 0.07859554, -0.35986167, 0.005664315, 0.10534745, -0.4887117, -0.22305854, -0.36459187, -0.08446076, -0.16203122, -0.5852708, 0.09886951, -0.1735231, -0.07122374, 0.036205728, -0.35592026, 0.24612033, 0.06404518, -0.1759488, 0.14319459, -0.5200888, 0.18964392, -0.11217896, -0.4364088, -0.25968915, -0.27906853, 0.46066105, 0.01970637, -0.10610573, 0.37863037, -0.3976716, 0.5096605, -0.09261409, -0.37375966, 0.446858, -0.29441112, -0.25192356, 0.04282115, -0.13095967, 0.08792117, 0.308393, 0.18281823, -0.022758208, -0.043301035, -0.16626848, 0.15223303, 0.08723937, 0.0068169665, -0.12571117, 0.049402617, -0.043111384, 0.008684716, -0.019911617, -0.13506675, -0.0747102, 0.23098114, 0.2211813, 0.1629651, -0.039899852, -0.082068406, 0.04600317, 0.13093436, 0.028756466, -0.020108432, 0.06429398, 0.17714451, -0.07022187, -0.17436548, 0.014518966, 0.011851577, 0.1903092, 0.026324151, 0.0048041265, -0.036215752, -0.18403701, -0.21873794, -0.1558551, -0.29772457, -0.30064756, -0.3165422, -0.15290487, 0.024281796, 0.110767394, -0.6977355, -0.6392937, -0.14282355, -0.38354734, -0.55164766, -0.5370438, -0.48276538, -0.32491672, -0.67267764, -0.69370145, -0.5016838, -0.4613939, -0.44827232, -0.49179623, -0.62391865, -0.628386, -0.5633862, -0.32440102, -0.48437142, -0.6407053, -0.5039469, -0.41006505, -0.03219046, -0.1840017, -0.3927737, -0.26210222, -0.48690075, -0.18879904, -0.4971018, -0.513701, -0.33460203, -0.33252504, -0.17369811, -0.22424547, -0.34145436, -0.34895045, -0.46503657, -0.17340244, -0.093701296, -0.39486906, -0.3478713, -0.42976823, -0.3175754, -0.069982804, -0.0352211, -0.019536095, -0.012091206, 0.024698028, -0.071459055, -0.0859492, -0.09190994, -0.0618329, 0.05558794, 0.021971378, 0.007579841, -0.015353318, -0.03895084, -0.0068094535, 0.045936264, 0.06446323, -0.09163807, 0.03761505, 0.038612027, -0.0714613, -0.0034466516, 0.08668395, -0.021946197, 0.10407663, 0.035750777, 0.06363021, 0.14370987, 0.13868663, 0.20766751, -0.004265473, 0.10451756, 0.10163803, 0.09612523, 0.21862668, 0.1215813, 0.093274534, 0.14660141, 0.08965875, 0.10689653, 0.05185308, 0.083450176, 0.049973816, 0.112462156, 0.06590504, -0.057986774}, {0.42129087, -0.050992347, -0.13097611, -0.28615445, -0.2939362, -0.18082172, 0.02488849, -0.08140548, -0.32336643, -0.23428304, -0.095871806, 0.09377405, 0.121534646, 0.021286577, -0.11501733, -0.0839385, 0.052096233, 0.064049214, -0.060679868, 0.012764472, -0.021993313, 0.13178591, 0.27137414, -0.03965193, 0.25621063, 0.16615936, 0.21801957, 0.51656425, 0.22262298, 0.0958089, 0.2358396, 0.26012906, 0.36933586, 0.11175269, 0.11384184, 0.20838863, 0.22621004, 0.39157888, 0.18505266, 0.23252936, 0.07004732, 0.29691586, 0.36327016, 0.2590346, 0.092084125, -0.27070537, -0.37352076, -0.3481958, -0.14704077, -0.2058878, 0.08163231, -0.48386753, -1.3914802, -0.18233192, 0.018436857, 0.0845177, -0.13924561, -0.727208, -0.040618334, -0.004098405, 0.07871682, -0.05029808, -0.21972436, 0.21375068, 0.09209642, -0.028324353, 0.08360806, -0.38694036, -0.20189744, 0.018177554, 0.087954536, 0.04731139, -0.36058372, 0.33834454, 0.32832322, 0.2614506, 0.118727334, -0.051663965, 0.17573377, 0.17962877, 0.41617808, 0.17968538, -0.1830667, 0.36443347, 0.46883148, 0.43421006, 0.3777844, 0.19498818, 0.4179471, 0.43851233, 0.26253983, -0.29332212, 0.04023889, 0.012180739, 0.08094513, 0.063906364, 0.18045533, -0.018118843, 0.03829104, 0.19190852, 0.20854619, 0.24787998, 0.16310312, 0.04805237, 0.20362173, 0.08246219, 0.38174495, 0.07618894, 0.2180076, 0.27339822, 0.18153982, 0.2910519, 0.18724549, 0.19713491, 0.23267397, 0.20338413, 0.1748054, 0.26833317, 0.17425303, 0.16681342, 0.2918918, 0.38372698, 0.20847136, 0.16258359, 0.24224465, 0.37661073, 0.21337335, 0.2059099, 0.24298725, 0.29795626, 0.21775264, 0.274728, 0.20217745, 0.20822388, 0.026093973, -0.2487724, 0.1549494, 0.08854989, 0.1201179, 0.010588699, 0.12214039, 0.08791292, -0.03172746, 0.05558257, 0.10581013, 0.04470339, 0.013037605, 0.020580245, 0.081458196, -0.026142322, 0.011181629, 0.0560108, -0.027094765, 0.08686352, -0.041428585, 0.0040642093, 0.0072182245, -0.10274425, 0.06922979, 0.027345782, -0.10313688, 0.10656331, -0.079449706, 0.06528445, 0.043962162, -0.012715855, -0.00062687264, -0.17533243, 0.02388873, -0.014008026, -0.14268568, -0.10073274, -0.051862586, -0.04986911, -0.064703204, -0.16107543, 0.014523648, -0.043814298, 0.008319655, -0.07938494}, {0.15455966, -0.16461937, -0.08144844, 0.0061639464, -0.09688206, 0.009251558, -0.10001018, -0.08007557, 0.008643958, 0.0051579108, 0.06268746, -0.02160918, -0.07375995, 0.13750671, 0.076360926, -0.006554183, -0.11774714, -0.33327714, 0.06707827, 0.023782544, 0.047089793, -0.04119208, -0.09616861, 0.10482967, -0.1407864, 0.075382836, 0.058078554, -0.16083601, 0.12088614, 0.10321336, 0.024049733, 0.14907594, -0.07079437, 0.10288489, -0.10977909, -0.08608249, -0.0330443, -0.21981727, 0.13427855, -0.054145213, 0.084956184, 0.069750816, -0.0025855973, 0.103563674, 0.17114507, 0.18309328, 0.242862, 0.008667531, -0.003813863, -0.014192547, -0.054838706, 0.3087618, 0.3478703, 0.039215043, 0.011512935, 0.025764285, 0.11220724, 0.2771134, 0.0022340144, -0.021693159, 0.10741516, 0.0746865, 0.2921757, -0.050341308, -0.05854988, 0.10913683, 0.034463946, 0.14046273, 0.07985978, 0.09226894, -0.052141324, -0.0039387275, 0.30910957, -0.04280131, -0.058116693, 0.09303971, 0.17106827, 0.12059055, 0.039401896, 0.05007451, -0.17453857, 0.072731085, 0.26483124, 0.09785644, -0.011884809, 0.0037167643, 0.15189636, 0.2925318, 0.1906762, -0.1835214, -0.34468314, 0.12639812, 0.29255158, 0.045437608, 0.11723818, 0.098217994, -0.029388096, -0.023266394, -0.14084615, -0.05940539, 0.03483693, -0.07970414, 0.023631776, -0.11215027, -0.11423634, 0.17764427, 0.15477379, 0.26530075, 0.20368642, 0.26798865, 0.332332, 0.051724892, 0.16692358, 0.13966605, 0.110767774, 0.05217096, 0.028190762, 0.12961026, -0.06130937, -0.0848402, 0.06455808, -0.081021875, 0.09517181, -0.06101474, 0.074770235, 0.29106572, 0.20259051, 0.3107408, 0.23672019, 0.10119654, 0.2537733, 0.111777276, 0.18894027, -0.029081617, -0.012712443, 0.18451837, 0.05854025, -0.07279417, -0.13181914, 0.034502752, -0.21977985, -0.14419676, -0.12729292, -0.08563874, -0.02252073, -0.02629211, -0.04022468, 0.06770941, 0.08382907, 0.23437805, 0.23136845, 0.10009704, 0.10274531, 0.058655888, 0.0546974, 0.043316986, -0.11808084, -0.09808715, -0.09250338, -0.22422162, -0.27135548, -0.24291794, -0.12196286, -0.13783538, 0.02211622, 0.0068995724, 0.107640855, 0.21474299, 0.15671127, 0.10715803, 0.098347925, 0.047762502, 0.0986089, -0.13167943, -0.084286846, -0.16584262, -0.19327447, -0.11314664, -0.21175285, -0.031030422}, {-0.28021812, 0.14635721, 0.3866504, 0.15573165, 0.2511238, -0.03796271, 0.114934556, 0.16295907, 0.1749977, 0.1614816, 0.03178739, 0.19220667, 0.28695363, 0.2988438, 0.16463584, 0.0053416835, 0.047954924, 0.38841417, 0.11207409, 0.16526854, 0.021257382, 0.20262939, 0.32281792, 0.1292546, 0.14765699, -0.03299255, -0.08187026, 0.37695017, 0.037008114, 0.16998932, 0.034573954, 0.050212257, 0.31008357, 0.14903876, 0.2140335, 0.15387437, 0.07115604, 0.485497, 0.036819316, 0.024642486, -0.05448803, 0.20002434, 0.33518848, 0.119462505, -0.05756071, -0.17197338, -0.25618854, -0.37674195, -0.20642832, -0.1772513, -0.080735646, -0.54608893, -1.1406559, 0.19048151, 0.03536779, 0.039586067, -0.318699, -0.7049622, 0.3459947, 0.3725738, 0.11767779, -0.14480841, -0.31720996, 0.37563017, 0.23293753, 0.011815033, 0.09704475, -0.31377196, -0.25011107, 0.004674489, -0.17162274, -0.1400932, -0.45669216, 0.108150244, 0.25643986, 0.047579065, 0.06913031, -0.09945352, -0.08961886, -0.018894935, 0.20149904, -0.11173762, -0.5664975, -0.013163278, 0.3311541, 0.2721009, 0.24647284, 0.011196442, 0.3233709, 0.5280366, 0.36153033, 0.25573468, 0.12323001, 0.21377665, 0.30982047, 0.28205472, 0.3652328, -0.012147448, 0.37539363, 0.23395644, 0.29127958, 0.2422376, 0.1324678, 0.33677647, 0.5032162, 0.25644404, 0.35226113, 0.23778842, 0.18476433, 0.31202063, 0.2057817, 0.2811238, 0.103571236, 0.23569266, 0.36986494, 0.20273922, 0.25494307, 0.19263656, 0.18142252, 0.29859322, 0.23304924, 0.2769042, 0.2520676, 0.20571783, 0.27153748, 0.30212355, 0.39522249, 0.14323756, 0.18885249, 0.31250095, 0.13308474, 0.13396302, 0.20946835, 0.28296044, -0.106854536, -0.23764834, -0.1384668, 0.12877691, 0.011491348, 0.0002082266, 0.098387465, -0.048546556, -0.04992964, 0.021184364, 0.020834269, 0.00473196, 0.12463392, -0.01525606, -0.028516177, -0.06609266, -0.16946161, -0.009050043, -0.001680202, 0.051241215, 0.0043405327, -0.0155492285, -0.024177412, -0.059090048, 0.09892012, -0.07049015, 0.06564615, 0.078327194, -0.010292289, 0.103501074, 0.05669997, 0.0069592134, 0.097103894, 0.07103802, 0.113076344, -0.003225556, 0.10694879, 0.13312824, 0.016445408, 0.015186439, -0.024059078, -0.017410973, 0.14012612, -0.0064390046, 0.21520655, 0.15448204}, {0.017030086, -0.21192312, -0.08494736, 0.071293116, -0.12194163, 0.0584613, -0.09244706, -0.09947273, -0.068632506, -0.10556431, -0.1026016, -0.23483147, -0.18263434, -0.11073765, -0.08633473, -0.14048696, -0.25043768, -0.34283864, 0.1184735, 0.038078446, 0.079413235, 0.049868092, -0.15827562, 0.07577107, -0.0053839847, 0.052166678, 0.15105097, -0.10889585, 0.122731134, -0.07845067, -0.016617771, 0.047702573, -0.16646898, -0.026977815, -0.18926945, -0.16135344, -0.07647353, -0.29973596, 0.16428524, -0.020974405, 0.1326617, 0.015521905, -0.04174796, 0.06944137, 0.075332396, 0.22103894, 0.22290681, 0.12901507, -0.08225973, -0.044486284, -0.077392995, 0.23973572, 0.28725645, 0.066228226, 0.0070862123, 0.0036585352, 0.12453011, 0.25253928, 0.05681384, 0.068184346, 0.12550563, 0.15868099, 0.23784095, -0.05192906, -0.15224427, 0.07200577, 0.09773875, 0.22857648, 0.051169757, 0.050506383, -0.015280271, 0.022950003, 0.2782039, -0.14226277, -0.040596522, 0.1460503, 0.17996554, 0.11300709, 0.029947951, 0.074675426, -0.17487802, 0.08479601, 0.23795399, 0.05270514, -0.01032246, -0.0059829163, 0.07095801, 0.24219255, -0.01921149, -0.18371764, -0.3780706, 0.16142029, 0.1402641, -0.065725215, 0.059553698, 0.16023211, 0.05993325, 0.07724445, -0.0708686, 0.14107458, 0.01854184, -0.0033975372, 0.030891877, -0.050175615, -0.13066088, 0.09345011, 0.03982029, 0.097172916, 0.011124496, 0.13665202, 0.114088796, 0.08870396, 0.23198307, 0.108220704, 0.089806, 0.15728028, 0.08110767, 0.3067502, 0.036757585, 0.053612567, 0.084162645, -0.076983444, 0.019709941, -0.07631289, -0.024168689, -0.01181015, 0.0008651176, 0.114409246, 0.0961695, 0.0772784, 0.19962038, 0.13764898, 0.222914, 0.04563051, 0.18035704, 0.09995918, 0.063373305, 0.062220268, -0.017754342, 0.14097078, -0.04322615, -0.008422862, 0.025287796, -0.11216456, -0.037563507, -0.15276006, -0.12448223, 0.06354191, -0.09078126, 0.046344027, 0.07766513, -0.022034504, 0.03322448, -0.054243907, 0.023369474, 0.076841556, 0.098774225, 0.099750526, 0.061984774, 0.051464573, -0.112582184, -0.15767056, -0.13576427, -0.1110362, -0.04338098, -0.08882045, -0.013288939, -0.058882445, -0.09022953, 0.0065873316, -0.008568477, 0.019414026, 0.0096629085, 0.05818734, 0.09506225, 0.00028290963, -0.05877933, 0.044498783, -0.041596767, 0.029340459}, {0.5769948, 0.32633677, -0.09394182, -0.091630846, -0.2482969, -0.16397537, -0.4997205, -0.40455472, -0.11736702, -0.024961999, 0.25663534, 0.26952767, 0.4169581, 0.5074405, 0.5219729, 0.5760539, 0.4583625, 0.41667897, 0.30853048, 0.112435915, -0.11705708, -0.31674752, -0.5950795, -0.4112271, -0.6769711, -0.4558854, -0.69680613, -0.8411449, -0.43804386, -0.21095496, 0.04803906, 0.37017038, 0.32833132, 0.4321622, 0.5425701, 0.5075391, 0.5440675, 0.35354725, 0.42032102, 0.05896599, -0.2430098, -0.53815216, -0.6757895, -0.77235967, -0.33899808, 0.29128143, 0.39744553, -0.025459806, 0.052036665, 0.14058709, 0.022438297, 0.040839795, 0.14045334, -0.20202437, -0.16211487, -0.09490926, 0.01588358, 0.21808302, -0.1820254, -0.107862726, -0.024727691, 0.23839462, 0.3051352, 0.14845271, 0.23147503, 0.04449126, 0.20916918, 0.16157243, 0.0464663, -0.033148605, -0.09506399, -0.2015208, -0.058418658, -0.31990385, -0.16793153, 0.06498083, 0.03448116, 0.02006687, -0.121653065, 0.043072116, -0.12156537, 0.18110949, 0.2274612, 0.21379797, 0.37571302, 0.1160526, -0.17524047, -0.07941974, 0.110723495, 0.035306152, 0.12878676, 0.32350522, -0.19959101, -0.32066706, -0.25611553, -0.21272416, -0.27092558, -0.057194494, -0.18422861, 0.1380154, 0.48940048, 0.45582706, 0.66808486, 0.63933474, 0.5327726, 0.6738163, 0.37967435, 0.33186916, 0.29228705, -0.03073332, -0.2391701, -0.33392802, -0.5226533, -0.71364015, -0.6685723, -0.35296696, -0.40062028, -0.17175527, 0.032442667, 0.1655762, 0.375934, 0.39548448, 0.477969, 0.62769943, 0.5278172, 0.28598127, 0.3001907, 0.049525343, -0.11521925, -0.15828887, -0.16877046, -0.4224055, -0.39077976, -0.49474347, 0.015808366, -0.23303482, -0.2968965, -0.31682795, -0.18919833, -0.11667818, 0.072604135, 0.1390934, 0.28244275, 0.23106152, 0.31949335, 0.24119909, 0.19426475, 0.25969064, 0.042975303, 0.0020023428, -0.18994744, -0.26701787, -0.23012285, -0.36340868, -0.24128447, -0.13153115, -0.11302334, -0.022100884, 0.04045738, 0.1499124, 0.2638745, 0.2466757, 0.28781617, 0.18596575, 0.07268584, 0.16865663, 0.07756282, 0.03640678, -0.18459207, -0.15187398, -0.21546198, -0.2845589, -0.19432017, -0.18873033, -0.037816927, 0.05158816, 0.057212785, 0.11366308, 0.09653636, 0.18931872}, {0.03463139, -0.19170524, -0.24374558, 0.081703834, -0.12527667, 0.07557333, -0.05150564, -0.19348115, -0.08781179, -0.1122102, -0.0039604725, -0.15896942, -0.25462246, -0.0456413, -0.1508637, -0.0046618353, -0.05085882, -0.1896899, -0.011747727, -0.03809328, -0.028683215, -0.050153885, -0.15266803, 0.036844794, -0.07890079, 0.046545114, 0.11555288, -0.18146358, 0.12926142, -0.010079337, 0.012121511, 0.03609918, -0.19745082, -0.030583512, -0.08081854, -0.012766122, 0.029925644, -0.20501296, 0.17261468, -0.02576368, 0.065472744, 0.047933098, -0.15452193, 0.024933657, 0.044654116, 0.19537139, 0.342107, 0.0075484286, -0.09825815, -0.054142304, 0.0052250093, 0.20386681, 0.28485638, 0.0020858783, -0.07778402, -0.07741866, 0.17427053, 0.36921594, 0.0019523654, -0.005785004, -0.012407787, 0.11800427, 0.23710763, -0.14675826, -0.067025654, 0.029542152, 0.055537105, 0.16920088, 0.15682678, 0.017369397, 0.049448103, 0.071823046, 0.2868563, -0.12648621, -0.07141916, 0.06941474, 0.1899588, 0.026534475, 0.03159377, 0.031252317, -0.15750906, 0.046636675, 0.22519784, 0.096604906, -0.109127484, -0.03311609, 0.044383243, 0.10362339, 0.055081178, -0.24028848, -0.34047705, 0.07959986, 0.16379587, -0.07586656, 0.026411822, 0.16889769, 0.04268183, 0.09654411, -0.09108, 0.08771069, 0.14981289, 0.03557648, 0.1422869, -0.017068876, -0.089089505, 0.16748013, 0.03865246, 0.10402786, 0.029828979, 0.09290618, 0.2368986, 0.09660834, 0.1845932, 0.11968588, 0.12835982, 0.13928947, 0.06415368, 0.26973364, 0.029670084, 0.013719836, 0.20830609, -0.027622728, 0.17293374, -0.030205367, -0.023028573, 0.12902096, 0.09778986, 0.14678304, 0.1522144, 0.035234343, 0.1897951, 0.064755425, 0.18663698, -0.01115169, 0.18044218, 0.046295483, 0.050259113, -0.069004744, -0.038213715, 0.14893349, 0.016613482, 0.066617124, 0.07211462, -0.08970827, 0.039985314, 0.035017315, -0.0246668, 0.09556148, -0.08028803, -0.03380471, -0.041124456, -0.0349755, 0.017688457, -0.086870246, 0.010572808, 0.030897055, 0.086173795, 0.0020186116, 0.06420411, 0.0053932196, -0.03672582, -0.035498332, -0.093308374, -0.15729557, -0.10958821, -0.0060014594, -0.054431196, -0.06604527, -0.1500349, 0.014711849, -0.07278678, -0.12980253, -0.056301653, -0.10590725, -0.002408812, -0.12491695, -0.07130504, 0.04527896, -0.053370837, 0.04951812}, {-0.08002258, 0.2898784, 0.2357282, 0.062273443, 0.20614712, -0.0248236, 0.08684585, 0.089198895, -0.02597827, 0.124156415, -0.0036347257, 0.011624501, 0.18980788, -0.01654579, 0.056438383, 0.006269094, 0.031118648, 0.1437117, -0.078422844, 0.018001577, -0.068674065, -0.06814588, 0.09933521, -0.14907984, 0.018146666, -0.08802433, -0.17314157, 0.19250253, -0.055424303, 0.10131579, -0.010415496, -0.13292757, 0.094650716, -0.104915194, 0.015064689, 0.065023586, -0.062981166, 0.2851635, -0.30325004, -0.013250257, -0.11697068, -0.133085, -0.031185687, -0.108582444, 0.13510175, -0.20822324, -0.15631548, -0.08476606, 0.09991626, 0.076880254, 0.15813924, -0.16821815, -0.36470693, 0.17741643, 0.15690494, 0.09601668, -0.04623515, -0.20662113, 0.15660638, 0.15177247, 0.008502528, -0.12715498, -0.22717825, 0.18162176, 0.232509, 0.0431515, -0.0034885008, -0.18383655, 0.07016887, 0.11425315, 0.05932313, -0.017115576, -0.2313123, 0.24514848, 0.097365394, -0.0019901318, -0.065633096, -0.15381292, 0.024741964, -0.049285773, 0.15627424, -0.0949036, -0.30092666, -0.043554585, 0.1301142, 0.07429386, -0.042983532, -0.1121681, -0.01121028, 0.23525213, 0.39202234, -0.010079191, -0.08758465, 0.114206225, 0.052581344, -0.13033254, 0.06900217, -0.040050052, 0.09382626, -0.06518424, -0.10893656, 0.040806703, -0.105111375, 0.013920061, 0.15580323, -0.06870231, -0.025507847, -0.04668129, 0.13023059, -0.040982272, -0.116506755, -0.0048933495, -0.12325654, -0.024569152, 0.07602365, -0.070390835, -0.0086135585, -0.1403368, 0.04967377, 0.07100534, -0.012231182, 0.12561099, 0.01335863, 0.06326514, 0.06806609, -0.05670576, 0.049878508, -0.072612256, -0.010022526, -0.0060934597, -0.04797507, 0.01250703, -0.09732593, 0.10770336, -0.072505124, -0.013964588, 0.08689494, 0.13664258, 0.086981885, -0.012921119, 0.10719594, 0.02535326, 0.016683178, 0.19446695, 0.10101529, 0.14419986, 0.110699356, 0.010434861, 0.15825966, 0.121232934, 0.010950558, 0.052951574, 0.048913788, 0.19331594, -0.0029046792, 0.1078196, 0.15102914, 0.089215666, 0.10880892, 0.11355977, 0.24398857, 0.20089132, 0.16311675, 0.21309727, 0.1621444, 0.14032905, 0.18726598, 0.12987226, 0.20918128, 0.13118519, 0.11957332, 0.2325442, 0.13860333, 0.21053539, 0.1686328, 0.18185735, 0.20349081, 0.14058986, 0.23191261, 0.007200393}, {0.13596267, -0.17322898, -0.16998968, 0.04088752, -0.17134877, -0.011840779, -0.090133905, -0.006496747, 0.15014686, 0.011302088, 0.119285464, -0.017204687, -0.014630676, 0.15337773, -0.05323858, -0.04293557, -0.121210195, -0.3335798, 0.074851796, -0.051149663, 0.05277243, -0.05183506, -0.054141097, 0.08002272, -0.12683572, 0.00743705, 0.09461881, -0.039485276, 0.20736814, 0.09896535, 0.07199229, 0.13658473, -0.102346405, 0.08833893, -0.07180668, 0.008376943, 0.0418281, -0.29829872, 0.11180956, -0.058078606, 0.013100767, 0.037601363, 0.04139898, 0.2052102, 0.091030866, 0.20117377, 0.3047052, 0.13011065, -0.036695182, -0.0014554652, -0.04067221, 0.3044795, 0.31302202, -0.055421233, -0.04765129, 0.06325802, 0.09496717, 0.35896808, 0.024800139, -0.021949561, 0.01569232, 0.119441696, 0.2348401, -0.06293597, -0.10109895, 0.07645208, 0.0101482645, 0.15756638, 0.1705253, 0.05574071, 0.03426659, 0.08766609, 0.27893114, -0.057705555, -0.053608853, 0.04711936, 0.078971006, 0.06184803, -0.059304815, 0.096193716, -0.20187765, 0.06766901, 0.20989437, 0.055530265, 0.031356882, -0.057787184, 0.050045826, 0.20812958, 0.22084756, -0.1035616, -0.379104, 0.2258739, 0.23866254, 0.05315391, 0.10393353, 0.115510814, -0.03394457, -0.14520934, -0.16146179, -0.051191755, 0.008488649, -0.03545714, 0.10766047, -0.093524285, -0.028252829, 0.25991526, 0.23586628, 0.22376516, 0.13248526, 0.18921514, 0.3132566, 0.06855962, 0.16187422, 0.116348505, 0.014556535, -0.046568666, -0.08185723, 0.09329141, -0.059409834, -0.013518274, 0.2015901, 0.05308727, 0.06944321, 0.031969465, 0.06773642, 0.21055502, 0.22516693, 0.36521268, 0.23567909, 0.17848027, 0.16103958, 0.11142155, 0.09171684, -0.081010476, 0.073096626, 0.13802204, 0.006380437, 0.008581658, -0.13813412, -0.03279475, -0.22623411, -0.11111228, -0.12994793, -0.17451692, -0.097950876, -0.043541696, 0.05283028, 0.16948383, 0.031516194, 0.22360034, 0.2626863, 0.17625475, 0.14715137, -0.0063826945, 0.054817207, 0.031032657, -0.09473297, -0.13887556, -0.122327924, -0.20117734, -0.18582648, -0.13714516, -0.055891205, -0.13779826, 0.06494474, 0.089110486, 0.074135855, 0.16445582, 0.12762962, 0.1921282, 0.021626564, -0.044550844, 0.059392165, -0.13025555, -0.14328699, -0.10489566, -0.21970618, -0.1726213, -0.23594798, 0.03836724}, {0.09283652, -0.20700781, -0.12462373, 0.09247236, -0.09123223, 0.13330874, -0.089273684, -0.20702888, 0.004608219, -0.119795375, 0.0049873563, -0.065389745, -0.23090453, -0.12678204, -0.057332736, -0.07108397, -0.14409764, -0.19223873, 0.047898903, -0.069040194, 0.052560747, -0.08364376, -0.15221313, 0.012571376, -0.11624718, 0.1254846, 0.08776001, -0.19303183, 0.13098238, -0.01437291, 0.042768467, 0.05956688, -0.1819198, -0.038485873, -0.16287643, -0.09485956, 0.043253988, -0.20668657, 0.20005806, -0.017648993, 0.08568826, 0.08714924, -0.08425524, 0.1326259, -0.02897219, 0.30373147, 0.31757015, 0.064966284, -0.07784949, 0.017225893, -0.04680361, 0.20518793, 0.3016869, -0.08235018, -0.045315582, -0.05396383, 0.16547142, 0.27647907, -0.010759596, -0.060373012, 0.044726368, 0.1620319, 0.265504, -0.026528772, -0.12090103, 0.032659505, 0.03173001, 0.16232327, 0.115584485, -0.025976477, 0.036676776, 0.023585543, 0.2271542, -0.18882772, -0.1126633, 0.08918377, 0.17089292, 0.07194997, 0.015929723, 0.0149806645, -0.16691278, 0.15087424, 0.24394122, 0.12320382, -0.08778859, -0.015730757, 0.045779534, 0.13350508, -0.040649507, -0.16490962, -0.30256438, 0.09383785, 0.12066653, -0.074766405, 0.026015213, 0.15524824, 0.00015191757, 0.101911895, -0.010158181, 0.100260384, 0.15422624, 0.08046101, 0.075831175, 0.013511023, -0.03455376, 0.13714856, 0.06765105, 0.03435355, -0.022299549, 0.084838316, 0.22550856, 0.10756335, 0.14295712, 0.026434291, 0.122748315, 0.15945746, 0.11951204, 0.17934428, 0.060187694, 0.1195343, 0.21804409, 0.033325534, 0.15129195, 0.030332873, -0.028861182, 0.08256515, 0.06759679, 0.16931881, 0.096495695, 0.1302723, 0.16051826, 0.06961687, 0.1890237, 0.09726091, 0.10386836, 0.116315156, 0.0766988, 0.025186507, -0.032734416, 0.10922931, -0.039280344, 0.017145216, -0.024113288, -0.10137363, 0.0092136795, -0.08515485, -0.011252101, 0.09134193, -0.018407924, 0.049498808, -0.036361106, -0.045273084, -0.015241157, -0.10204516, 0.07266102, 0.069766276, 0.085466385, -0.017139154, -0.052082207, -0.07757695, -0.07351951, -0.13302608, -0.027641123, -0.088864975, -0.00031775574, -0.08859395, -0.12440527, -0.07136177, -0.049655914, 0.00076557795, -0.079644255, -0.15799615, 0.038158838, -0.02145785, -0.014559568, -0.08657052, -0.10687594, -0.009170131, -0.0959548, 0.056495912}, {0.32213712, 0.4614718, -0.38093665, -0.7049225, 0.15356405, -0.38368297, 0.086068444, -0.06173479, -0.4843223, 0.10712677, -0.2185135, 0.0044910694, -0.17757733, -0.5677904, -0.4710406, -0.039198484, 0.1139085, -0.40082195, -0.7456061, -0.10013917, -0.35265166, -0.101506405, -0.8393202, -0.93251014, -0.4995959, -0.25806686, -0.37618178, -0.7644868, -0.78015053, -0.3840997, -0.4918201, -0.5851206, -0.9431671, -0.87899697, -0.22603928, -0.4026302, -0.40673783, -0.34517822, -0.7042826, 0.18170647, -0.23156458, -0.49362803, -0.17794447, -0.6658496, 0.15674038, 0.027369563, -0.15597211, 0.11075158, 0.25659654, 0.09791922, 0.037550747, 0.033130623, -0.023070572, 0.084070146, 0.09774535, 0.0948217, 0.0351434, 0.13153248, -0.008277653, -0.14196524, -0.03686614, -0.08303534, -0.096770756, 0.067014225, -0.07342153, 0.0495097, -0.13858293, -0.009283525, 0.16892074, 0.18907629, 0.09718369, 0.05780185, 0.0072487625, 0.11513137, -0.14495943, -0.05803305, -0.021632511, 0.091822766, 0.19384173, -0.088757165, 0.06955554, 0.022052106, 0.044998758, 0.07134711, -0.023095984, -0.065468565, -0.12521806, -0.15070976, 0.04929894, 0.12203158, 0.24132015, -0.93066055, -0.49430865, -0.13736758, -0.53353745, -0.62423444, -0.43241894, -0.3430489, -0.109044194, -0.73776436, -0.591056, -0.45058802, -0.29507867, -0.21180214, -0.59432507, -0.4899328, -0.6294408, -0.43696153, -0.35347748, -0.48715332, -0.59298164, -0.41421407, -0.4947405, -0.22287472, -0.42257148, -0.57761294, -0.5525648, -0.6057514, -0.37445068, -0.81112385, -0.64694506, -0.6004584, -0.5781567, -0.40912375, -0.5357435, -0.48005646, -0.585159, -0.63731843, -0.3635167, -0.5533104, -0.51423085, -0.58945876, -0.46193302, -0.19846606, -0.15720175, 0.13953857, 0.07391632, 0.085240304, 0.093450494, -0.004475306, 0.11646829, 0.094412826, 0.04373627, 0.15120952, 0.075235695, 0.044623066, 0.092452295, 0.053948477, 0.15762016, 0.13003276, 0.11519346, 0.121141344, -0.011952794, -0.0019569707, 0.015461409, 0.0616941, 0.07553145, 0.02250804, 0.0070664803, 0.023420403, 0.098486714, -0.0013045438, 0.026760865, 0.019259632, 0.043486394, 0.05049945, -0.056016617, 0.018901547, 0.09606375, 0.0029173356, 0.06014354, 0.039795727, 0.010792252, 0.07661423, -0.025531834, 0.08304645, 0.056441803, 0.0063992683, 0.087398335, -0.17603396}, {0.14826493, -0.14194357, -0.18401024, -0.014755885, -0.16980112, 0.08998961, -0.036102124, -0.11884451, -0.0638669, -0.03779705, 0.05225339, -0.13302182, -0.2354606, -0.107686006, -0.17528857, 0.02016547, -0.071969695, -0.19814092, 0.09097189, -0.077175945, 0.025996808, 0.0038994332, -0.21571161, 0.13150774, -0.058663704, 0.053384874, 0.021589853, -0.14204489, 0.11685465, -0.066190936, 0.044663478, 0.052399293, -0.0828034, 0.06776661, -0.09942388, -0.12359969, 0.07684474, -0.20495898, 0.115517326, -0.07374943, 0.07522711, 0.03637968, -0.04621182, 0.11321626, -0.044782873, 0.2576143, 0.24077663, 0.0855573, -0.034801755, -0.029590363, 0.007904117, 0.25076622, 0.30873224, 0.014894174, -0.010179247, 0.045538798, 0.07266189, 0.25910488, -0.09397558, 0.009809632, 0.09368575, 0.106472366, 0.2944639, -0.090866566, -0.15824588, 0.059913285, -0.018026177, 0.1817345, 0.1154091, -0.017843727, -0.056279942, 0.050861657, 0.2130911, -0.17804639, -0.1412559, 0.090439074, 0.08200073, 0.056188997, -0.005539608, 0.04123976, -0.18447326, 0.105986975, 0.2953855, 0.05708276, -0.10469308, -0.043987535, 0.054487396, 0.18969561, 0.053915225, -0.21642788, -0.29594672, 0.079339825, 0.12089334, -0.012345306, -0.0011445151, 0.09336332, 0.0039089266, 0.15895934, -0.07237218, 0.1312702, 0.07515538, 0.036681693, 0.15758842, -0.05232126, -0.14392579, 0.07971383, 0.027441913, 0.032636777, 0.010496458, 0.14935419, 0.18272921, 0.050458133, 0.10448997, 0.044022214, 0.07317452, 0.1673534, 0.09114053, 0.21028322, 0.05589102, 0.13828602, 0.10951168, 0.031106045, 0.09894864, -0.0028790222, 0.013718946, 0.14132257, 0.14958094, 0.15253058, 0.1015374, 0.03512345, 0.18462268, 0.10237248, 0.26814693, 0.055398732, 0.062022597, 0.07324791, -0.022036595, 0.030532673, -0.010905077, 0.080152005, 0.021856429, -0.042217538, 0.015845811, -0.03361422, 0.04345994, 0.02705962, -0.053131294, -0.026288165, -0.031945206, -0.018565709, 0.08283278, -0.042511906, 0.005392247, -0.058024388, 0.10672879, 0.08354039, -0.031583928, 0.012991571, 0.016848225, -0.030998845, -0.05041321, -0.14815335, -0.079446755, -0.084167816, 0.00050794554, -0.06172821, -0.112757176, -0.01090176, -0.13399935, -0.07597032, -0.12998226, -0.09848879, 0.015186251, -0.057572633, 0.052479275, -0.07217485, -0.005168101, -0.055971634, -0.13282585, 0.0428311}, {0.18705152, -0.13849771, -0.10481633, -0.005090771, -0.060819387, 0.09622329, -0.029644517, -0.14996596, -0.07511263, -0.050115325, 0.0022328198, -0.0719922, -0.15280919, -0.14488436, -0.05749498, -0.039779335, -0.14168946, -0.18516923, 0.039995696, -0.034022294, 0.03882054, -0.08541881, -0.107711375, 0.099515505, -0.03292864, 0.060985815, 0.036420077, -0.15565807, 0.064091876, -0.052466042, -0.05898945, 0.0877142, -0.18602467, 0.034863647, -0.087142654, -0.061082624, 0.08092804, -0.3128533, 0.12961602, -0.11382937, 0.12749131, -0.00404546, -0.018233621, 0.05087928, -0.04833343, 0.23577969, 0.21349208, 0.13288975, 0.0009887881, -0.027469592, 0.015568892, 0.22475547, 0.36599162, -0.09922695, -0.0568941, -0.025887383, 0.14315788, 0.33991435, -0.10379406, -0.026933663, 0.1268354, 0.21013325, 0.3005168, -0.081834555, -0.072480306, 0.10121387, -0.017255321, 0.20402038, 0.025469452, -0.026618138, 0.007364395, -0.0047878795, 0.249769, -0.097713016, -0.1310787, 0.029788656, 0.1026182, 0.11416964, -0.09039783, 0.0366447, -0.08587393, 0.042750828, 0.24524505, 0.07434929, -0.03046804, -0.07926551, 0.09707493, 0.13779993, 0.046881694, -0.21535465, -0.2571186, 0.06680575, 0.1122403, 0.007226739, 0.020920467, 0.15843002, 0.09582528, 0.09714293, 0.0062026465, 0.010496424, 0.1146545, 0.030869741, 0.14878766, 0.04965487, -0.14273752, 0.08621162, -0.03611148, 0.043255106, 0.03347915, 0.086499415, 0.14868842, 0.024275312, 0.11860651, 0.05378522, 0.015664326, 0.10629845, 0.066009186, 0.31330386, 0.12520248, 0.057943746, 0.16761494, 0.0064687915, 0.06044402, 0.048837207, -0.00906163, 0.0946687, 0.14792901, 0.1300243, 0.18282977, 0.12285055, 0.24989949, 0.10055096, 0.19346708, 0.0053738034, 0.074081615, 0.04858592, 0.043288864, -0.008505394, -0.0736417, 0.1798236, -0.040918596, 0.044828657, 0.035615575, 0.03953135, -0.021735718, -0.00067715003, -0.018908106, 0.074445195, -0.09387336, -0.023995021, 0.02039304, -0.087673135, 0.001323111, -0.098783866, 0.07422851, 0.058200575, -0.053864118, 0.06849237, 0.025342522, -0.05215094, -0.07839167, -0.03529032, -0.07445733, -0.11311974, -0.040039994, -0.12903115, -0.123035006, -0.047981024, -0.14105482, 0.047745347, -0.05888399, -0.110258594, -0.003562968, -0.069932714, 0.0024064383, -0.020558033, -0.12801974, -0.030153327, -0.068818174, 0.0016403331}, {0.61349225, 0.23392786, -0.06520819, -0.44940284, -0.029991647, 0.1397211, -0.13972555, -0.42026478, -0.31700987, -0.22776654, -0.25091556, -0.13602433, 0.13057655, -0.17384088, -0.15566586, -0.17821805, -0.20965846, -0.15525244, -0.28409737, 0.095922716, -0.15989405, 0.033736095, 0.017368989, -0.26905876, 0.12696743, 0.29395106, 0.20216963, 0.30570197, 0.012800185, 0.08161189, 0.23606001, 0.17882901, 0.30002034, 0.18249023, 0.3317511, 0.35034993, 0.034278702, 0.34646574, 0.1481969, 0.33516738, 0.07957245, 0.23908727, 0.22827268, 0.24253857, 0.1368799, 0.30288437, -0.25302806, 0.13843694, 0.2772457, 0.15244606, 0.2737381, 0.060214445, 0.030821156, 0.094180144, 0.14929211, 0.35013488, 0.12062366, -0.07293943, -0.052460764, 0.060587917, 0.00577171, 0.13008618, 0.0020344756, 0.15367165, -0.1317986, 0.018865304, -0.033254094, -0.15418223, 0.032344, 0.020986352, 0.119925246, -0.11450914, -0.21650171, 0.13086516, 0.03467397, -0.08425835, -0.18349539, -0.17054972, -0.005289768, -0.07665451, 0.079242766, -0.2544469, -0.49531877, -0.023263067, 0.10773419, 0.018387947, -0.13809983, -0.26066744, -0.09283935, 0.1261326, 0.33610237, -0.75644946, -0.15527155, -0.18763672, -0.07549501, -0.14419517, -0.041797485, -0.28690213, -0.13755254, -0.10345477, -0.19860025, -0.29860365, 0.044076405, -0.33296242, -0.0956789, -0.1217333, -0.16569774, -0.059308972, -0.09550384, -0.12250067, -0.030149085, -0.062487785, -0.10513609, -0.13503887, 0.10198708, 0.10894134, -0.10229087, 0.11441031, 0.10729124, 0.11364184, 0.05017783, -0.029289955, 0.10898008, 0.022850346, 0.14059143, 0.18549694, -0.046509076, 0.035557598, 0.08363064, 0.2571183, 0.07704139, 0.06827033, 0.13217191, 0.17337419, -0.021392282, -0.06123382, 0.3342573, 0.28728536, 0.3903862, 0.17515315, 0.25384256, 0.16766264, 0.13252145, 0.340308, 0.21948698, 0.30189654, 0.35760713, 0.20108694, 0.24543995, 0.30205825, 0.16731855, 0.14019758, 0.08208324, 0.18386863, 0.025452461, -0.10948203, 0.07761984, -0.09683004, -0.07624379, -0.121263064, -0.17381424, 0.008774072, -0.22073482, -0.03352927, -0.26131663, -0.31336987, -0.22595148, -0.2721922, -0.10400715, -0.3206919, -0.28720748, -0.123076856, -0.25248134, -0.1544266, -0.20190808, -0.13335975, -0.104924835, -0.2639911, -0.11818839, -0.24951862}, {0.05828726, -0.14913529, -0.18571809, -0.025919272, -0.09017022, 0.09768182, -0.0012943315, -0.12896171, -0.02581937, -0.08035913, -0.07671165, -0.050763212, -0.25013712, -0.02957783, -0.16530228, -0.08869062, -0.086772956, -0.20817354, 0.018404728, -0.035456996, -0.039623916, -0.06504073, -0.09948779, 0.13957329, -0.117963806, 0.093476556, 0.13743886, -0.15793979, 0.091570415, -0.10000702, 0.02158435, 0.04660927, -0.19946678, 0.053950258, -0.17902389, 0.014056023, 0.019087002, -0.21771803, 0.11184024, -0.11308316, 0.12528494, 0.08007919, -0.019329753, 0.122239545, -0.012481089, 0.19222853, 0.21348473, 0.06749646, 0.011465181, -0.022192555, -0.055332992, 0.29892704, 0.40528986, -0.032456167, -0.058326077, 0.059702974, 0.18159567, 0.2683076, -0.1001445, -0.07072649, 0.07326969, 0.10373012, 0.23163906, -0.10498591, -0.1464153, 0.10489044, 0.068008974, 0.24968496, 0.1311071, -0.07616377, -0.05517036, -0.013173068, 0.2197554, -0.07794182, -0.091953814, 0.1517101, 0.18626888, 0.026938468, -0.005453138, 0.0029323325, -0.21929097, 0.11737481, 0.22929119, 0.018640058, -0.13118249, -0.0075193006, 0.015946563, 0.21788216, -0.016040975, -0.14347251, -0.33832556, 0.17165795, 0.15907052, -0.11280973, 0.09512053, 0.16347975, -0.001037648, 0.034441397, -0.059000652, 0.10503408, 0.17288172, 0.052568357, 0.05321198, 0.016489623, -0.076307595, 0.109620474, 0.06743652, 0.09176984, 0.060533293, 0.13832758, 0.21369337, 0.106410496, 0.18301864, -0.011213098, 0.13569865, 0.16144422, 0.10418069, 0.30327892, 0.14155118, 0.031591475, 0.17572358, -0.016286066, 0.075468086, 0.029623546, -0.0038966394, 0.04707513, 0.12742825, 0.16224189, 0.14620827, 0.14227186, 0.23171043, 0.12387593, 0.2653591, 0.015387156, 0.118978485, 0.029365072, 0.008423004, -0.038227364, 0.044598468, 0.13698655, -0.01858892, 0.005428831, 0.058489222, -0.071020976, -0.015968157, -0.0057881293, -0.064011924, 0.092359446, -0.018032925, 0.014209003, 0.013395527, -0.0089324005, 0.073303044, -0.026006598, 0.024853645, 0.07719231, 0.014605709, -0.05293737, -0.060436547, -0.013526778, -0.010833395, -0.11651548, 0.0041289814, -0.15095545, -0.018004749, -0.08993035, -0.10709556, -0.011085342, -0.05209281, -0.067905165, -0.082829714, -0.07018865, 0.014641764, 0.0056551546, -0.08289023, -0.010706292, -0.03533869, -0.07522499, -0.12257834, 0.06573641}, {0.42656392, 0.63886094, -0.4534569, -0.79951274, 0.16284941, -0.46277025, -0.22164688, 0.06491348, -0.41440323, 0.10598869, -0.28361502, -0.13538164, -0.040812373, -0.6577938, -0.42569232, -0.29371536, -0.1375095, -0.34706104, -0.7465757, 0.03734269, -0.22997735, -0.14331433, -0.3907655, -0.6390753, -0.1094237, -0.12039808, -0.2977337, -0.19208406, -0.7746825, 0.1055363, -0.23447175, -0.33464774, -0.3194211, -0.5193295, 0.41610324, -0.029898517, -0.29836103, 0.16681719, -0.42772952, 0.38991094, -0.08088783, -0.51265436, 0.34060195, -0.46781045, 0.23167089, 0.04986985, -0.14420669, 0.059662063, 0.23003219, 0.12513459, 0.0020598485, -0.02444879, 0.0022756087, 0.104413465, 0.16563472, 0.008128662, -0.042212415, 0.090364434, 0.058867056, -0.10912882, 0.0035695776, -0.14158128, -0.14653091, 0.048277766, -0.0008267948, 0.046981674, -0.12666255, -0.010181781, 0.11508671, 0.059303343, -0.0041144327, -0.06827178, 0.064230725, 0.21522528, -0.1789884, -0.12594888, -0.08938017, -0.03696732, 0.11755161, -0.07228222, 0.015389942, -0.0905833, -0.010843187, 0.029174544, -0.10983452, -0.13369001, -0.19561683, -0.18168555, -0.10104216, 0.09811356, 0.20381176, -0.8524991, -0.48618266, -0.09804029, -0.45668304, -0.6102636, -0.45155162, -0.35047597, -0.2592544, -0.525162, -0.6176204, -0.32633027, -0.45850423, -0.36697516, -0.63819236, -0.4733119, -0.5715165, -0.4209647, -0.22074486, -0.45091593, -0.47030473, -0.45162567, -0.3509473, -0.17061809, -0.3799244, -0.52497214, -0.41308096, -0.5458645, -0.31133032, -0.5577384, -0.60445696, -0.43123806, -0.26920694, -0.12650013, -0.23161854, -0.42603776, -0.46576694, -0.4214286, -0.099267066, -0.22819908, -0.45951423, -0.38259172, -0.32785857, -0.03338155, -0.21105582, 0.11189387, 0.066512026, 0.054718062, 0.054622497, -0.023827767, 0.11176464, 0.13080773, 0.052322835, 0.027140351, 0.065053634, 0.10293457, 0.118372306, -0.063020475, 0.15811798, 0.0391275, 0.10321403, -0.034074236, -0.019551203, -0.0069945254, -0.042027228, -0.0025313161, -0.04525752, 0.044501226, 0.09186166, 0.0129910745, 0.027550517, 0.043415345, 0.017168833, 0.1065647, 0.024423487, 0.08189548, 0.023231972, -0.013960781, 0.08633229, -0.019015595, 0.12857363, 0.12851177, 0.09900573, 0.08239913, -0.0795832, 0.04894146, 0.06413156, 0.011235055, 0.041971292, -0.07440626}, {0.475884, 0.6201324, -0.07148181, -0.5518151, 0.29799658, -0.3702973, -0.11262719, 0.12781733, -0.31451344, 0.017400494, -0.34573898, -0.044975467, -0.068706825, -0.51315653, 0.1116177, -0.18747754, -0.043344308, -0.17524064, -0.28890082, 0.30825073, -0.20876968, -0.03336786, -0.042138204, -0.08712186, 0.26833782, 0.029322034, -0.10495591, 0.16888067, -0.6070536, 0.22702533, 0.0670009, 0.043941643, 0.23198445, -0.18112758, 0.4662296, 0.07330941, -0.115870945, 0.25771207, -0.4169223, 0.41440865, -0.061093893, -0.3038645, 0.15082039, -0.3823377, 0.3477828, 0.039919924, -0.25177506, -0.015650118, 0.27696043, 0.08133563, -0.0052972077, -0.17918885, -0.1635536, 0.14094909, 0.036733642, 0.012920742, -0.1304356, -0.03909244, 0.03578994, -0.044201914, -0.0839339, -0.12505466, 0.012362239, 0.15916336, 0.13533404, 0.11464986, -0.17391625, -0.09432071, 0.05454008, 0.0943139, -0.059789237, 0.08540398, 0.17534369, 0.28677702, -0.05165045, 0.009511278, -0.11755963, -0.13148873, 0.03368991, -0.14819078, -0.08667887, -0.0043478245, -0.024936289, 0.03167878, -0.1017224, -0.20877466, -0.16417536, -0.091299094, 0.08248142, 0.16872275, -0.29025787, -0.49535966, -0.48137605, -0.29828528, -0.504603, -0.5915319, -0.4395685, -0.34788048, -0.3083496, -0.56518865, -0.66349596, -0.40300563, -0.49135447, -0.43873554, -0.43677658, -0.41761544, -0.38898233, -0.47691524, -0.30725855, -0.3052264, -0.4488438, -0.37598813, -0.15115876, 0.036475565, -0.3376209, -0.4326253, -0.32061413, -0.41640475, -0.12527186, -0.36968225, -0.4076479, -0.29833737, -0.3225401, -0.15144119, -0.20350482, -0.32294327, -0.53649527, -0.44842085, -0.18581855, -0.049326874, -0.5077211, -0.34363335, -0.39344367, 0.08406002, -0.20336246, 0.004935853, -0.10974359, 0.101503596, 0.16271172, 0.043353934, 0.09566326, 0.045238625, -0.045437872, 0.12121405, 0.08813551, 0.11161431, 0.12730207, -0.028189747, 0.1685902, 0.12722364, 0.12724873, 0.026660431, 0.10109766, 0.0372103, 0.020147715, 0.11958529, 0.10677237, 0.1295678, 0.09343734, 0.015927603, 0.1919665, 0.09154009, 0.14257942, 0.10378382, 0.06349771, 0.04724979, 0.022864284, 0.000930386, 0.09213682, -0.0142294, 0.023365065, 0.08605814, 0.056450877, -0.037491605, -0.1126486, -0.0473619, -0.022294547, -0.07826378, 0.020440796, -0.2696944}, {0.45729318, 0.45931602, -0.46752107, -0.6291121, 0.16926154, -0.31746903, -0.026995381, -0.007722805, -0.41892257, 0.33540273, -0.088230595, -0.030339373, -0.11433917, -0.5742306, -0.4294003, -0.20060602, 0.0042966837, -0.19101098, -0.6700232, 0.107882075, -0.385842, -0.07833624, -0.5751056, -0.69004226, -0.23168887, -0.16413026, -0.27261394, -0.61837095, -0.86134267, -0.32637453, -0.38028046, -0.45408237, -0.5782972, -0.7255901, -0.21829395, -0.24614976, -0.4848165, -0.40896633, -0.5844885, 0.3299282, -0.17721516, -0.60939187, 0.006657058, -0.71512765, 0.19843322, -0.037271656, -0.17035136, 0.1072237, 0.28203967, 0.07541157, 0.0878844, -0.06272173, 0.0045300387, 0.13543923, 0.14070682, 0.101144485, -0.112432666, 0.106085345, -0.03398256, -0.11400675, -0.062868826, -0.13336866, -0.04560436, -0.0051090433, -0.0064660655, 0.019105623, -0.17503652, 0.008856827, 0.057784498, 0.08806974, 0.12054683, 0.027225386, 0.10171719, 0.1758135, -0.18964635, -0.10585301, -0.10670992, 0.06739706, 0.11029246, -0.013285932, 0.024858067, 0.034823198, 0.024554977, 0.19586724, 0.048157226, -0.009618509, -0.19715357, -0.13005655, 0.012800471, 0.08053009, 0.14246207, -0.93310124, -0.30900535, -0.23953146, -0.6346792, -0.7577486, -0.58999157, -0.25428927, -0.23134118, -0.56615925, -0.66179985, -0.46714967, -0.3253514, -0.34668198, -0.56382924, -0.5861945, -0.6844712, -0.485261, -0.22387564, -0.5848737, -0.6935648, -0.4869381, -0.48107117, -0.0992966, -0.36802348, -0.5941326, -0.5102557, -0.67556185, -0.2940293, -0.76738405, -0.80125517, -0.6330174, -0.593163, -0.55510575, -0.4580773, -0.5472737, -0.67332613, -0.5848686, -0.36695492, -0.46913436, -0.7109679, -0.6643445, -0.41485512, -0.16794373, -0.20164111, 0.16819414, 0.08096121, 0.15451813, 0.18403788, -0.021234991, 0.12713246, 0.10213733, 0.095693715, 0.08058546, 0.080887035, 0.13700812, 0.040366914, 0.053600535, 0.077537976, 0.11007626, 0.08220973, 0.07379187, -0.030583758, 0.06558309, 0.09243494, 0.092115015, -0.026739795, 0.010512081, 0.110769406, -0.011515242, 0.024383206, 0.037623145, 0.09976225, 0.08384905, -0.013438975, 0.065193295, 0.09468145, 0.07960795, 0.029979361, -0.017988363, 0.025445327, 0.10825091, 0.01027786, 0.065967984, -0.0922311, 0.053472232, -0.020131793, -0.061676282, -0.06730881, -0.13327943}, {-0.20254491, 0.28120837, 0.19937228, 0.013096805, 0.1993254, -0.085567966, 0.046525825, 0.123668745, 0.018826745, 0.087525286, -0.1974221, -0.06797772, 0.16023485, 0.053987157, 0.12172151, -0.0040942915, 0.19148296, 0.18282832, -0.046669237, -0.0066669886, 0.001916662, -0.046285395, 0.20820132, -0.12790425, 0.08321069, -0.03853317, -0.123943284, 0.23377463, -0.11207027, 0.001639867, -0.17599693, -0.109172225, 0.17611864, -0.09598693, 0.17776218, 0.022016054, -0.08898965, 0.22873102, -0.12199093, 0.040397007, -0.2456323, -0.057390966, 0.11497386, 0.03294617, 0.05608324, -0.20983972, -0.2256225, -0.028086001, 0.17415304, 0.055593655, 0.17425324, -0.10562904, -0.28953063, 0.05925264, -0.16709632, -0.0178008, -0.083391175, -0.22568344, 0.2424902, 0.23694365, 0.07526257, -0.11233121, -0.1521558, 0.17911318, 0.20634778, 0.024852008, 0.10272774, -0.18778062, 0.09698542, 0.101983465, 0.06583959, 0.119277336, -0.2743925, 0.1653937, 0.15931715, -0.0960694, -0.049330052, -0.15481022, 0.15593217, -0.10907114, 0.25853452, -0.0033434725, -0.27636808, -0.017134434, 0.16590501, 0.10222251, 0.0029045749, -0.16432956, 0.03726031, 0.29438332, 0.3358199, -0.078904636, 0.03436128, 0.15274037, 0.13918404, -0.049883664, 0.03817399, -0.041076623, 0.2074635, -0.11722058, -0.16884363, 0.09444966, 0.009147103, 0.08797734, 0.16919032, -0.035632536, 0.124293864, 0.0699331, 0.03586897, -0.026243018, -0.029461455, 0.09013345, -0.015278419, -0.016003879, 0.091014564, 0.023957329, 0.021104667, -0.04932532, 0.07465194, 0.06027641, -0.09306455, 0.07859652, 0.0073672575, 0.08476089, 0.097848445, 0.059394453, 0.03507869, -0.030419422, -0.06411409, 0.0975391, -0.10211967, -0.06560401, -0.08809223, 0.10961655, -0.09177141, 0.039836675, 0.026662279, 0.1461896, 0.095484346, -0.060571913, 0.011240987, -0.025685094, 0.04486161, 0.06683133, -0.03321798, 0.05316088, 0.06347216, -0.059693508, -0.0047968607, -0.014546879, -0.003631622, 0.077996105, -0.05694737, 0.023138966, -0.07288533, -0.02089707, -0.0010040664, 0.057622883, -0.029732808, 0.10920698, 0.08314821, 0.06480332, 0.022978513, 0.15912417, 0.05743772, 0.14303659, 0.09489677, 0.108115405, 0.18037342, 0.014309584, 0.10785072, 0.08436488, -0.02233474, 0.0034381342, -0.017642861, 0.12402609, 0.06890649, -0.04408303, 0.1429199, 0.03355214}, {0.102648474, -0.13139337, -0.243675, -0.02244798, -0.16789052, -0.0041968613, -0.05059834, -0.18919387, 0.01421046, -0.14697316, -0.09862395, -0.10017762, -0.15990983, -0.051425472, -0.21658844, -0.10323443, -0.10547195, -0.20727897, 0.068128645, -0.1338833, -0.027253592, -0.08359747, -0.14293714, 0.0009823033, -0.0834234, 0.038754288, 0.080950744, -0.20913401, 0.13327634, -0.079481326, -0.048884824, 0.006568656, -0.22333892, -0.08028891, -0.12628351, -0.11762206, -0.031702656, -0.3334551, 0.10768559, -0.049371764, 0.040197726, 0.023233749, -0.12662102, 0.13307555, -0.006378703, 0.28112486, 0.25471234, 0.039613474, -0.100060634, -0.054135293, -0.017898757, 0.17032598, 0.36004168, 0.003551609, -0.1270993, 0.026737392, 0.13032822, 0.3181732, 0.034724884, -0.07788885, 0.11579666, 0.10755775, 0.30522633, -0.07736354, -0.117182545, 0.004633321, 0.028376246, 0.15339477, 0.028585475, 0.0045507634, 0.004763207, 0.012872973, 0.21304125, -0.07837246, -0.086104855, 0.045650423, 0.19579613, 0.057272855, 0.011911788, 0.08586557, -0.13559327, 0.020039244, 0.23810862, 0.026089555, -0.14512953, -0.10290909, -0.013098035, 0.10079938, -0.032618366, -0.29115525, -0.37470785, 0.039082136, 0.059141714, -0.041401617, 0.08613626, 0.12189678, 0.14480495, 0.12588073, -0.022284035, 0.11736076, 0.06849602, 0.088057585, 0.1365465, -0.083951905, -0.014035226, 0.065047935, 0.01843128, 0.013412648, -0.039618075, 0.15437312, 0.1325686, 0.13827959, 0.20076187, 0.13728449, 0.059494328, 0.10048506, 0.17364745, 0.20441914, 0.053105123, 0.15248115, 0.11464639, -0.00011981867, 0.1275358, 0.07374261, 0.03172961, 0.063233204, 0.14419813, 0.14761919, 0.20505522, 0.14394745, 0.22714885, 0.08144963, 0.28076246, 0.009376042, 0.1364449, 0.09022336, 0.07977367, -0.075912155, 0.018827114, 0.114108846, 0.046892162, 0.056139674, 0.026057575, -0.05314698, -0.027444059, 0.026281742, -0.10986924, 0.05456385, 0.011204081, 0.043721445, 0.0012669166, 0.023975179, 0.079732895, 0.0005319921, 0.07453073, 0.026851855, 0.074121654, 0.022147804, 0.0708243, 0.08961577, -0.06469563, -0.060298808, 0.036195964, -0.12891406, -0.023224412, -0.07926639, -0.0338483, -0.04257686, -0.12088735, -0.035359513, -0.0025423442, -0.046399027, 0.06401337, 0.035481457, 0.04669502, 0.052916437, 0.010286619, -0.020402914, 0.0022028408, 0.035407297}, {0.061151117, -0.17012005, -0.20994309, 0.011276286, -0.08216626, -0.017119315, -0.12162354, -0.12598464, -0.0051095705, -0.05284471, -0.06454187, -0.17583774, -0.20793949, -0.07386207, -0.17896077, -0.18157187, -0.31299755, -0.33853024, -0.0031518666, -0.051043253, -0.0142370835, -0.15849595, -0.10916842, 0.1500724, -0.020549411, 0.029031886, 0.06279406, -0.17510834, 0.18468572, 0.06668431, 0.04584738, 0.038628615, -0.1150749, 0.059753835, -0.2872482, -0.23494796, -0.18936755, -0.46133673, 0.010337819, -0.15379821, 0.078535706, 0.06681528, -0.110793315, 0.14582922, 0.059036683, 0.28358534, 0.20568657, 0.05251721, -0.094922535, 0.047232352, -0.017766811, 0.26601067, 0.37748545, -0.015890528, -0.018798321, 0.03901555, 0.10359997, 0.2705582, 0.03773734, 0.07003194, 0.1763182, 0.21846664, 0.30116105, -0.05099904, -0.15949245, 0.08250867, 0.07119499, 0.22001944, 0.09246703, -0.030736405, -0.050131302, 0.054543585, 0.25082046, -0.076414354, -0.06295436, 0.15387289, 0.13122262, 0.1803311, -0.08580678, 0.038917508, -0.050422397, 0.11824488, 0.2230121, 0.12493539, -0.14869535, -0.025838008, 0.0010063102, 0.22178411, 0.034904223, -0.19075464, -0.33127457, 0.08968778, 0.0660256, -0.043014232, 0.025659852, 0.055797826, 0.022036193, 0.116055444, -0.089938715, 0.10585485, 0.09054014, 0.05953335, 0.15794198, -0.03223801, -0.0658156, 0.023050211, 0.062837414, 0.044872727, -0.023785947, 0.010470763, 0.092806235, 0.047550045, 0.11747021, 0.1075691, 0.055703185, 0.19297433, 0.15436435, 0.28907993, 0.051429477, 0.03713833, 0.13294469, 0.035890285, 0.0891902, -0.038760915, -0.028310152, 0.04494755, 0.06029789, 0.13053487, 0.15586454, 0.0061052428, 0.25886923, 0.0828767, 0.2570785, 0.0035011664, 0.1296884, 0.078916244, 0.11762918, -0.018854756, -0.013998043, 0.14101513, 0.04101136, 0.03246307, 0.044427134, 0.02903977, -0.013660582, -0.097136356, -0.10053257, 0.07533754, -0.09776538, -0.03626411, 0.02739538, -0.01573233, 0.1103083, -0.09331136, 0.09742387, 0.096466005, 0.06664997, 0.051319998, 0.054217633, 0.0557819, -0.101304464, -0.0021284057, 0.0021151206, -0.11018288, -0.06566303, 0.009445858, -0.091092825, -0.012767681, -0.053335976, -0.052370723, 0.016140427, -0.047305066, 