const float conv1_weight[6][3][5] = {{{-0.2417283, -0.34551784, -0.026460668, 0.34069642, 0.38965374}, {-0.55319536, -0.8526625, -0.8109646, -0.9947953, -0.41968742}, {0.42578563, 0.68678695, 0.2759977, 0.26577273, 0.20502426}}, {{-0.7627693, -0.95622164, -1.0055058, -0.70375323, -0.33497474}, {-0.6263483, -0.7956502, -0.80107766, -1.0570008, -0.8820904}, {-0.75302964, -0.58995074, -0.16584325, -0.5769151, -0.3012677}}, {{-0.5424479, -0.47388485, -0.5389825, -0.5474572, -0.8459941}, {-0.563197, -0.98622084, -0.77923983, -1.0584506, -0.6933283}, {-0.18905841, 0.23175979, 0.38264, 0.53764, 0.5013555}}, {{-0.29481637, -0.13317873, -0.10735746, 0.34323704, 0.13762793}, {-1.0556436, -1.060743, -0.7789199, -0.6676167, 0.37547475}, {-0.054348305, -0.083262205, 0.07371742, -0.04013345, 0.60016644}}, {{0.29046416, 0.5103916, 0.7287273, 0.9429721, 1.0490754}, {-0.5490957, -0.23973046, -0.71330345, -0.34285763, -0.4102849}, {0.074341826, 0.005728705, 0.18322314, 0.62811387, 0.6393005}}, {{-0.3173588, -0.08812304, 0.08960927, 0.29980475, 0.122496285}, {-0.21371745, -0.08725504, 0.11940694, 0.4500471, 0.038210228}, {0.8439643, 1.081677, 1.0559667, 0.38007554, 0.3391673}}};
const float conv1_bias[6] = {0.29962152, -0.054735858, 0.2626022, -0.046308313, 0.12576647, 0.33399528};
const float net1_weight[30][150] = {{0.13740489, 0.058434352, 0.039379317, 0.09831468, 0.05580244, 0.07016123, 0.08259528, -0.006701683, -0.05718638, -0.06405412, 0.022235038, -0.05973147, -0.12324111, -0.1106469, 0.05621781, 0.03770853, 0.106553584, 0.040601987, 0.018454049, -0.014439686, 0.025622033, -0.022519138, -0.10734842, -0.12448836, -0.14968596, 0.16186969, 0.010731673, -0.024069142, 0.0406087, 0.07111979, 0.113623135, 0.14750059, 0.15974614, 0.14146727, 0.116147846, 0.18213609, 0.10238343, -0.0805253, -0.11604529, 0.06604441, 0.11438474, 0.1965081, 0.084451005, 0.1866305, 0.10623989, -0.099506535, -0.13990387, -0.06535916, -0.13063152, -0.28996623, -0.0102210445, 0.026479887, 0.031039342, 0.046762343, 0.05820433, 0.033563826, 0.0015658542, 0.024657339, 0.054071654, 0.1416727, 0.0304834, -0.0024243586, -0.101602085, -0.09690412, 0.028675638, 0.16135742, 0.09136406, 0.05988427, 0.0736306, -0.012678401, -0.012591346, 0.014626916, 0.03607155, -0.1305452, -0.24943364, 0.060976624, -0.020786388, -0.13262168, 0.042686623, -0.027950171, -0.053177297, -0.059762485, -0.08772563, -0.11045543, -0.24574956, -0.24370271, -0.2278965, -0.30443853, -0.6538417, -0.2117932, -0.15572478, -0.1804996, -0.16077325, -0.13307668, -0.22169834, -0.3752381, -0.3684429, -0.39352185, -0.22180735, -0.6994347, 0.33912304, 0.19187623, 0.045256007, 0.038574077, 0.15534252, 0.029784186, 0.026089864, 0.012297231, 0.04400983, -0.020369012, -0.11251466, -0.07069248, -0.10308131, -0.028975705, 0.053978, -0.077761546, -0.1548219, -0.24379599, -0.33504653, -0.07779271, -0.039213736, -0.09804077, -0.055694416, 0.0094148135, -0.1059858, 0.060927052, 0.056667212, 0.054561447, 0.017765261, 0.004556126, 0.07314692, 0.032586407, 0.008816733, 0.026274277, -0.07316717, 0.037934814, -0.08722838, -0.019948404, -0.10485383, 0.010129873, 0.04401094, -0.08680041, -0.12682779, -0.09619816, 0.042931683, 0.0625406, -0.051886316, 0.038053155, 0.14277568, -0.03517926}, {0.22346671, 0.07128519, 0.12394388, 0.13593848, 0.14372781, 0.11904861, 0.10280122, 0.037288312, 0.009970184, -0.034068126, 0.015228656, -0.011721987, 0.01758465, 0.014695669, 0.0051254043, 0.07364297, 0.06618528, 0.12047722, 0.056535807, 0.013349227, -0.043047763, -0.05043024, -0.10059459, 0.03240411, 0.03149578, 0.1933871, 0.10439854, -0.12877478, -0.08343085, -0.08442191, -0.07319751, -0.0007220655, -0.07070824, -0.0788979, -0.21481359, -0.15714441, -0.1482246, -0.08147286, -0.31963882, -0.27087894, -0.05559428, -0.12786031, -0.064212434, -0.0148234125, -0.0052935737, -0.072693974, -0.07729496, -0.06481302, -0.23567492, -0.25970727, 0.033291392, 0.08723384, -0.008668507, 0.036324237, -0.015878674, -0.02233618, -0.024588652, -0.037973084, -0.0090563055, -0.006663451, -0.039331477, 0.035074953, -0.012488671, -0.080749206, -0.00036690955, -0.022242213, 0.023344174, 0.025151305, 0.049737882, -0.023470525, 0.0044127335, 0.055629987, -0.062121104, 0.038140927, 0.018375799, -0.012775843, -0.02096985, 0.09251439, 0.025868699, -0.017508224, 0.024063362, -0.10190201, -0.25479966, -0.27072182, -0.33371764, -0.34744814, -0.31084183, -0.47486928, -0.5052472, -0.78581625, -0.14430793, -0.25990993, -0.17058387, -0.36849365, -0.32461795, -0.58595973, -0.5985085, -0.71464914, -0.4843701, -0.56886315, 0.01654122, 0.038448054, 0.1050051, 0.054052155, 0.076298565, 0.086189315, -0.0073969127, -0.008095396, 0.039998144, -0.02878553, -0.0070671383, 0.02464601, -0.044702422, 0.035847355, 0.038812134, 0.025618322, 0.0069802264, 0.050799005, -0.117944084, -0.22533548, -0.3431161, -0.3255308, -0.20288128, -0.074637875, -0.050998412, 0.09636238, 0.043611392, 0.07172268, 0.044311963, -0.00936746, -0.0011800462, -0.0131464945, -0.04217567, -0.073883414, -0.051262226, -0.0096396115, 0.026333846, 0.013165597, 0.0015433617, -0.0021065862, 0.09335407, 0.11987947, 0.1335522, 0.12613109, 0.023263944, -0.02141061, -0.068617076, -0.03435537, 0.04551926, 0.116567485}, {-0.121128276, 0.10323592, -0.029390207, -0.037656955, 0.011756644, 0.0035928618, 0.0033777799, 0.079328105, -0.05423908, 0.04604302, 0.06933024, -0.0005259378, -0.0022666012, 0.04323113, 0.06299162, 0.06412304, 0.07575436, -0.018759552, 0.02125588, 0.0013562795, -0.04317746, 0.02947755, -0.027708951, 0.03662142, 0.0045525692, 0.13546829, 0.026693726, 0.011525166, 0.0130798435, 0.07566715, 0.062026486, 0.030780446, 0.060054053, 0.010633023, 0.10367623, 0.08925156, 0.124278866, 0.12524182, 0.023470594, -0.008887146, 0.06331101, 0.09562165, 0.09784498, 0.014078581, -0.0646491, -0.0030275406, 0.023826601, 0.115135044, 0.07355068, 0.12256716, 0.054034106, 0.108249925, -0.036819596, 0.053444043, 0.052900486, -0.019257888, 0.06957054, -0.06983803, 0.06792915, 0.076840885, 0.122248575, 0.097846664, 0.049378768, 0.096694306, 0.117392324, -0.021712586, 0.09810548, 0.03257779, 0.027551966, 0.007053646, 0.057328764, -0.024002468, -0.019998066, 0.079606555, -0.020443143, -0.025433082, 0.10481553, 0.053811498, 0.08464711, -0.030606778, -0.023878638, 0.08359232, 0.0128901545, -0.023092926, -0.11629132, 0.12965608, 0.093843594, -0.022507984, -0.0019261927, 0.026814416, 0.04329365, 0.0061971964, 0.105774395, -0.018687706, 0.021700125, -0.050658863, -0.021621857, -0.032531645, 0.07489222, 0.09885163, 0.010763025, 0.11360554, 0.13937016, 0.08572457, 0.071713895, 0.062118508, 0.0632065, 0.09450328, 0.082618125, 0.054612402, 0.07062375, 0.08916574, -0.043551322, 0.09885148, 0.09258198, 0.118293956, 0.015479786, -0.002717091, 0.08050196, 0.05182991, 0.11785712, 0.12489157, 0.028782694, 0.10109326, 0.043832988, 0.031598214, -0.008882695, 0.071668446, 0.082285106, 0.0673253, 0.094725184, 0.050278645, 0.010187676, 0.10433269, 0.052812047, 0.0858859, 0.01158205, -0.016082611, -0.046888776, 0.111913726, 0.025937745, 0.047354203, 0.037242386, -0.019946596, 0.024593966, 0.015207627, -0.013113834, 0.08718447, 0.06002921, 0.05531689}, {0.0048211063, -0.110577956, -0.054954365, 0.04350509, 0.042341076, 0.0064476207, -0.0274298, -0.14009842, -0.09843407, -0.0038797508, -0.06992515, 0.1170224, 0.18523757, 0.068829924, 0.09619648, 0.008027084, 0.046525676, 0.01613065, -0.031957213, -0.026323425, 1.6300515e-05, 0.059610315, 0.13137077, 0.0961316, 0.16222341, -0.34684736, -0.6633972, -0.396797, -0.32752725, -0.24583237, -0.097537234, -0.15264785, -0.21229069, -0.27039355, -0.035543546, -0.014087107, -0.010379288, -0.022416877, 0.014442186, 0.07446261, 0.086627565, 0.06039603, 0.100454606, 0.10062792, 0.1393619, 0.24044232, 0.15869571, 0.0670493, 0.122651555, 0.069934726, -0.13644482, -0.20599292, -0.13003305, -0.04633799, 0.010959746, 0.019040661, -0.09363607, -0.108848244, -0.100428514, -0.038896542, 0.022663886, 0.079158865, 0.14496787, 0.10523363, 0.013314978, 0.03373772, 0.0010849538, 0.046097454, 5.360307e-05, 0.10528154, 0.111234196, 0.18825014, 0.123816915, 0.10600746, 0.20367375, -0.36355415, -0.3292809, -0.44687763, -0.2529616, -0.19451858, -0.3838336, -0.39924848, -0.5111013, -0.3946685, -0.51429015, -0.46719122, -0.2556398, -0.089615345, -0.111902766, -0.047932852, 0.049834665, 0.019139722, 0.025311202, -0.0018287309, 0.040428776, -0.0701196, 0.086922415, 0.11267376, 0.06281234, 0.22356501, -0.0072381105, -0.0036201214, 0.012167632, 0.119970776, 0.11686375, 0.042737614, -0.005874764, 0.005278346, 0.04945989, 0.03449554, -0.004230592, 0.024912184, 0.01525233, -0.0051959646, 0.012307318, 0.03693859, 0.042489745, 0.02827149, -0.06940759, -0.024654215, -0.09425378, 0.00017706542, -0.029670741, 0.031070767, 0.17904082, 0.20363465, 0.03345267, 0.0068046143, 0.07571162, 0.102907434, 0.10373237, 0.0602847, -0.13124864, -0.14161643, 0.03227927, 0.0735701, 0.14970037, 0.18260641, 0.02883897, -0.012278644, -0.05146407, -0.028334625, -0.035678014, -0.021192687, 0.0149271805, -0.010640908, 0.002120214, 0.02481705, 0.051137615, 0.02951299}, {-0.06741841, 0.02245152, -0.00036793717, 0.041174676, -0.0063035144, 0.06062775, 0.035777677, 0.05688752, 0.07388034, 0.09034766, 0.06696476, 0.011077622, -0.00038987148, -0.034157377, -0.0006313523, -0.06423923, -0.09989877, -0.15320447, -0.13414344, -0.057436872, -0.035465747, 0.15721472, 0.19472264, 0.11690597, 0.009441361, 0.15597868, 0.26546788, 0.065167576, -0.0072356258, 0.018969333, -0.01512519, -0.053940237, -0.09874751, -0.14495519, -0.16138509, -0.32460847, -0.08003356, 0.05515786, 0.09725349, 0.050284375, 0.0065131453, 0.010335289, 0.019420119, 0.03940203, 0.18188569, 0.1841905, 0.14330402, 0.004214611, -0.32479522, -0.35787073, 0.11980078, 0.18240254, 0.1658127, 0.022503566, 0.081926264, 0.11132338, 0.069034114, 0.001274865, -0.086108066, -0.15455334, -0.19524558, -0.058768157, 0.0032845505, -0.055018708, 0.022579497, -0.00689584, -0.029260943, -0.09434944, -0.063738115, 0.098606385, 0.25982755, 0.30379543, 0.0656198, -0.086290754, -0.25221926, -0.28008178, -0.114461936, -0.07350842, -0.12918076, -0.13600026, -0.07125482, 0.026062218, -0.07269534, -0.20054081, -0.19323583, -0.12807989, 0.030765953, 0.1621538, 0.16464566, 0.11784432, 0.12218778, 0.09650189, -0.061106194, -0.1369418, -0.101110026, -0.16871557, 0.0781451, 0.0945586, -0.14135663, -0.3278821, -0.27826247, -0.21902889, -0.06367015, -0.077642605, -0.01796018, -0.028249664, -0.07531908, -0.07704207, -0.04395691, 0.11158029, 0.09575593, -0.035790965, -0.1886694, -0.313133, -0.15912947, -0.06765325, -0.120742686, -0.15838897, 0.023819681, -0.19891126, -0.13003118, 0.014595097, 0.18254231, 0.30769536, 0.20287928, -0.05356753, -0.11662892, -0.0020824242, -0.052609794, 0.04030639, 0.020227553, 0.1398853, 0.16901523, 0.10652868, 0.115211606, 0.1194893, 0.15856704, 0.12081433, -0.024559144, -0.20418699, -0.29358256, -0.26227266, -0.23786204, -0.22539933, -0.2212061, -0.085281186, 0.059675027, 0.2253167, 0.36899468, 0.23886962}, {0.24641177, 0.28594846, 0.036444876, 0.097104, -0.00023587569, 0.014822575, -0.060495086, -0.058839977, 0.003639834, -0.07407439, -0.10892249, 0.08409382, 0.07731531, -0.01236351, -0.13700974, -0.010002368, -0.0038664057, 0.044707667, -0.05907258, -0.1444194, -0.1685163, -0.021566268, -0.0069876537, -0.003351447, -0.0106339175, 0.26987606, 0.18770698, -0.06256776, -0.108078025, -0.10311458, -0.058274, 0.036635406, 0.008947863, 0.019801697, 0.033015512, 0.12249956, 0.06695364, 0.020796997, -0.15835421, -0.23487784, -0.024539333, -0.011961982, 0.041834094, 0.050867137, -0.031658642, 0.042522416, 0.17971979, 0.05218248, 0.13196954, 0.10077075, 0.1688883, 0.14477071, 0.015308585, 0.05630242, 0.0007372192, 0.04438481, -0.050735652, -0.0011477447, 0.03328906, -0.010520932, 0.0798556, 0.057158515, 0.02264664, -0.05201438, -0.042587403, -0.01824337, -0.038028218, 0.01754584, -0.028601078, 0.018381516, 0.12166577, 0.14575309, 0.07901667, 0.042837333, -0.02095387, 0.32545385, 0.34002385, 0.09796477, 0.19855542, 0.13579488, 0.09914424, -0.017823648, -0.11611637, -0.22063684, -0.12203002, -0.01776903, 0.07055269, 0.13151564, -0.0936118, -0.48984122, -0.16037843, -0.10499451, -0.015934158, -0.12764747, -0.2475033, -0.6109813, -0.07598129, -0.23114404, -0.22869338, -0.13091931, 0.24096945, 0.17086707, 0.19346537, 0.103494704, 0.0894367, 0.12763306, 0.11085793, 0.05596212, -0.02402401, -0.067288205, -0.13226566, 0.016982194, -0.096880965, -0.052926347, -0.027842978, -0.02179388, -0.092446834, -0.0012228596, -0.19685262, -0.2614282, -0.39562398, -0.31067565, -0.20538111, -0.04668347, -0.10989735, 0.09129214, 0.22083728, 0.04798247, 0.015844356, 0.02853653, -0.015926337, -0.01602719, -0.10303734, -0.008901422, -0.026792197, -0.051585414, 0.025776807, 0.093144, 0.10208084, -0.09241273, 0.006464825, -0.04089536, -0.033803463, 0.0103486115, -0.04114337, -0.048287496, 0.029927947, 0.069167644, 0.03127355, 0.054535333}, {0.15734977, 0.0075448034, 0.10803457, 0.0821244, 0.016464457, 0.055228263, 0.002039412, -0.01889498, 0.08453163, 0.041072406, 0.09690338, 0.050108783, 0.03813215, 0.0287763, -0.043227345, 0.118339896, 0.058982406, 0.06820415, 0.030381002, -0.05364562, -0.001275025, 0.090741545, 0.088925324, 0.040447555, 0.09866188, -0.014128806, -0.07962933, -0.058115028, -0.08090977, -0.1144051, -0.044024616, -0.044612803, -0.07806364, -0.12899484, -0.2603432, -0.3138071, -0.16395818, -0.12178086, -0.27804333, -0.30496326, -0.24191529, -0.17700113, -0.26424932, -0.13095436, -0.108930334, -0.14665876, -0.16421923, -0.20631322, -0.14273949, -0.10786267, -0.09636993, -0.047466252, 0.043848522, 0.0012499877, -0.01258625, -0.012432635, 0.04121634, -0.01782212, -0.013349484, -0.07259751, -0.03664366, 0.006798596, -0.012689849, -0.008584112, -0.04227007, 0.04278092, -0.013020654, -0.009736516, 0.016513536, -0.007188134, 0.055021994, 0.017705759, 0.06357925, 0.017989326, 0.08196672, 0.030969312, 0.023299294, 0.05531914, -0.011523548, 0.05148699, -0.02810441, 0.040970277, -0.11702831, -0.16071199, -0.24060407, -0.17649318, -0.20435835, -0.43866107, -0.45749378, -0.6729573, -0.2192122, -0.24022867, -0.37607977, -0.69321346, -0.5940819, -0.564552, -0.54353577, -0.466728, -0.32631046, -0.23853445, 0.1970689, 0.11344954, 0.041564696, 0.035306267, 0.0082145715, -0.016819704, 0.02942304, 0.109762765, 0.16359064, 0.09187808, 0.012040129, 0.09792067, -0.10468355, -0.1207076, -0.14223102, -0.08135871, -0.08194865, -0.15289982, -0.20854883, -0.28610924, -0.32012746, -0.055511575, -0.070730604, -0.14452492, -0.16780527, 0.10305985, -0.10200699, -0.004616719, 0.09117936, 0.051438317, 0.011523748, -0.074597515, -0.018177614, 0.044933006, 0.11440373, 0.092918105, 0.109738246, 0.08498324, -0.0040345676, 0.013939596, 0.09692643, 0.14846458, 0.09350102, 0.083869405, 0.000966588, 0.077022046, 0.08580354, 0.0739202, 0.1565583, 0.07324228}, {0.0504873, -0.08905924, 0.04843025, 0.017691795, 0.016666135, -0.028911531, -0.044690438, -0.038057555, 0.04713013, -0.012723324, -0.09330032, -0.14777358, 0.074573085, 0.044588108, -0.0651609, -0.014529555, -0.049664795, -0.037096746, -0.104134895, 0.0030375163, 0.049187846, -0.122392096, 0.043733448, 0.12509705, 0.13566379, -0.24607132, -0.25825325, -0.13946758, -0.104684845, -0.027660837, -0.008418391, 0.1754436, 0.32293332, 0.28643942, 0.09397419, 0.029569168, 0.056838278, 0.10912848, -0.009660281, -0.02299555, -0.40514317, -0.3500065, -0.33536798, -0.1835386, -0.012876932, -0.066666655, -0.037619386, 0.14187422, 0.23886858, 0.196623, -0.13634391, -0.083811805, -0.08302074, -0.0655405, -0.021905974, -0.035837047, -0.027643114, 0.10754061, 0.18937078, 0.044827595, -0.02012031, 0.015006687, -0.012308746, -0.0023659538, -0.21385902, -0.24509653, -0.24997154, -0.22702879, -0.16909982, -0.11866285, -0.05942428, 0.028692199, 0.10820234, 0.14183658, 0.2053019, 0.31030232, -0.040127687, 0.037097096, 0.03316475, 0.047405805, -0.10624805, -0.077112444, -0.042116318, 0.033213355, -0.019161226, -0.3452996, -0.31678352, -0.17981435, -0.0016760208, 0.068668835, -0.021134704, -0.056052912, -0.17004526, -0.04839508, -0.14361097, 0.19732593, -0.11962921, 0.13827854, 0.07765798, 0.04568683, 0.2381371, 0.14908469, -0.015306838, 0.038442735, 0.003353392, -0.038815178, -0.028375769, 0.016668161, 0.014672905, -0.1120006, -0.13184747, -0.028814819, 0.052533492, 0.14427607, 0.15849896, 0.044655897, 0.05227875, -0.043229282, -0.13083288, -0.03409579, 0.12051117, -0.11890071, -0.29955962, -0.30628672, -0.12681329, 0.09376856, -0.0030750723, 0.10743634, 0.111561194, 0.13393354, 0.096586816, -0.007070019, -0.038712356, 0.048767135, 0.0002965333, -0.092405066, -0.14466988, -0.05409527, 0.023594959, 0.000104869025, 0.0851884, 0.0334938, 0.07196819, -0.0070476853, -0.003970246, 0.00377695, -0.034669794, -0.036749527, -0.05973417, -0.11361984}, {0.1676376, -0.010237494, 0.030793749, 0.021562615, 0.005263732, 0.028244004, -0.06736923, -0.08032625, 0.057029963, 0.033102747, -0.09706024, -0.056205958, 0.0972808, 0.16244717, 0.1477615, 0.05612885, 0.05673132, 0.016784787, 0.079025194, 0.010227989, 0.050771028, 0.022910077, -0.07997239, -0.072180584, 0.021434383, -0.13051398, -0.05980714, 0.008501191, 0.1441912, 0.124126114, 0.019656299, -0.07567342, 0.04028793, 0.13592385, 0.03073594, -0.013065415, -0.08256368, 0.05759712, 0.028855663, -0.04587072, 0.02368314, -0.041063398, -0.060180716, -0.073882766, -0.049628094, -0.019392552, -0.17250027, -0.12014926, 0.002602789, -0.032411885, -0.0024431157, -0.034372423, 0.01049688, 0.023263896, 0.026009247, -0.018713113, -0.1740407, -0.08108267, 0.037588235, -0.10099986, -0.09981265, -0.0048878235, 0.07104259, 0.1374663, 0.026617758, 0.04419514, 0.027042946, 0.025083404, 0.03624787, 0.005227816, -0.011837039, -0.10092018, -0.10436593, 0.00018292073, -0.027446905, 0.12614597, -0.10651825, -0.05259637, -0.061149355, -0.022481693, -0.0630093, -0.30239606, -0.034902547, 0.061727446, 0.18092205, -0.00038539272, -0.044915177, 0.09456678, -0.070091665, 0.02228854, -0.099304296, -0.0877962, -0.021261098, -0.034159914, -0.1180806, 0.0099947555, -0.04136073, -0.13147156, 0.060149316, 0.010532413, 0.11074786, -0.06870333, -0.08349222, -0.086381674, -0.07744825, -0.06431728, -0.057267018, -0.060361784, -0.017718818, 0.04906985, 0.017115278, 0.10184626, 0.09648425, 0.12311103, 0.084374614, 0.089130126, 0.08379771, 0.08827074, 0.020396871, 0.035875022, -0.07239192, -0.0381959, -0.04739413, -0.14335388, -0.1535704, 0.15445478, 0.09749932, -0.07923251, -0.0533835, -0.1098913, -0.02400959, -0.06826703, -0.18605226, -0.11299012, -0.056195356, -0.047841154, -0.056451082, 0.114434004, 0.16719161, 0.18641376, 0.19214018, 0.13294858, 0.08646626, 0.033243947, 0.10931083, 0.17271431, 0.14543368, -0.08885889, -0.11697601, -0.11812025}, {0.08656376, 0.035490654, -0.07123558, 0.058136232, 0.061366238, -0.014852055, 0.048801165, 0.034222066, 0.041559823, -0.014019214, -0.17736581, -0.143182, 0.027367428, -0.060724862, -0.008801508, 0.051725842, 0.04047608, -0.017160403, -0.043105792, -0.033879213, 0.011965899, 0.020945316, 0.045689564, 0.038898434, 0.037865937, 0.17624873, -0.16184211, -0.12572466, -0.08328091, -0.03473524, 0.04207929, -0.022566758, 0.03608057, 0.045674637, 0.080295816, 0.06181344, 0.049484037, -0.08055321, -0.17381653, 0.07502586, 0.14337239, 0.06816906, 0.13607444, 0.06456564, -0.006746622, -0.0486124, -0.040074266, -0.04458924, -0.17107482, -0.2752994, -0.03724192, -0.07023141, 0.0027300362, -0.02370466, -0.02470595, 0.015908709, 0.051008984, 0.079882815, 0.08409468, 0.10332748, -0.020286897, -0.00029250604, -0.031088307, -0.08310395, 0.093155526, 0.07147131, 0.106923446, 0.105925165, 0.006643147, 0.014487589, -0.006816822, 0.023671586, -0.033354755, -0.0038344364, 0.005928841, -0.45170596, -0.11215129, -0.58676744, -0.3457629, -0.2913736, -0.4263193, -0.42502758, -0.41196585, -0.26524043, -0.37528175, -0.58016485, -0.4790891, -0.50420904, -0.5833396, -0.28588882, -0.0023003526, -0.09379148, -0.073812865, -0.09577224, -0.08265483, -0.20485789, -0.18334377, -0.26172176, -0.061300788, -0.3386437, 0.07762044, 0.0036830076, -0.019038599, 0.084166236, 0.014790803, 0.095830515, -0.06060499, -0.029504338, -0.0039122137, -0.029205408, -0.11204161, -0.05474396, 0.049313195, 0.03507209, 0.035024323, -0.040284272, -0.07506984, -0.043560505, -0.24694063, -0.013005867, -0.013747384, -0.024607241, 0.017974995, 0.0076659815, 0.004186065, 0.016697377, 0.008140788, -0.052239858, 0.10758896, 0.058166686, 0.122989394, 0.12706897, -0.0062204176, 0.07262276, 0.074852236, -0.061731398, -0.04515587, 0.032418806, -0.0123321, -0.083948836, 0.06269535, 0.031334337, 0.009479755, -0.016432365, -0.06836321, 0.043330207, 0.013234126, -0.0443899, 0.031267416, 0.06911257}, {0.027952636, 0.13618256, 0.1335541, 0.032545567, 0.042191617, 0.03840633, 0.1068255, 0.13113813, -0.01869372, -0.12359358, -0.3449664, -0.29999948, -0.10699036, -0.13494036, -0.07771212, 0.06997343, 0.05944269, 0.065561324, 0.08730947, 0.16087155, 0.22996613, 0.1133699, 0.103051715, -0.049906697, -0.07611687, -0.14609115, 0.0714736, 0.077405825, 0.058340687, 0.082308784, 0.08485326, 0.07336476, 0.0725726, 0.1515452, -0.10931343, 0.023026722, 0.02153932, -0.091695026, -0.14927569, -0.116613515, -0.04426918, -0.037420977, -0.07863165, -0.018744871, 0.07061049, 0.13237748, 0.08258484, -0.061750103, -0.22905535, -0.21227843, 0.058263313, 0.1315709, 0.12707846, 0.07977214, 0.12085992, 0.06830011, 0.15995708, 0.07648179, -0.07033079, -0.3328818, -0.41177166, -0.16367182, -0.13787585, -0.09550319, 0.024651412, 0.009976865, 0.023078596, 0.06480387, 0.1895682, 0.20342256, 0.19387229, 0.113281794, 0.017582841, -0.074344456, -0.1315428, -0.017307533, -0.044423193, 0.16161662, 0.17332052, 0.12935372, 0.17293988, 0.023575896, 0.1606687, 0.11395432, -0.06796867, -0.07131601, -0.09992077, 0.10677736, 0.090120874, -0.09061439, 0.01885511, -0.024700562, -0.0059466544, 0.086163335, 0.18560804, 0.23124464, 0.057699256, -0.01994263, -0.33649066, -0.36367822, 0.0077266013, 0.004068625, 0.093214236, 0.06359747, 0.03796218, 0.11069581, 0.052771546, -0.086118974, -0.08636469, -0.15283985, -0.1965294, -0.1456306, -0.50807047, -0.12372767, -0.0656319, 0.07199383, -0.0034123024, 0.016866786, 0.034049757, -0.08021639, 0.015086859, 0.08137597, 0.02620484, -0.044777595, -0.07265912, -0.08231671, 0.061893605, 0.08967749, -0.02510796, -0.043661527, 0.023210017, 0.002142208, 0.018487176, -0.034550447, -0.11278331, -0.16647545, -0.25802672, -0.099783294, -0.16141951, -0.09697887, 0.16416712, 0.10989357, 0.120832235, 0.14806852, 0.08562119, 0.12242762, 0.034701925, 0.10170147, 0.13983057, 0.014222559}, {-0.00908921, 0.15339863, 0.05559304, 0.115384035, 0.07038691, 0.09812143, 0.056086313, 0.027209612, -0.009317067, 0.13753541, 0.051534746, -0.18788727, -0.2884643, -0.3595755, -0.2360541, 0.036718223, 0.00249725, 0.042942565, 0.04735413, -0.011973361, 0.0497755, 0.07130451, 0.09869859, 0.0069702063, 0.016610676, -0.0032196778, 0.11872747, 0.07357262, 0.019702904, -0.0052866973, -0.076849855, -0.16801065, -0.1297303, 0.027745925, 0.18877855, -0.06397033, -0.1463644, -0.06891093, -0.1204555, 0.036258798, -0.046954732, -0.059819806, -0.093192436, -0.08226076, -0.08064449, 0.028475987, 0.15374596, -0.16628666, -0.20357174, -0.13554089, 0.11320837, 0.12736711, 0.053007457, 0.0020401198, -0.014609524, 0.06985308, 0.053538997, 0.013613477, 0.051628176, 0.09578628, -0.06511948, -0.1534156, -0.31036893, -0.08470657, -0.047314107, 0.06298445, -0.0062173586, 0.023193931, 0.047941018, 0.09457252, 0.06469488, 0.10335911, -0.029017774, -0.030820169, 0.0029294712, -0.09582675, -0.101702526, 0.019186312, 0.054598175, 0.11314276, 0.16446494, 0.17681634, 0.047216043, -0.013910801, 0.07099984, 0.25522754, -0.13138515, -0.02226723, -0.10153951, -0.27838695, 0.055992704, 0.013881695, 0.017915186, 0.059737068, 0.082665846, 0.09836803, 0.13915835, 0.10339528, -0.123016186, -0.13437298, -0.21618806, 0.012510966, 0.14038599, 0.1433211, 0.1824755, 0.22422175, 0.1485959, 0.00651727, -0.05775621, 0.029986482, 0.07488769, -0.20797184, -0.32057476, -0.66333055, -0.23364705, 0.03170159, -0.010581133, 0.045606095, 0.03273529, 0.02243587, 0.08648927, 0.123836584, 0.09709836, 0.031039696, -0.019506872, -0.16671607, 0.026589062, 0.121514566, 0.005515577, 0.017392023, -0.00539747, 0.086706415, 0.012923102, -0.06177892, 0.038188085, -0.0015236026, -0.11177707, -0.33247605, -0.3391123, -0.25084448, 0.09967133, 0.12394434, 0.06745045, 0.085484445, 0.03296421, -0.02984611, 0.03048595, 0.050836693, 0.15067907, 0.14353152}, {-0.10575737, -0.085517704, -0.09658497, -0.0643376, -0.040577248, 0.0278598, 0.102474466, -0.035423603, 0.01335859, 0.09086107, 0.18203706, 0.23192686, -0.016983079, -0.19506529, -0.067757115, -0.04664207, -0.047943536, 0.032130867, 0.018239675, -0.10089686, -0.17917885, -0.09675624, -0.029414842, 0.18756221, 0.08950504, 0.1571943, 0.07911929, 0.1080242, 0.07357509, 0.01493263, -0.048925802, -0.06375037, -0.18430984, 0.010335547, 0.17845255, 0.13159356, -0.00036168087, -0.22175671, -0.16206186, -0.028699711, 0.1231949, 0.06592247, 0.109631084, 0.09635294, -0.04600777, 0.0637556, 0.041543704, 0.08664203, 0.12642655, -0.04481454, -0.05199208, -0.035047002, 0.045842513, 0.055010628, 0.04506987, -0.017884616, -0.04190186, -0.001672019, -0.009919262, 0.11817751, 0.14338279, -0.01290625, -0.098972, -0.10271675, -0.00025974953, 0.041813165, 0.009984543, 0.04674467, -0.0040442543, -0.11939902, -0.04497667, -0.06435018, -0.020248974, 0.08237773, 0.08111233, -0.16043101, -0.2715702, -0.14986219, -0.038436435, -0.06722845, -0.05112034, -0.036712714, -0.03267605, -0.12366795, 0.08180783, 0.23873048, 0.16609049, 0.1438995, -0.2653219, -0.22551733, -0.035044696, 0.044928707, 0.045703556, 0.034333806, -0.16609278, -0.3164944, -0.15330914, -0.0055120103, 0.10480328, 0.08269306, -0.11464432, -0.24026473, -0.18822509, -0.16997367, -0.0753559, -0.007638937, 0.16107015, 0.13434552, 0.10787701, 0.17405502, 0.07881474, 0.068285994, 0.061991323, -0.3184923, -0.20827807, -0.08051067, -0.122403495, -0.04518065, 0.036306847, 0.02209184, -0.15295142, -0.05032977, 0.11322412, 0.25440496, 0.34164932, 0.1466132, -0.074491784, -0.2105084, -0.12854391, -0.09943155, -0.029693559, 0.008212086, 0.031863153, 0.047217622, 0.09723212, 0.18315169, 0.23894599, 0.21457686, 0.12106485, 0.025922801, 0.021187985, 0.011635934, 0.0044995053, 0.11004482, -0.07956114, -0.17093354, -0.22079706, -0.19940141, 0.007875886, 0.17598084}, {0.06679297, -0.15156151, 0.0013813081, 0.105173595, 0.10032297, -0.036777716, -0.058788043, 0.066032715, 0.013166584, 0.0047635594, -0.05724204, -0.036117822, -0.01766352, -0.033366747, -0.12822989, -0.047784124, -0.067810565, -0.08944992, -0.088027775, -0.0933588, -0.012128003, 0.006630877, 0.13542877, 0.20209362, 0.14366056, -0.15041015, -0.13708979, -0.06023171, -0.031207774, 0.040583912, 0.17361505, 0.18431026, 0.25773957, 0.19121665, 0.034104895, 0.04912899, 0.10393113, 0.1072444, -0.0025297285, -0.0090015875, -0.41727266, -0.36260366, -0.40748632, -0.35751912, -0.15860884, -0.05255525, 0.100020364, 0.14771126, 0.14574912, 0.18042274, -0.20990458, -0.10502927, 0.0083759995, 0.03481596, 0.052588053, 0.072620496, 0.06363835, 0.1769509, 0.17000982, 0.08583242, 0.056555904, 0.009065461, -0.011494372, -0.20840828, -0.20913959, -0.2585572, -0.29614764, -0.25420055, -0.28717566, -0.15066698, -0.019309064, 0.08297503, 0.18029448, 0.22846738, 0.17960188, 0.0984432, -0.20764758, -0.06765663, -0.06597536, 0.013586, -0.06139159, -0.14611623, 0.028389936, 0.039153602, -0.044342153, -0.13931468, -0.25268975, -0.13058703, 0.009355083, -0.13948452, -0.10811629, -0.20356451, -0.28475466, -0.03214064, -0.2571278, 0.11525969, -0.12725645, 0.07814794, 0.13131863, 0.1469287, 0.15066732, 0.08718598, -0.07980415, 0.05682176, 0.0063016927, -0.08665978, -0.05750943, 0.014457187, 0.011215719, -0.24562192, -0.1423496, 0.035742577, 0.06720274, 0.10102704, 0.017684491, 0.010702471, 0.058107592, -0.0071637533, -0.1901955, -0.07371434, -0.047669705, -0.106547214, -0.034853805, -0.11888775, -0.052073367, 0.14894941, -0.15143405, 0.068862274, 0.10367553, 0.08051982, 0.045698844, 0.044703104, -0.057130974, 0.06136995, 0.06611205, 0.006604229, -0.115135655, -0.02913424, -0.11649853, -0.011260436, 0.076774135, 0.04961796, 0.03718801, 0.007839241, -0.06568986, -0.0032412882, -0.023980396, -0.026634168, 0.07424195, 0.028501406}, {-0.10891477, 0.08521812, 0.06461593, -0.013570583, 0.046499476, -0.03574781, -0.01799254, -0.06833287, -0.08544296, -0.09338406, 0.04409234, -0.025368704, 0.08037019, 0.1603867, 0.0029541256, 0.064238355, 0.07449731, 0.0724864, 0.012741689, -4.9305512e-05, -0.02403259, 0.031915866, 0.06801908, 0.107823566, 0.10375859, 0.07078905, 0.24945445, 0.11741969, -0.010281865, -0.0028174175, -0.017906087, -0.13044956, -0.08576977, -0.09809601, -0.016638761, 0.03532403, -0.045785926, -0.0990353, -0.08338188, -0.3256163, -0.24334754, -0.3086127, -0.3761128, -0.16702896, -0.09077746, 0.0061469297, 0.02404736, 0.0045985486, 0.09857782, 0.08100658, 0.12289313, 0.20963645, 0.06814736, -0.019077282, 0.009957557, -0.034801524, -0.052801847, -0.046607483, 0.07062855, 0.03385132, 0.053697564, 0.023545574, 0.047903053, 0.03266106, -0.11122433, -0.01674847, -0.115462154, -0.10367472, -0.017324237, -0.0003218769, -0.0065174224, -0.054215528, -0.012135545, 0.116623595, 0.095580235, -0.66744703, -0.22618718, -0.019432543, 0.021984598, 0.03902265, -0.07058692, -0.19692743, -0.46599743, -0.5402495, -0.35749903, -0.09095644, -0.27454078, -0.2664634, -0.07573794, -0.19796039, -0.105525434, -0.10447927, -0.112951756, -0.24362513, -0.04707785, -0.10645043, -0.055162426, -0.09068194, -0.0012275613, 0.07735792, -0.5100008, -0.17559728, -0.09504941, -0.027175127, -0.024746988, -0.1556519, -0.018054262, 0.019865876, -0.22929169, -0.21335128, -0.16588847, -0.32005563, -0.17311652, 0.049749937, 0.10103406, 0.176534, 0.21328756, 0.16489446, 0.14714803, 0.041566636, 0.10943931, 0.19897678, 0.2251361, 0.38698038, 0.2736394, -0.1405654, 0.042732876, 0.07349124, -0.031037103, 0.043656886, 0.0048377104, 0.01733925, 0.014012173, -0.08354011, -0.077565715, 0.057932116, 0.07130828, 0.0053414963, 0.09603682, 0.07536294, 0.09612799, 0.095208295, 0.09711924, 0.048367757, -0.090660095, -0.07570299, -0.060113933, 0.043784652, 0.09644889, 0.07476516}, {0.029276604, 0.037625715, 0.08790989, 0.031239137, 0.07405292, 0.09441971, 0.092299506, 0.035234217, -0.014063127, 0.05046778, 0.18230395, 0.10634446, -0.13842091, -0.1850788, -0.06215779, 0.03992252, 0.015637193, 0.03655752, 0.0016930241, -0.11821978, -0.088701576, -0.025428904, 0.005843497, 0.0932355, 0.13575692, 0.008186138, 0.11269764, -0.03496811, -0.076723285, -0.053482823, -0.15172057, -0.23931791, -0.25545278, -0.22035767, -0.0029208523, 0.14394315, 0.08369047, -0.056431953, 0.0035830226, -0.028832365, -0.00533822, 0.024548357, 0.00481641, -0.018178249, -0.14613387, -0.063851774, 0.052974217, -0.034231555, -0.052775256, 0.054047767, 0.017736036, 0.09635104, -0.040025417, 0.009191698, -0.043715633, 0.024267774, 0.02678681, -0.106238075, -0.021317596, 0.034631226, 0.18698074, 0.08554056, -0.05259781, -0.12605956, 0.031234723, 0.0065214406, 0.029971918, 0.014350564, -0.06956953, -0.11964709, -0.050956987, -0.038253825, 0.0030881064, 0.10406404, 0.07585714, 0.028415743, -0.0066355453, -0.07378386, -0.02838433, -0.012327656, -0.022254767, 0.022841351, 0.09485473, -0.14648846, 0.06390385, 0.15945281, 0.1626836, -0.13645843, 0.016753035, -0.1757102, 0.12843218, 0.101897664, 0.0001481363, 0.08965493, 0.0020649265, 0.057555784, 0.07626714, 0.116587125, 0.022572735, 0.13899082, -0.2114799, 0.096420415, 0.08719791, 0.120538846, 0.105290726, 0.028900124, 0.0052278885, -0.009699592, 0.017752055, 0.002869969, -0.018229973, -0.055593777, -0.36016065, -0.58540773, -0.20085163, 0.029059721, -0.013934102, 0.047745824, 0.14532624, 0.12109497, 0.002123531, 0.05796717, 0.017962962, 0.00448948, 0.073279895, -0.2680635, 0.020729747, 0.07796957, 0.14547081, 0.09176548, 0.14836611, 0.11176818, 0.18568365, 0.09941508, 0.073645666, 0.066651806, 0.07887126, -0.15837692, -0.2949078, -0.30933025, -0.14392728, -0.14538352, -0.1444606, -0.10619163, -0.1146559, -0.04980264, 0.07414893, 0.052761607, 0.12293781, 0.13351142}, {0.23902291, 0.18663183, 0.06532173, 0.023656128, -0.020185025, 0.0907235, -0.040351823, -0.09184318, -0.021152744, -0.04879253, -0.16377306, -0.06256208, -0.034888916, 0.096003585, 0.08992738, 0.09245844, 0.086819775, 0.12396145, 0.14673634, 0.094916046, 0.074506335, -0.042249285, -0.06819474, -0.18065798, -0.19507457, 0.04815731, -0.034449484, 0.08093805, 0.08225611, 0.052404683, -0.03661261, -0.06644144, -0.020857966, 0.0071996073, -0.101272546, -0.053242262, -0.032424927, -0.06367954, 0.002987545, 0.12011358, 0.03918545, 0.0018557567, -0.0016524618, 0.045624148, 0.11484627, 0.10642015, -0.018958759, -0.1659743, -0.1824386, -0.06708936, 0.23828247, 0.10905045, 0.009183111, 0.07259182, -0.036568336, -0.012219449, -0.07895313, -0.08863664, -0.045104954, -0.11972319, -0.06875206, -0.023028107, 0.102174595, 0.1090037, 0.15889817, 0.08856317, 0.121094845, 0.122530214, 0.061113283, 0.10915742, 0.093064636, 0.033808462, -0.17777418, -0.17576066, -0.19115052, 0.3848247, 0.17412421, 0.069382474, 0.008315824, -0.033530574, 0.09561844, -0.09105067, 0.06261187, 0.026072446, 0.12428038, -0.0006120373, -0.032973554, 0.049256515, 0.009871356, 0.06984777, 0.07992813, 0.010803996, 0.08986594, 0.015834384, 0.09345548, 0.050324325, -0.046551082, -0.092172496, -0.19656041, -0.21621442, 0.2304165, 0.13459681, 0.026821015, 0.05764968, 0.054323968, 0.007931964, -0.10711439, -0.14825517, -0.120940566, -0.19101498, -0.1938984, -0.03117346, -0.10958087, 0.103237405, 0.09466647, 0.20741268, 0.15019847, 0.21170117, 0.21511549, 0.06641377, 0.0285371, -0.0021389616, -0.057991914, -0.11458286, -0.34935635, 0.08478102, 0.2259189, 0.02489349, -0.00708782, -0.048657995, -0.078681655, 0.020955289, -0.104076594, -0.026974328, -0.048557144, -0.03355384, -0.11440167, -0.06744251, 0.06375141, 0.08406029, 0.03239393, 0.08724579, 0.09805828, 0.046708904, 0.14536148, 0.14259285, 0.09826239, 0.052356537, -0.009643548, -0.14030798}, {0.2140319, 0.022791442, 0.13574298, 0.054585412, 0.13230638, 0.12944722, 0.08130644, 0.03467372, -0.060332205, -0.019147646, -0.01917638, 0.081837304, -0.0022906912, 0.02462696, 0.006046544, 0.016364006, -0.059835054, -0.016283194, -0.026598034, 0.007843821, 0.008881898, -0.022597171, -0.014783142, -0.0036963052, -0.031295694, 0.08043333, 0.10214168, 0.07057749, 0.018022733, 0.05294256, -0.012356916, 0.090222895, 0.127375, 0.121926375, 0.09264516, 0.11251161, 0.039592717, -0.010771577, -0.20228018, -0.19634388, 0.01314249, -0.027499627, -0.050924275, 0.024045374, -0.1313642, -0.09674063, 0.03363824, -0.009468313, 0.09034251, -0.15194343, 0.06673297, 0.073887065, 0.12950508, 0.08419807, 0.01613384, 0.040653545, 0.036786858, 0.11780043, 0.09429783, -0.004122282, 0.061062295, 0.027998822, 0.02173635, -0.0227429, 0.002363593, 0.010726222, -0.03336384, 0.014646071, 0.07476397, -0.047504563, -0.055779595, -0.05392353, 0.006968156, 0.0111044785, -0.035917234, 0.16036285, 0.16366109, 0.13324223, 0.021641925, 0.052598428, 0.07220796, -0.029380742, 0.0456204, -0.14097948, -0.01266055, -0.053300884, -0.023463504, -0.1312355, -0.20539786, -0.6435876, -0.43307605, -0.36705554, -0.33162254, -0.6722157, -0.58626175, -0.67737913, -0.55378413, -0.56403023, -0.21299732, -0.3773747, 0.20730814, 0.20900466, 0.07618415, 0.034882993, 0.046748683, 0.0019800325, -0.017782774, -0.035557542, 0.033450782, -0.028392524, 0.009674062, 0.060857322, -0.07625421, -0.03869908, -0.085040145, -0.048729513, -0.08796165, -0.13655394, -0.1048291, -0.12098471, -0.14363104, -0.03883994, -0.10232186, -0.08231183, 0.0039405227, 0.0890703, 0.05634496, 0.114569865, -0.0048446907, 0.022422189, 0.05842208, 0.05525333, 0.017288785, -0.053748798, -0.038489234, -0.08422228, -0.030650247, -0.060799133, 0.019798439, -0.06761204, -0.037381366, -0.01566287, 0.004578341, -0.022894023, 0.013894697, -0.080794275, 0.021044988, 0.08157608, 0.15392473, 0.18203013}, {-0.09460785, 0.04599925, 0.022098005, -0.0033940258, 0.05252578, 0.0033217974, 0.06761656, 0.097745195, 0.118735746, 0.121945985, 0.10211059, -0.006360534, -0.09079607, -0.03150615, -0.034482095, -0.058872234, 0.033550683, -0.035732057, 0.02477006, 0.01300506, 0.12326302, 0.039812125, 0.009569169, 0.03227248, -0.038057078, 0.16111699, 0.31237844, 0.21447216, 0.14574145, 0.18109971, 0.11585251, 0.17600071, 0.11946705, 0.057197325, 0.020212475, -0.011214599, -0.028313331, -0.10458975, -0.29042876, -0.26886758, -0.11378855, -0.07838382, -0.022212092, 0.023474917, -0.09029889, -0.39847037, -0.19762608, -0.10764217, -0.06814377, -0.1989737, 0.1648766, 0.154611, 0.15639468, 0.15257218, 0.12151935, 0.15632859, 0.099779345, 0.10164177, 0.08478666, 0.10212834, 0.060704634, -0.030542292, -0.044992592, -0.044829328, -0.010315051, -0.021756424, -0.03473157, -0.011962075, 0.026773898, -0.08355451, -0.14889875, -0.10966906, -0.066296816, -0.05951507, -0.026985293, -0.28673896, 0.09136306, 0.059569925, 0.016815368, 0.046939112, 0.0151260635, 0.077923544, -0.00046413424, -0.019078197, 0.120437674, -0.010367613, -0.1120465, -0.24427098, -0.23034747, -0.31417915, -0.15083387, -0.1691568, -0.1752666, -0.3623638, -0.15088123, -0.37362102, -0.38078907, -0.21095471, 0.0075623076, -0.34144032, -0.25329208, -0.16097617, -0.13001935, -0.045056272, 0.013307334, -0.122260034, -0.0035638993, -0.002281924, 0.0014933617, 0.0014054698, -0.02756741, -0.07811716, -0.024006432, 0.0035572276, 0.06621663, 0.06579452, 0.06236918, 0.0005730746, 0.04454269, 0.10544092, 0.20603204, 0.31835973, 0.2193344, 0.14855264, 0.1298073, -0.048048154, 0.015282497, 0.037985165, 0.014293488, 0.06786413, 0.047067482, 0.16395468, 0.122268416, 0.066739954, 0.02676367, 0.08389274, -0.11425523, -0.21133047, 0.0129475305, 0.035109524, 0.05324287, -0.014757161, -0.038851824, -0.033109985, -0.019282365, 0.017827265, 0.06682543, 0.09060753, 0.08168292, 0.17234382}, {-0.022475965, 0.06477963, -0.025437847, 0.049938176, -0.052726984, 0.040469687, -0.032665, 0.05903468, -0.03545763, 0.07005978, 0.0034258505, 0.049563468, 0.0039128917, -0.029595546, 0.0028690132, -0.022877092, 0.024503877, 0.07686503, 0.036544852, 0.0925157, -0.029834418, 0.0036951469, 0.027749393, -0.013722952, -0.032290835, 0.20227328, 0.1111872, 0.006200438, 0.01778223, 0.037743893, -0.011427638, 0.04180454, 0.0544214, 0.01453575, 0.0852685, 0.09792341, 0.044775806, 0.081189044, 0.1607886, -0.0071070134, 0.07016732, 0.0028991946, 0.03400921, 0.06308243, -0.053474344, 0.01777592, -0.043637358, 0.053914364, 0.14794093, 0.13401408, 0.041175317, -0.0066107064, -0.046555564, 0.0021199663, 0.0028247018, 0.08455966, -0.02650763, 0.057833288, 0.019213265, 0.0465733, 0.17917533, 0.103804626, 0.03483467, 8.517256e-06, 0.0364091, 0.061155442, 0.109750986, 0.012750596, 0.0074766143, -0.094167456, 0.039821833, 0.095266186, 0.08582757, -0.019580835, 0.0711279, -0.08109131, 0.15747593, 0.076648444, -0.04048843, 0.030106392, 0.046764724, -0.0048502116, 0.08188507, 0.05104943, 0.02506661, 0.06396417, 0.054090068, -0.057854004, 0.04889499, 0.008429726, 0.05637051, 0.062002275, 0.029401764, -0.0952738, 0.05337467, -0.03757435, -0.053059064, -0.071843594, 0.01754153, 0.036329664, -0.069058076, 0.0995167, 0.121033855, 0.0314353, 0.013447552, -0.002405904, 0.11660961, 0.074404195, 0.032439336, 0.023212975, 0.094600536, 0.09386242, 0.039221343, -0.006983845, 0.07617754, 0.029605396, 0.01283063, -0.00012037902, 0.01564569, 0.08482133, 0.042304695, 0.12573168, 0.17186533, 0.021091744, 0.089118026, -0.08367115, 0.023521246, 0.06019845, 0.029833453, 0.046564337, -0.009249103, 0.11401652, 0.044835065, 0.06250919, 0.054104205, 0.13894393, 0.096193165, 0.048282072, 0.007050967, 0.07896398, -0.037620258, 0.008759944, 0.0544644, -0.0031039517, 0.021265227, 0.09990689, 0.044984568, -0.056266967, 0.057197776, -0.09050629}, {0.055062566, 0.16924572, 0.14251247, 0.09886951, 0.11621346, 0.15390907, 0.003167239, -0.33982325, -0.23354112, 0.036790222, 0.027902156, -0.032027174, -0.014839467, 0.13775261, 0.089852184, 0.061346445, 0.14301364, 0.10826636, 0.13131581, 0.014184577, -0.045776412, -0.057871185, -0.08277569, -0.14843793, -0.02693358, 0.032654144, -0.05079145, -0.08345105, -0.05417997, -0.056712225, -0.25260815, -0.80411583, -0.7482864, -0.10151025, 0.03629819, 0.013232339, 0.078318626, 0.01218076, 0.043980177, 0.18714954, -0.02311951, -0.00054620195, 0.067255124, -0.056595437, -0.14132467, -0.07387068, -0.28746578, -0.26258847, -0.17827225, -0.0034953852, 0.1349741, 0.07474337, 0.06587882, 0.05969577, 0.044342566, -0.13253751, -0.50576675, -0.5581344, -0.05439245, 0.08233459, 0.01173658, 0.056532953, 0.09931107, 0.104565814, 0.14852712, 0.13833109, 0.14172435, 0.09827506, 0.045029957, -0.038702525, -0.12944965, -0.16148777, -0.1534824, -0.0154564865, -0.0109422095, 0.154768, 0.049427096, 0.08624328, 0.045354974, -0.0107937055, 0.025250098, -0.021393355, -0.3749618, -0.32431775, 0.28869396, -0.023239996, -0.032696895, -0.08459543, 0.021161836, 0.13584438, 0.03544559, 0.057142273, 0.09543225, 0.024141287, 0.047151636, -0.054690693, -0.023240902, -0.060495637, 0.006665544, -0.05816293, 0.031615432, 0.1016388, 0.01689398, -0.022777569, 0.054416932, 0.025989113, 0.08091416, -0.04792521, -0.087656416, -0.16937494, -0.10019731, -0.12311655, -0.018678976, 0.114151984, 0.035019577, 0.034312986, 0.0751319, 0.03985864, 0.1544915, 0.14460877, -0.013695685, 0.01836881, 0.0034629256, -0.22089046, -0.33812898, 0.08318213, 0.16490954, 0.15528227, 0.023655144, 0.0597107, 0.07372007, 0.025742417, -0.06056499, -0.21026216, -0.06366368, -0.06612715, -0.10740388, -0.060131293, 0.01511908, 0.13192688, 0.082936205, 0.021033842, 0.02332499, 0.056967005, 0.08698237, 0.0572755, 0.046803657, 0.07188309, -0.10893454, -0.063165285}, {-0.029076517, 0.043775745, 0.054924484, 0.040798705, 0.11694051, 0.07171645, 0.10302704, 0.070940904, 0.044066712, -0.0792168, -0.18390173, -0.12522173, 0.016538886, 0.0068619885, 0.044834618, -0.002539467, -0.05211526, -0.037601445, -0.12614772, -0.07161617, -0.0013463529, 0.09058233, 0.18475834, 0.02300395, -0.17080545, -0.029419642, 0.062155508, -0.03977896, -0.07287611, -0.060741607, -0.056356557, 0.101060085, 0.17656413, 0.07518515, -0.2205735, -0.235344, -0.056844734, 0.05402261, 0.12518446, 0.16335478, -0.045531474, -0.0309206, -0.070990905, -0.060353108, 0.016286768, 0.08149935, 0.20878589, 0.02819983, -0.14982946, -0.10488289, -0.030845053, 0.040148314, 0.030542728, 0.07080011, -0.008688212, 0.071763575, 0.09561344, 0.12844847, 0.0542038, -0.14143924, -0.24458493, 0.019763574, 0.1337928, 0.1408371, 0.030336997, -0.028189925, -0.06603044, -0.048161536, 0.012196773, 0.018710682, 0.099062786, 0.2025551, 0.16042697, -0.118316576, -0.19894369, -0.09580406, 0.06651629, 0.13746484, 0.13354531, 0.14566875, 0.035125196, 0.090976685, 0.05695804, 0.0027147643, -0.18787166, -0.19649564, -0.097971775, 0.094058126, 0.213864, 0.1492616, -0.03345556, -0.005882006, -0.024830617, -0.03488001, -0.10067119, 0.028732086, 0.119164735, 0.08328267, -0.09024789, -0.30701283, -0.23279068, -0.11031206, -0.022464657, -0.03580345, -0.042043533, -0.0683781, 0.05059816, 0.009442487, -0.022017853, -0.051868454, 0.09548937, 0.00045078353, -0.3112389, -0.32792765, 0.028880486, -0.042727996, 0.016121967, -0.08996687, -0.12800956, -0.26607692, -0.11760893, 0.10102814, 0.15977095, 0.13742787, -0.03763223, -0.14559765, -0.08618341, 0.037819616, 0.07978072, 0.057497725, 0.086971976, -0.032228716, 0.06213591, 0.07763827, 0.029598555, -0.04397379, -0.20688756, -0.039644547, -0.08353375, 0.1298729, 0.0029788725, 0.022538045, 0.05199041, -0.013631354, -0.055225007, -0.017163865, -0.004316389, 0.17152844, 0.18122636, -0.044251617}, {0.15808338, 0.032757793, -0.028350683, 0.03363122, 0.017247066, 0.05054726, -0.034406535, -0.05364711, 0.0949633, 0.055067275, 0.00060572295, -0.015754709, 0.092464775, 0.08491504, -0.0027133434, -0.055438872, 0.01128313, -0.009917016, -0.070621185, -0.07392142, 0.021518864, -0.106329165, -0.044857834, 0.04148068, 0.13698219, -0.040225063, -0.041757703, -0.025217522, 0.07116284, 0.01974351, 0.09061165, 0.12667592, 0.22648695, 0.20968, -0.0032172778, -0.09413466, -0.02929975, 0.1133843, 0.058968503, -0.050270155, -0.01947248, 0.022809267, 0.10200671, 0.018910212, -5.8444093e-05, -0.13091059, -0.105026335, -0.06149676, 0.100569196, 0.016920006, -0.024551628, -0.014464138, 0.008542379, 0.07872852, 0.027626297, 0.02049105, -0.031740397, 0.10615476, 0.14031132, 0.038346898, -0.056295186, 0.04469379, 0.087903686, 0.025723048, -0.13897423, -0.11779797, -0.13284214, -0.1127217, -0.1284198, -0.0036511843, -0.047232036, -0.080543384, 0.05559576, 0.104914494, 0.080289505, 0.17668433, 0.01918804, 0.005413515, 0.03579609, -0.02140224, 0.026912477, -0.24243285, -0.1291014, 0.13388002, -0.022695709, -0.20030464, -0.19162625, 0.012044779, 0.11759379, 0.15676571, 0.052959416, 0.052680787, 0.03180415, 0.15166998, 0.07423186, 0.20556635, -0.016323917, -0.020509392, 0.012422007, 0.09799368, 0.14604549, 0.044006523, -0.088963166, -0.18625079, -0.11721151, -0.13612647, -0.23402849, -0.21511038, -0.06310405, 0.062466193, -0.07746412, 0.018158166, 0.0946434, 0.04853329, 0.13249709, 0.03285342, 0.021957794, 0.032289147, -0.06984846, 0.103302255, 0.07332297, -0.064032964, -0.24934433, -0.22791873, -0.043431167, 0.16439654, -0.032309547, 0.07903597, 0.08130966, 0.064571686, 0.044547662, 0.038096916, -0.06297295, 0.042151306, 0.046463322, 0.031963475, -0.075505264, 0.040063966, 0.0739978, -0.028827969, -0.008582535, -0.05435409, -0.07512522, -0.103573605, -0.10122692, 0.011594426, -0.021483809, -0.028643848, -0.028511122, 0.10776023}, {0.1937579, 0.038575422, 0.06990187, 0.12101545, 0.026854154, 0.11461121, 0.12716787, 0.062069874, -0.028351003, 0.06868632, 0.11931718, 0.10869383, -0.0039011943, -0.043385413, -0.07566295, 0.05015189, 0.037989326, 0.048612475, 0.0030102327, 0.008006873, 0.0016719045, -0.1320618, -0.10713573, -0.13925807, -0.19506527, 0.22700292, 0.17199928, 0.09976152, 0.085039556, -0.0065591186, 0.031575494, 0.049762044, 0.06170385, 0.09577541, 0.13628425, -0.006416395, 0.012883755, -0.049591824, -0.38888168, -0.31245944, -0.11298547, -0.044480532, -0.029235268, 0.009340712, -0.076562636, -0.13963757, -0.0042495304, 0.12484788, -0.069196455, -0.14465584, 0.21587756, 0.19679639, 0.024774566, -0.03041212, 0.01330974, 0.026077282, 0.051753927, 0.1154914, 0.03248468, 0.018603202, 0.074748844, 0.07649389, -0.10736462, -0.14599587, -0.078653626, -0.01617139, 0.05170496, 0.0383755, 0.01794704, -0.04600732, -0.034644794, 0.0005018763, 0.06704536, -0.07158912, -0.25647292, 0.14131154, 0.16875207, 0.09523757, 0.014384689, -0.049790062, -0.0045692516, 0.12464847, 0.06533238, -0.032759786, 0.0102245845, 0.047324695, 0.014151889, -0.1858297, -0.37399158, -0.6531767, -0.22020987, -0.29568085, -0.28198862, -0.63274664, -0.5994885, -0.5893437, -0.6708316, -0.65730155, -0.48059195, -0.71203756, 0.15463826, 0.18279721, -0.010674835, 0.080249466, 0.007087195, 0.07230863, 0.09116967, -0.021245286, -0.048897654, 0.019091794, -0.0490158, -0.015971988, -0.1416993, 0.062219877, 0.05016972, -0.031358067, -0.012722185, 0.0038007346, -0.06945796, -0.17495424, -0.15336938, -0.091738395, -0.032663528, -0.12416674, -0.021410603, -0.013260127, 0.11025209, 0.10402731, 0.025911853, -0.053108744, 0.044516858, 0.07276321, 0.10217294, -0.0052527217, -0.023468262, 0.027320104, 0.023086397, -0.08829019, -0.103697985, -0.033368036, 0.006994638, -0.04360943, 0.019694472, 0.015512061, 0.0168277, 0.011884468, -0.06825641, -0.046369415, 0.050294098, 0.11589938}, {-0.19374923, -0.1594227, -0.092814006, -0.069556005, -0.010162065, 0.034801647, -0.006476462, 0.047888447, 0.07159837, 0.07371971, 0.16034128, 0.016691625, -0.006891552, 0.08495386, 0.03784356, 0.041919522, -0.019813953, 0.08421501, 0.057483703, 0.17147942, 0.13307455, 0.025579222, 0.1362994, 0.10353998, -0.014101043, -0.13009983, 0.014138278, -0.01608437, -0.020882387, -0.01806408, 0.02179124, 0.007876923, -0.045019962, 0.08302555, 0.041909605, -0.082049854, -0.13715953, -0.112274714, -0.052870207, -0.0646501, -0.088356875, -0.14131892, -0.18952832, -0.1534139, -0.21511334, -0.250862, -0.2761624, -0.15316942, -0.18925926, 0.029230123, 0.041287966, -0.029990837, -0.030890828, -0.054811846, -0.0028127756, 0.07617338, 0.09190459, 0.084683105, 0.11616889, 0.14290798, 0.043246128, -0.039530743, -0.01278187, 0.04799313, 0.05755053, 0.039417412, 0.049350552, -0.01818331, -0.0007738027, 0.018323246, -0.07325436, -0.056557823, -0.052650798, -0.026135229, 0.022579791, -0.61247873, -0.28563222, -0.50115275, -0.5018079, -0.35444954, -0.41858098, -0.2671694, -0.21233702, -0.110996954, -0.12748414, -0.087257944, -0.21522374, -0.24671878, -0.13092643, 0.008141398, -0.0712759, -0.10047745, -0.085216254, -0.19364603, 0.021532198, -0.13061628, -0.24026053, -0.0421992, -0.021312533, 0.08220176, -0.30464616, -0.29144564, -0.23178434, -0.17012998, -0.13713597, -0.150701, -0.15322427, -0.118495084, -0.06881955, -0.0029886165, 0.036990386, -0.16159104, -0.047682628, -0.01880341, 0.03663307, 0.10666701, 0.080243886, 0.094043784, 0.06542369, 0.11152451, 0.24075636, 0.35595393, 0.3137018, 0.15874043, 0.17684996, -0.1332769, -0.1394658, 0.007394487, -0.010427179, 0.07061914, 0.072527654, 0.09643987, 0.09400564, 0.11323968, 0.13958442, 0.12140456, -0.0074680876, -0.0062595014, 0.06736871, 0.07378741, 0.09257141, 0.020008655, 0.049655106, 0.10219116, 0.066526465, 0.12549958, 0.055761665, 0.07980626, 0.11777213, -0.020001195}, {-0.1168863, -0.014250724, 0.007934381, -0.030711548, -0.040838588, -0.0945509, 0.06821416, 0.060914557, 0.008466399, -0.0053474074, -0.014710484, 0.051674325, 0.04665826, -0.013292837, 0.09661596, 0.012808872, 0.005949745, 0.04565643, 0.08641831, -0.04979977, 0.029810544, -0.030058054, 0.01522883, -0.025429612, 0.0030705617, 0.04944832, 0.1052237, -0.005128922, 0.07611052, 0.06813198, 0.025068529, 0.031948075, 0.053379897, 0.022565167, 0.013263898, 0.07779708, 0.15082389, 0.09680972, 0.09739553, 0.039529067, 0.026182119, 0.038167592, 0.05879061, 0.1165549, -0.014566402, -0.02407806, 0.044884972, 0.05821113, 0.15868598, 0.114911, 0.051265027, -0.005268076, 0.040542748, 0.088604264, 0.066944316, 0.052271567, -0.018365413, -0.07782924, -0.031561706, 0.066985786, 0.17987697, 0.06847444, 0.01661482, 0.02896967, 0.04199636, -0.011459952, 0.0024723373, 0.050739575, 0.09184497, 0.052182417, 0.020832047, -0.038947232, 0.10494642, 0.1014069, -0.014076254, -0.039982386, 0.189415, 0.0032347825, 0.061139673, 0.023933427, 0.061838146, 0.07367942, 0.086679935, 0.05239309, -0.10126545, 0.11353762, 0.085243985, -0.049804326, 0.033852138, 0.012358167, -0.06361471, -0.07839119, -0.02117239, -0.018609669, 0.072654426, -0.059077553, -0.005204666, 0.056573723, -0.024553884, -0.01881646, 0.024270352, -0.02283458, 0.15867455, 0.068547, 0.011275523, 0.10836996, 0.09202294, 0.089197524, 0.06282401, 0.007797245, 0.1460148, 0.024157077, 0.01719173, 0.051999103, -0.028565265, 0.0022071938, 0.08398472, -0.00904312, 0.056247104, 0.12206679, 0.015857883, 0.05464856, 0.0867103, 0.14007644, 0.03944694, 0.048124388, -0.025136787, 0.055805575, 0.0743351, -0.0072885067, -0.009629401, -0.013902678, 0.096073754, 0.06688091, 0.010545989, 0.1391471, 0.06702477, -0.0191238, 0.042536646, 0.03357024, -0.00053651654, 0.025585635, -0.081344426, 0.016857425, 0.120372355, -0.012588045, 0.02476725, 0.07988553, 0.036325872, -0.030388428}, {-0.015906343, -0.03270924, 0.08999553, 0.08609812, 0.008449907, 0.02753105, 0.057712145, 0.077855036, -0.019058231, 0.064631805, 0.050427303, 0.02207965, -0.0797501, -0.11674847, -0.07202293, -0.028970988, 0.006461028, -0.0062884595, -0.03996379, -0.12453666, -0.10358624, -0.054109983, 0.16816522, 0.18210515, 0.19554646, 0.0010041243, 0.023822663, -0.09089222, -0.1355175, -0.10124766, -0.0722057, -0.02685108, -0.021233479, -0.069279164, 0.043038424, 0.006063553, 0.019821862, 0.019179307, 0.15515779, 0.12821582, 0.07006747, 0.021400988, 0.053734507, -0.057778273, -0.2882005, -0.2562773, -0.03802605, 0.13031761, 0.047199603, 0.027318591, 0.015612716, 0.07214457, -0.06702938, -0.04681199, -0.099912696, -0.0088888, 0.022865077, -0.056256812, 0.05602151, 0.11197981, 0.07186408, 0.06647981, -0.041569896, -0.090915665, 0.09409156, 0.011798539, 0.007440672, -0.042950716, -0.10082069, -0.26655495, -0.13635494, -0.023261728, 0.15270068, 0.18102902, 0.12498011, -0.08193865, -0.022981426, -0.042803667, -0.15522197, -0.11861289, -0.007451965, 0.028503686, 0.068438224, -0.020248732, -0.008588625, 0.0016444168, 0.0702692, -0.04182783, 0.14617711, -0.07969133, 0.055553287, -0.037250068, 0.0011664724, 0.005482849, -0.18340275, -0.09582312, 0.03630673, 0.14575507, 0.110159524, 0.16083975, -0.19992869, 0.023343768, 0.09279258, 0.124050856, 0.14026801, 0.08566062, 0.03489559, -0.010742373, -0.03571781, -0.14726698, -0.102062374, -0.034107734, -0.29623196, -0.28394383, -0.23503335, -0.10030284, -0.09894956, -0.1339212, -0.0019158956, 0.016824026, 0.14324377, 0.048559196, 0.10754092, 0.019197773, 0.045719393, -0.09650226, -0.07072929, 0.03953475, 0.09415577, 0.09042121, 0.11040896, 0.084734805, 0.050928555, 0.031185312, 0.017575806, 0.057293475, -0.027750911, -0.181252, -0.25354934, -0.13026784, -0.0148576135, -0.029617097, -0.033954438, -0.016271735, -0.004367686, -0.010735137, -0.08253111, 0.10625574, 0.09066868, 0.07230646}, {0.15218058, -0.1476718, -0.024245631, 0.0638653, 0.0532623, 0.06571407, -0.12322886, -0.16992931, -0.03833467, 0.047290917, 0.09206624, 0.22292669, 0.2979723, 0.22882508, 0.0876415, -0.014887324, -0.032877974, 0.017688936, -0.0328596, -0.070995994, -0.15397401, -0.082267284, -0.13316602, -0.0033748904, 0.026961332, -0.042929903, -0.12194363, -0.043007404, 0.09012577, 0.05877862, -0.01380608, -0.05090969, -0.22246434, -0.032560676, -0.07717001, 0.008767567, 0.045800686, 0.09257303, -0.005230548, -0.024312206, 0.1434475, 0.17383006, 0.17929532, 0.14611796, 0.08864973, 0.003237736, -0.13438195, 0.023482231, 0.055557627, 0.14927849, -0.12775096, -0.071744464, -0.020094035, 0.045798223, 0.0524237, -0.036047317, -0.14629802, -0.20017484, -0.108810544, 0.016015727, 0.13017735, 0.11995356, 0.13253471, 0.051388945, -0.05036835, 0.047547847, -0.009936709, 0.10626608, -0.049270708, -0.10690383, -0.10839854, -0.0912743, -0.064182036, 0.04580953, 0.06262341, 0.062840395, -0.23710853, -0.29287443, -0.17443195, -0.26393002, -0.17688742, -0.32609284, -0.49526286, -0.21897018, -0.12336863, -0.052074477, 0.04893281, 0.10107945, 0.024617346, -0.07457353, -0.057189737, -0.117970854, -0.081592165, -0.009244103, -0.1893318, -0.22788486, -0.30957732, -0.01920917, 0.13679941, 0.08418735, -0.0039387285, -0.13037214, -0.15770811, -0.117331706, -0.14237621, -0.04753831, -0.025258679, -0.011818576, 0.04628478, 0.09284362, 0.14875315, 0.25705662, 0.43289667, 0.30336136, -0.004865941, -0.050248817, -0.06837698, -0.06734024, -0.024020115, 0.04872914, -0.051131457, -0.055443212, -0.1477381, -0.03902042, 0.041594137, 0.16548389, -0.03114229, -0.054202396, -0.010244679, -0.0044555604, -0.036684584, -0.024658239, -0.07883514, -0.01457302, 0.04542393, 0.10648894, 0.20455083, 0.2936077, 0.27106562, 0.13255063, -0.064055465, -0.07176968, -0.030237114, -0.016531106, -0.078926586, -0.04749462, -0.07894192, -0.0025324528, -0.10573206, 0.03136802}, {-0.023234006, -0.094647355, 0.040988654, 0.025478246, -0.0005509323, 0.070381396, 0.016841881, -0.011843786, 0.023274425, 0.13800143, -0.042554606, -0.025504295, 0.067005955, 0.06926882, 0.000293947, 0.020752423, 0.055552512, -0.024311595, 0.02034503, 0.06488948, 0.09053738, 0.069083095, 0.15179776, 0.1462988, 0.19331174, -0.11372336, -0.17275096, -0.17797452, -0.18378137, -0.1779529, -0.10575938, -0.13106892, -0.17559278, -0.12954012, -0.16965431, -0.2509805, -0.20579445, -0.18988869, -0.283329, -0.07684824, -0.092434205, -0.10962305, -0.07911264, -0.04826078, 0.041279513, -0.019873653, -0.001999227, -0.12231493, -0.14994085, -0.10098132, -0.04540949, -0.016430259, 0.0045635616, 0.03604818, 0.042491164, 0.035530012, 0.0022983225, -0.09736684, 0.09087446, 0.032775003, 0.002878251, 0.052933674, 0.009213224, -0.0044533554, 0.00047013242, 0.04439227, -0.0018386929, 0.028235821, 0.07171848, 0.07889076, 0.07458791, 0.022628158, 0.0041530696, 0.07011167, 0.08097593, -0.75093204, -0.5748377, -0.8380051, -0.602044, -0.6029365, -0.70728666, -0.5434969, -0.6628157, -0.5318327, -0.39576313, -0.40910712, -0.4033877, -0.43278852, -0.4957704, -0.26774102, -0.18509154, -0.101177625, -0.2124924, -0.3214648, -0.07619162, -0.14668533, -0.15840784, 0.022282165, 0.032748263, -0.07423952, -0.16109943, -0.17837621, -0.097766966, -0.11943934, -0.046452582, -0.14857036, -0.20244148, -0.094316445, -0.008267814, 0.051236637, -0.06849726, -0.100957625, 0.021839678, -0.021294285, 0.014320619, 0.04997518, 0.0183267, 0.06711704, -0.05843883, -0.038975008, -0.007823887, 0.11503699, 0.22243646, 0.21030787, 0.15721746, 0.0080830585, -0.006706824, 0.0849894, 0.063599646, 0.05953247, 0.06429368, 0.0554487, 0.054527413, 0.034159448, 0.10516576, 0.07616551, -0.0037205748, 0.09796168, 0.0034095845, -0.021083137, 0.055394206, 0.059549708, 0.038066223, -0.009896546, -0.024557056, 0.0844756, 0.06335544, 0.0338562, 0.08265342, 0.03194284}, {-0.12962976, -0.041875705, -0.13530202, -0.116886005, -0.11296076, -0.09227115, -0.027984343, -0.042395685, -0.042506468, -0.012316805, 0.023712005, 0.021124238, -0.0059974724, 0.012905558, -0.010887407, 0.043442633, 0.013493865, 0.035144694, 0.002559392, -0.03210473, 0.0066548907, 0.10029272, 0.04433078, 0.056972746, 0.10589353, -0.21432662, -0.38631868, -0.16535445, -0.09748878, -0.046519417, -0.05044513, -0.17487219, -0.23154798, -0.32260498, -0.14463726, -0.027221145, 0.018845182, 0.13211082, 0.25951365, 0.17450206, 0.012970143, 0.0071618054, 0.007271439, -0.023244677, 0.11567099, 0.24914946, 0.2619963, 0.27441487, 0.2923924, 0.32894886, -0.2733316, -0.25080085, -0.0852391, -0.0701117, -0.066283815, -0.13230537, -0.14152159, -0.108235404, -0.19040757, -0.08239188, -0.018944692, 0.016620466, 0.035284597, 0.033035405, 0.06882784, -0.023270298, -0.043330707, 0.03991402, 0.006566375, 0.035259638, 0.15907168, 0.13711293, 0.09543912, 0.105695456, 0.22151658, -0.057532694, -0.02966239, -0.038378306, 0.17754951, 0.084440604, 0.0848386, 0.023035599, 0.024677929, 0.07492986, 0.007967183, 0.14156185, 0.21229511, 0.18480797, 0.31072825, 0.2860796, 0.28489843, 0.25981584, 0.30909562, 0.31937295, 0.35043153, 0.27534297, 0.3154871, 0.23353727, 0.27514216, 0.47924876, -0.04762562, -0.0015730038, 0.05387714, 0.08494422, 0.09195312, 0.038039383, 0.13268046, 0.031269886, 0.031033926, 0.06128706, 0.06404482, 0.01286876, -0.0074359076, -0.02067956, 0.12626593, 0.12006169, 0.14797626, 0.13874704, 0.15384233, 0.13069859, 0.030351091, 0.09822227, -0.089629024, -0.1121357, -0.038561366, -0.059320133, -0.020436088, -0.06671778, 0.023268687, -0.006395373, -0.0031857358, -0.028362777, 0.023863487, 0.12615317, 0.101610765, 0.091774166, 0.16805209, 0.1070488, 0.00074251153, -0.026810816, 0.006698636, -0.033002567, 0.020467356, 0.017699104, 0.05791003, 0.017567722, 0.0037505187, -0.0267687, -0.17642638, -0.19906762}};
const float net1_bias[30] = {0.022572754, 0.27197826, -0.07116771, -0.052374803, 0.030053193, -0.13340035, 0.22498974, 0.27010757, 0.100172326, 0.19033639, -0.03790867, -0.014076388, 0.107738756, 0.11987047, -0.005225893, 0.10601147, 0.086012244, -0.005025411, 0.041773643, -0.09786716, 0.05680067, 0.0696975, 0.12672055, 0.11027072, 0.057047576, -0.12863477, 0.1712216, 0.19913378, 0.16424985, -0.29894957};
const float net2_weight[2][30] = {{0.6291783, 0.7763156, 0.15602687, 0.55480474, -0.73969495, 0.45689273, 0.9784007, -0.6503285, -0.36919183, 0.6610973, -0.59101135, -0.50030744, -0.64903253, -0.39350188, 0.61050135, -0.6150916, -0.45890516, 0.50589174, 0.42546913, 0.18375187, -0.42716917, -0.5624453, -0.33835703, 0.40103883, 0.71086544, 0.22826818, -0.42087057, -0.6123377, 0.9672986, 0.7811527}, {-0.38426027, -0.78356856, -0.025757272, -0.5171617, 0.5388584, -0.69698143, -0.8728025, 0.6401068, 0.3910928, -0.520581, 0.59505385, 0.641333, 0.5275811, 0.5652101, -0.59606487, 0.40992704, 0.25390387, -0.54431933, -0.6216792, -0.04490189, 0.60156333, 0.52671176, 0.33141255, -0.5494687, -0.69313484, -0.14251234, 0.47716668, 0.52786475, -0.90448284, -0.6006791}};
const float net2_bias[2] = {-0.12650399, 0.083115};
