# ifndef __MODEL_H__
# define __MODEL_H__

static const float net1_1_weight[20][45] = {{0.2108734, 0.033164244, -0.027276605, 0.04949756, 0.1008712, -0.023487136, 0.016518638, 0.049448464, -0.027564958, 0.061187945, -0.1682832, -0.1060164, -0.065560274, 0.031859607, 0.10822799, 0.2184977, -0.054096557, 0.16360687, 0.12639323, 0.17323026, 0.10848328, 0.0554167, 0.038888384, 0.019538993, 0.14273226, 0.26365057, 0.13150817, 0.18591712, 0.1290255, 0.0526552, -0.029801508, -0.12650335, -0.054246273, 0.112140805, 0.17438747, -0.007928095, 0.0939093, 0.081599765, -0.16215964, -0.18650724, -0.106840365, -0.02715875, -0.014550322, 0.045687698, 0.09293764}, {-0.1335249, 0.026038736, -0.040033415, -0.15812701, -0.22797365, -0.022023158, 0.009979718, -0.21174504, -0.08024821, -0.17831334, 0.033340458, 0.024914581, -0.0008368888, 0.11820651, 0.082014814, 0.13385117, 0.10271209, 0.0859627, 0.1408441, 0.14627433, -0.047282282, 0.0516873, 0.14820069, -0.010085372, 0.17681105, 0.047940362, 0.21059726, -0.009322005, 0.15014927, 0.0015673088, 0.13157624, 0.10899682, 0.084287845, 0.031696733, 0.062411103, -0.07670565, -0.09012488, -0.025379527, -0.13494828, -0.04202544, -0.04868734, -0.21737584, -0.11366132, -0.0672801, -0.1718341}, {-0.135046, -0.16848078, -0.26552603, -0.1682866, -0.14291836, 0.013272728, -0.10454421, 0.04532596, -0.087644875, -0.05095813, 0.029241262, 0.043692533, 0.1976728, 0.24277915, 0.015091969, 0.07392474, 0.2505707, 0.11222813, 0.24623021, 0.28314716, 0.04086484, 0.2523736, 0.006801206, 0.1754939, 0.044651177, 0.09503472, 0.20842482, 0.07349046, -0.077797495, 0.07947856, -0.042937543, 0.08695324, -0.10523226, -0.09287251, -0.22159979, -0.15333182, -0.15246724, -0.18158324, -0.136744, -0.066667326, -0.12106076, -0.104786225, -0.021601325, -0.08257029, 0.089452185}, {-0.007719789, 0.11918472, 0.062852405, 0.015867898, -0.012449052, 0.005376617, 0.17818503, 0.13912986, 0.12817238, 0.081371635, -0.018606383, 0.13648462, 0.2004042, 0.025069365, 0.118387, 0.08369513, 0.012955888, -0.089823715, -0.12716393, -0.10949714, -0.12158592, -0.09515745, -0.22657233, -0.18754372, -0.1617723, -0.024032239, -0.07544968, -0.24015348, -0.23120154, -0.20653902, -0.07802749, -0.096954994, -0.006310739, -0.22327074, 0.037948456, 0.057353154, 0.022068387, 0.0150112575, 0.12215784, 0.07115244, 0.088019736, 0.23886451, 0.058629144, 0.1917564, 0.14634496}, {0.1310484, 0.14057648, 0.07558823, -0.02761907, 0.100427136, -0.07462365, 0.034626354, -0.12741962, 0.14055133, 0.033217143, 0.017927151, 0.040712807, -0.0063242367, -0.01192034, -0.092687055, 0.19714677, 0.1514901, 0.06838792, 0.115550876, 0.07552647, 0.029395072, 0.21353738, -0.015833, -0.0016474368, 0.11558875, 0.09316385, 0.019560238, 0.05830786, 0.095649816, 0.15798691, 0.104557626, 0.1434752, 0.09632264, 0.05200595, 0.056521405, 0.043793134, -0.1289327, 0.0063484246, -0.053415377, -0.04941693, 0.10209355, 0.07370832, 0.047019094, 0.09968997, -0.052512623}, {0.15730482, 0.10544901, 0.09105716, 0.14996777, 0.0046606027, 0.17124271, 0.008259532, -0.022905162, 0.13287878, 0.112717114, -0.04775956, 0.102920026, -0.041120082, 0.07021854, -0.03296414, 0.08227513, 0.108558685, 0.08097041, 0.116027415, 0.111629486, -0.024411345, 0.19045866, 0.20399101, 0.24369912, 0.28240767, 0.13638942, 0.14081384, 0.06321641, 0.06988092, 0.04890362, 0.15902914, -0.02314961, -0.005430692, 0.16381629, 0.22040282, 0.12371756, 0.037392747, 0.0405201, 0.1676395, 0.14544305, -0.048339464, 0.095276706, -0.13139349, -0.05394299, 0.063008234}, {0.03851756, 0.10578006, 0.19316417, 0.18324073, 0.07486668, 0.09923335, 0.0971645, 0.23391831, 0.12185275, 0.14284647, 0.11613221, 0.2567867, 0.16875376, 0.047625776, 0.15758672, 0.21460055, 0.15075427, 0.024008429, 0.2382836, 0.1305045, 0.0019043272, 0.17545077, -0.012654667, -0.055733256, -0.0029369749, -0.04918879, 0.11992545, 0.0895458, 0.051499117, -0.14291216, -0.20145677, -0.02366575, -0.23296908, -0.06596163, 0.06858657, -0.11749967, 0.027861778, -0.11899386, -0.018119972, 0.077908635, 0.06215129, 0.1398641, 0.06787496, -0.07366294, 0.10918929}, {-0.29884845, -0.15605208, -0.15686852, -0.14760688, -0.26715964, -0.29477432, -0.3908295, -0.59285504, -0.6057277, -0.47050458, -0.4528389, -0.29479593, -0.34098244, -0.42032704, -0.10160358, -0.43407172, -0.32621396, -0.35872352, -0.24210252, -0.2949307, -0.04145923, -0.3691497, -0.12723438, -0.2603211, -0.21052508, -0.12636684, -0.04656975, -0.29136857, -0.14357676, -0.19185074, -0.09139913, -0.19408634, -0.17528093, -0.1589504, -0.30601713, -0.18299736, -0.023851492, -0.1717322, -0.36416972, -0.35802147, -0.27452415, -0.18183893, -0.29178903, -0.31896982, -0.21126793}, {0.23711973, 0.14731164, -0.10930681, -0.055094853, -0.09800147, -0.00047902192, -0.008469128, -0.15374994, -0.18283258, -0.122013174, -0.13431577, -0.015425318, -0.06871275, -0.20462415, -0.27004826, -0.08854553, -0.12670425, -0.029079081, -0.1952767, -0.126829, -0.18012446, -0.06371762, -0.09050863, -0.039474897, -0.0008645596, 0.13412382, 0.18369462, 0.20420791, 0.1353637, 0.14136833, 0.26711053, 0.14682607, 0.13275653, 0.11290942, 0.26483268, 0.24095528, 0.09478332, 0.071961015, -0.035596017, 0.08918328, -0.053839147, 0.088311546, -0.17625776, -0.08613585, -0.1952906}, {0.33903456, 0.16214448, -0.04354826, 0.067678586, -0.011016474, -0.070376806, 0.12021124, -0.058743954, 0.07413155, -0.036281593, -0.087854326, -0.11448948, -0.23483384, 0.03788336, -0.014168434, 0.093402155, 0.012651152, -0.0038028425, -0.062480133, 0.0057116896, 0.0058469456, -0.023187228, -0.12671445, 0.12791288, 0.04543935, 0.10998781, 0.007851251, 0.044346094, 0.1222573, 0.013844894, 0.18253562, -0.17551993, -0.044614185, -0.11127984, -0.012241434, 0.040125374, 0.024245502, -0.08843142, -5.178822e-07, -0.15747675, -0.11756235, 0.045753624, -0.17723629, 0.018834492, -0.13925287}, {0.23676683, 0.06543505, -0.062443774, 0.08887578, 0.19313154, 0.20578182, 0.18720335, 0.06138526, 0.2573177, 0.023815393, 0.029871184, -0.011073306, 0.026909057, 0.11378056, -0.076975554, 0.29464427, 0.12836173, 0.2786147, 0.084979385, 0.0956533, -0.00909939, 0.26037475, -0.0054731057, 0.21171111, 0.037701327, 0.29395553, -0.016985755, 0.018448481, 0.0380309, -0.010825257, 0.0010853779, 0.083436504, 0.16921785, 0.1325422, 0.0314512, 0.27219883, 0.0016066828, -0.012559578, 0.11224875, 0.025902923, 0.14906102, 0.06322464, 0.09641915, 0.12641545, 0.039241195}, {-0.18708616, -0.25513518, -0.16084193, -0.12357267, -0.19048256, 0.03653966, 0.08509563, -0.16688962, 0.030557195, -0.09448837, -0.12596114, 0.085957, 0.0076619866, -0.09316361, 0.12504259, 0.032879803, -0.083603084, 0.012309316, -0.032916438, 0.013226122, -0.00851357, 0.068541385, 0.099103875, -0.09991284, 0.004834376, -0.1736524, -0.1252692, -0.10864188, -0.24149254, -0.0015605362, -0.119164415, 0.1166505, 0.054041002, 0.0028099245, -0.07625338, -0.084873594, -0.043947622, 0.06672402, -0.14460646, -0.10338904, 0.003956212, -0.022652278, 0.0088784555, -0.088519156, 0.08043927}, {-0.068133324, -0.3254501, -0.08218078, -0.23062599, -0.40869436, -0.41838503, -0.5531888, -0.5597731, -0.63231355, -0.5432204, -0.36146626, -0.40503258, -0.25208494, -0.4575774, -0.3948545, -0.43227658, -0.17142552, -0.35003632, -0.20467682, -0.3495847, -0.12837665, -0.44721332, -0.0873345, -0.12090085, -0.061627075, -0.2903339, -0.22105828, -0.26222953, -0.17270634, -0.24674626, -0.1429684, -0.26644483, -0.21348895, -0.39099914, -0.2170202, -0.44865647, -0.296976, -0.37163204, -0.4417936, -0.39216956, -0.13564293, -0.12679039, -0.328513, -0.2189679, -0.28005677}, {0.21344677, 0.14454946, 0.06858562, -0.073627286, -0.07076628, -0.041498777, -0.15708621, -0.17984173, -0.09675048, -0.20948824, -0.098302566, -0.097433716, -0.13147244, -0.18333335, -0.22678481, -0.19876349, -0.20285344, -0.03446, -0.105896346, 0.019015, -0.0522659, 0.014539931, 0.08212981, -0.106628425, -0.038465437, 0.097377956, 0.009304588, 0.18833765, 0.05813807, 0.22907382, 0.15311512, 0.22616355, 0.14263688, 0.15685207, 0.1737625, 0.22244985, 0.14048547, 0.08831351, 0.065114096, 0.1344569, 0.08680095, 0.04782827, -0.19191481, -0.2413637, -0.20269592}, {0.24455374, 0.03917585, 0.09403225, 0.0151232015, 0.12007955, 0.011291593, -0.15014745, -0.16316192, -0.005054712, 0.028667035, -0.096582204, 0.10600473, 0.0376174, 0.14270087, 0.11234745, -0.02945677, 0.034701396, 0.1693842, 0.17500922, -0.04111848, -0.01323689, 0.22606827, -0.04243143, 0.2620109, 0.12410094, 0.16939583, 0.19218798, 0.15609343, 0.024138438, 0.12729385, -0.05673788, -0.00664622, 0.0016483843, 0.030199682, 0.20836036, 0.0126064075, 0.14800747, 0.10092675, 0.08039414, 0.1394498, -0.0718441, -0.07861257, 0.002077402, 0.11749245, 0.15104692}, {-0.25128537, -0.08280782, -0.12392685, -0.028749041, -0.082839936, 0.06737848, -0.14935152, -0.1434474, -0.10169913, -0.17105034, -0.03428046, -0.097685866, 0.11259114, -0.0058657266, -0.11169053, 0.019950138, 0.12325878, -0.041564148, 0.024996893, 0.08500146, 0.051168147, -0.13746874, -0.025802432, 0.024350822, 0.15885632, -0.18480283, 0.04060429, -0.025424058, 0.025125463, 0.046649802, 0.028597105, 0.037844747, 0.053921357, -0.097590394, 0.13027035, 0.21361934, -0.100540824, -0.0013890044, -0.04679725, 0.11578088, 0.064836144, -0.034749515, 0.19344488, 0.28101242, 0.19635914}, {0.2171811, 0.11231783, 0.16553624, 0.17525199, 0.06391425, 0.14188588, 0.09472085, 0.18787862, 0.1890453, -0.094627984, -0.08747164, -0.12126148, 0.087474495, -0.05492657, 0.08986803, -0.0651785, -0.06288428, 0.15156983, 0.020077327, -0.056905974, 0.061683305, -0.10168567, -0.090409175, 0.041881513, 0.05910293, -0.087230116, 0.14166735, -0.010829996, -0.02029799, 0.12591529, 0.068678945, -0.08489551, -0.008549423, -0.15772954, 0.09615089, 0.002882966, -0.009928768, -0.16136381, 0.04464993, -0.22844872, -0.13521974, -0.2086688, -0.15375867, -0.08257858, -0.25756896}, {-0.3537466, -0.15899442, -0.12635724, -0.106430955, -0.14930646, -0.070528515, -0.07265793, -0.10458867, -0.17463379, 0.08171739, 0.0045310818, -0.06545147, -0.009178476, -0.0896542, -0.051345505, 0.11895685, 0.06465069, 0.043523706, -0.021767935, 0.042376257, 0.14297047, 0.03565229, -0.046861824, 0.1126735, 0.027477518, 0.07362024, 0.056262445, 0.054670192, -0.11079423, -0.027564764, 0.031102391, 0.064066686, 0.058687814, -0.10183176, -0.0964785, 0.027739014, -0.12750182, -0.1726295, -0.07319823, -0.13439341, -0.08850673, 0.10147157, -0.14883493, -0.13637222, -0.0032531891}, {-0.08143633, -0.19945852, 0.045030557, -0.09306577, -0.18120332, -0.20558274, -0.101955734, 0.013152168, -0.11046033, -0.07093692, 0.12847312, -0.18585454, -0.09497001, 0.021831995, 0.07972098, -0.23205107, -0.15805861, 0.084954485, 0.11669603, -0.07041663, 0.2065694, 0.02857798, 0.11086737, -0.13557741, -0.10601385, 0.13354054, 0.024452118, -0.13427813, 0.14595598, 0.2232729, 0.030049535, -0.11202421, -0.09335266, -0.06289768, 0.025137957, -0.055965595, -0.065714434, 0.06819005, 0.15666072, 0.17347823, 0.2117507, 0.17348017, 0.15111317, 0.046195894, 0.17673852}, {0.13838707, 0.15065148, 0.14114955, 0.030338371, 0.021593213, 0.039643668, 0.08960629, 0.03012864, 0.031166077, -0.024192702, -0.0564073, -0.091580786, 0.019225962, -0.17713764, -0.0806439, -0.18604691, -0.18066698, 0.028950702, -0.14465906, -0.12188315, -0.07103716, -0.15454538, -0.10738869, -0.053629432, -0.063734055, -0.07639498, -0.1549365, -0.16523382, -0.031477973, 0.10988732, -0.104840465, 0.021622274, 0.11108708, -0.088593, 0.16723336, 0.17582603, 0.014362865, 0.22109257, 0.16128466, 0.20014904, 0.16002367, 0.106675625, 0.07699095, -0.053955387, -0.018911427}};
static const float net1_1_bias[20] = {-0.10414508, -0.013136122, -0.023157675, -0.023967998, -0.40432277, -0.05914193, 0.09488989, 0.15496166, -0.038529597, 0.09087631, 0.10721577, -0.2819259, 0.2511447, -0.044882607, -0.470642, -0.046090655, 0.0026826437, -0.1710361, -0.043827683, -0.015976574};
static const float net1_2_weight[20][45] = {{-0.1431245, -0.19135842, -0.12801097, -0.043516964, 0.011890246, 0.037275966, 0.11641671, 0.10568677, 0.06895302, 0.1116456, 0.07427622, -0.05881974, -0.06335764, -0.014717144, 0.026928645, -0.13827841, -0.09381408, -0.123475626, 0.06630361, 0.057124376, -0.12345106, -0.08560797, -0.09883529, -0.09671149, -0.113166854, -0.16017546, -0.11496254, -0.07712555, 0.029501101, 0.08744117, -0.11443288, 0.13175385, -0.087748505, -0.017859148, 0.107340455, -0.07830102, -0.12792893, 0.04360298, -0.11376187, 0.0897411, -0.053710166, -0.12566014, -0.22807708, -0.22149697, -0.37726033}, {0.2656651, 0.08886081, -0.052561685, 0.10769002, 0.11680129, 0.1739032, 0.0927351, -0.09499983, 0.015224097, -0.028366558, 0.012958531, -0.0021488273, 0.041143198, -0.16604179, 0.066145785, -0.13091975, 0.10672642, 0.015352545, 0.03469337, 0.13162518, 0.21116003, 0.024927655, 0.19434276, 0.22623369, 0.22882667, 0.11191508, 0.020376477, 0.11357658, 0.104382314, 0.13102862, 0.12769605, 0.18183728, -0.12433749, 0.19942805, 0.23277093, 0.17847936, 0.08560395, 0.33595937, 0.28162757, 0.23674569, 0.06871154, 0.1840699, 0.20027845, 0.10112697, 0.4645701}, {-0.0016945057, -0.24385557, -0.24595173, -0.06464735, 0.006617199, -0.046473604, -0.034090776, -0.006778691, -0.08437472, 0.08438503, 0.036653873, -0.13485947, 0.013472503, 0.1765717, -0.0027604843, 0.017878301, 0.19796188, 0.1043627, 0.22638325, 0.024300447, 0.04656941, 0.052523747, 0.14891031, 0.1332324, 0.10731301, 0.10824011, 0.08333578, 0.01072633, 0.1447593, 0.17023575, -0.045979906, -0.07476666, 0.066453576, -0.10394685, -0.16690119, 0.040739536, -0.19066203, -0.17689987, -0.11745891, -0.0039319517, 0.036353204, -0.026007678, -0.08527347, -0.06661971, -0.1230873}, {0.07973025, 0.18016906, 0.26481682, 0.29708067, 0.14896394, 0.26105016, 0.05309455, 0.04768411, 0.066506766, 0.14167985, 0.2335538, -0.012161209, 0.13818966, 0.14278562, 0.124960944, 0.067952394, -0.022852853, -0.008684007, -0.050489943, -0.03658279, -0.0049674246, 0.063897066, -0.05832472, 0.20731978, -0.047097366, 0.09458893, -0.052842602, 0.10837251, 0.056522164, -0.021181822, 0.11166157, 0.13996392, -0.114860594, 0.13672036, 0.16467105, -0.07960786, 0.12622508, 0.17692675, 0.1999436, 0.17175552, 0.09052155, 0.0036318465, -0.026779057, 0.118273996, 0.14711751}, {-0.26456288, -0.10884683, 0.04439589, 0.05064428, 0.12734737, -0.010604077, 0.120936304, 0.04111833, -0.004402465, 0.11588007, 0.07862752, -0.047303073, 0.0071120635, 0.14908634, -0.08103569, 0.041177787, -0.016975572, -0.123061866, -0.010224578, 0.009567222, 0.02289548, -0.015610944, -0.17685254, -0.12512437, 0.03385572, 0.1732811, 0.11972003, 0.015797704, 0.13706389, -0.0025253817, 0.027441975, -0.17337102, -0.18411092, -0.28131664, -0.311181, -0.06462396, -0.053567495, -0.025109282, 0.09970635, -0.08317508, -0.042971134, 0.14137277, 0.05176282, 0.3009501, 0.28590763}, {-0.3271324, -0.1926916, -0.088730484, 0.0046199113, -0.1401206, 0.0063224793, 0.048905656, 0.104041815, 0.09451986, 0.02471134, 0.20366324, 0.102150515, 0.2747969, 0.14803553, 0.014271829, 0.056380726, 0.053174555, -0.034783278, 0.02135362, -0.02967496, 0.047087256, 0.028164933, -0.06514019, 0.06951905, 0.037880022, 0.02371552, -0.0003772427, 0.011251197, -0.06913458, 0.10953486, -0.104965314, -0.1660668, 0.00037343224, -0.26829743, -0.11734607, -0.16877335, -0.10978331, -0.15426023, 0.05276283, -0.13961889, -0.03940232, -0.038910724, 0.023943534, 0.35282785, 0.32806453}, {-0.3357167, -0.42481682, -0.20400691, -0.10951302, -0.19463183, -0.20628905, -0.29709, -0.060231388, -0.22027986, -0.30417153, -0.16333672, -0.0686456, -0.20229417, -0.101109214, 0.025137959, 0.0057198107, 0.011069736, 0.022315338, -0.049963024, 0.08373336, -0.055990912, 0.13659705, -0.09096793, -0.21791013, -0.19868422, -0.106681906, -0.2790567, -0.13917688, -0.037678503, -0.06200484, 0.016979083, 0.005507106, -0.1402238, -0.21674311, -0.39484307, -0.38959375, -0.2020598, -0.14230403, -0.065759785, 0.15587573, 0.08027688, 0.099729076, -0.09309302, -0.12530553, -0.28408775}, {0.2655529, 0.06316202, 0.12418541, 0.19137757, 0.15507747, 0.07480464, 0.051729552, -0.072186895, -0.1194785, -0.10243816, -0.03875706, 0.02004902, 0.16481651, 0.10994812, 0.2410035, 0.053538274, 0.13620873, 0.10300802, -0.016138628, -0.037747867, 0.19033284, 0.052296646, 0.06264127, 0.19092786, 0.13201945, 0.08777781, -0.1266206, 0.103477694, -0.09132463, -0.2272863, 0.030022895, -0.045783695, 0.035574585, -0.02472663, -0.11657112, -0.110451765, -0.05413712, 0.0883418, 0.06334392, -0.07659854, 0.11845194, 0.108913824, 0.08820049, 0.13597302, 0.1934441}, {0.05919505, -0.04769928, 0.039719786, -0.1456405, -0.21065362, -0.065878905, -0.1278919, 0.08939695, 0.15511428, -0.010317946, -0.1676498, -0.18734296, -0.10222738, -0.18309167, -0.084662154, -0.016064001, -0.066226654, -0.044439416, -0.060726132, 0.10876377, 0.034414593, -0.16762988, -0.20454043, 0.04773998, -0.035845987, 0.041507773, -0.023859458, -0.09403357, -0.06036637, 0.09069419, -0.21033359, -0.24263047, -0.045533355, -0.11128469, -0.17257981, -0.10612994, -0.17956187, -0.18072715, -0.13825741, -0.10423229, 0.048316583, 0.14971785, -0.04758346, -0.04079322, -0.2893404}, {0.13714285, 0.079763904, 0.18380319, 0.188662, 0.113534965, 0.23271461, 0.049589995, 0.020369451, 0.048651602, -0.0060806703, 0.10355166, 0.26285675, 0.36464936, 0.00654485, 0.12150558, 0.1809869, -0.0063639176, -0.07764564, -0.08225726, -0.14894706, 0.09438005, 0.15281112, 0.0347328, -0.054469187, 0.07132519, -0.019483663, -0.1154746, 0.039851155, -0.07777298, -0.050203577, 0.15318498, 0.17528158, 0.09804614, 0.24101888, 0.046433996, -0.13157348, 0.09767718, 0.17920564, 0.04153834, -0.00044265468, -0.020411415, 0.015710577, 0.03230831, -0.198584, -0.057830874}, {0.009278826, 0.028897423, -0.14323677, 0.049843658, 0.04067372, -0.0791452, -0.030518984, -0.02126183, 0.09853759, -0.063465565, -0.09852433, -0.14936325, -0.08709369, -0.27540177, -0.14553969, -0.13540882, -0.0464155, -0.10268415, -0.05326552, 0.11843696, 0.040291615, 0.1149571, 0.18958905, 0.19005823, 0.15153931, 0.18010437, 0.124030694, -0.0924283, 0.15716968, 0.069316246, 0.036152046, 0.062622145, 0.20505142, 0.18672003, 0.06379437, 0.02763624, -0.0065582977, 0.1053723, -0.07728176, -0.09884399, -0.122330666, -0.10338301, -0.038836174, -0.12821662, -0.16542278}, {-0.32710677, -0.31780997, -0.16479065, -0.14813527, -0.15608376, -0.13920444, -0.087656066, -0.10612971, 0.020120354, -0.07543483, -0.034946103, 0.012618508, -0.23918672, -0.10366692, -0.047652766, -0.028199727, 0.1831962, -0.016828392, 0.16893698, 0.14219621, -0.059568655, -0.11894839, -0.010451837, -0.24447925, -0.11946348, -0.05597947, 0.10543456, -0.009797077, -0.023005234, -0.014527543, -0.20691356, -0.05016269, -0.19496606, -0.03322435, -0.18461251, -0.025175301, -0.10322397, 0.12664089, 0.09826063, 0.18563908, 0.093692236, 0.3299956, 0.086722195, -0.20265864, -0.18035217}, {0.06594653, -0.010124382, 0.15305838, 0.16267915, 0.09327044, 0.21015315, 0.116161644, 0.01852891, 0.0545331, 0.10084727, -0.14999922, -0.09784834, -0.32835296, -0.22155029, -0.10882268, -0.23647743, -0.108279474, -0.04330202, 0.12290896, 0.0549123, -0.13886805, -0.00033256545, -0.1396211, -0.114283435, 0.0072827637, -0.061360713, -0.08718412, -0.15774418, -0.12324341, -0.049979407, 0.14870033, -0.0070798732, 0.011515198, 0.1602524, 0.16994387, 0.17671692, 0.11004552, 0.21667464, 0.092643775, -0.031051505, -0.07922982, 0.05605093, 0.078701735, 0.035461772, -0.12191463}, {-0.03415961, -0.032847855, 0.14056757, 0.08364371, 0.06632894, -0.06709189, 0.076160744, -0.00037771673, 0.16974558, -0.14193805, -0.07429539, 0.066604525, 0.16109215, 0.16250087, 0.28810376, 0.18482155, 0.12656386, 0.038570236, 0.28830287, 0.028747873, 0.23588276, 0.2123134, 0.0543366, 0.19565646, 0.18678854, 0.26976198, 0.15251628, 0.13525458, 0.05120787, -0.010225059, 0.11750975, -0.10555386, 0.03150813, 0.004609694, 0.109293446, 0.07472731, 0.12621883, 0.0012470448, 0.123866625, -0.14827876, 0.016268933, 0.14722255, -0.086695544, 0.012398998, 0.1150084}, {-0.12674788, -0.20468748, -0.24166359, -0.06477849, -0.17693928, -0.16508713, -0.044594813, 0.04376765, 0.075842336, -0.02686711, 0.09010617, 0.032190178, 0.07770014, 0.19680396, 0.041100543, 0.13520631, 0.16216996, 0.014318133, 0.1675015, 0.016834972, 0.13616091, 0.08470873, 0.15886493, 0.1911166, 0.06236596, 0.24052037, 0.09887792, 0.097722195, -0.031115882, -0.033540312, 0.04979839, -0.10242719, -0.033124894, -0.009482896, -0.21900871, -0.022856345, -0.027259441, 0.00089230493, -0.11695409, -0.18317103, -0.12169534, -0.053810686, -0.08539029, -0.11369023, 0.0017155561}, {-0.056038525, -0.17064278, -0.08917735, -0.013110918, -0.22817624, -0.18766962, -0.15458992, 0.0250587, -0.0935494, -0.1239581, -0.1880802, -0.06525426, 0.14563756, 0.06628013, -0.074780114, -0.13256247, -0.013598696, 0.054761987, 0.045000542, 0.06029963, 0.006143519, 0.09804927, 0.01151017, -0.0028997092, -0.034212783, -0.13587952, 0.024801861, -0.024497632, 0.03943902, -0.026234306, 0.14160518, -0.059313577, 0.1540318, -0.06115713, -0.036199685, -0.054078903, 0.10229496, 0.06898696, -0.027841572, 0.23210762, 0.17510088, 0.2817038, 0.019643944, 0.032767896, 0.23017494}, {0.24381495, 0.23124789, 0.14194176, -0.03305057, 0.074457295, -0.053959887, -0.1285834, -0.059735127, -0.032925718, -0.026890634, 0.09431689, 0.07359314, -0.24478681, -0.007798033, 0.08868819, 0.013165454, -0.078584604, -0.09942874, 0.027990969, 0.19492136, -0.013799292, -0.044538997, -0.042255633, -0.1990784, -0.108364746, -0.08915885, 0.08396763, 0.10525569, 0.12410396, 0.023971336, 0.11424446, -0.043040313, -0.13065885, -0.16602212, -0.21674596, -0.272699, -0.06740576, 0.02474864, -0.15369403, 0.05842576, -0.00410819, -0.07561559, -0.20543735, -0.21603474, -0.07903839}, {0.27562717, 0.24788097, 0.045244023, 0.12813707, 0.04904873, 0.118696265, -0.17189197, -0.14149061, -0.19531034, -0.03767796, -0.2725307, -0.28080747, -0.06773444, 0.090582244, 0.10487696, 0.16062433, 0.06716011, 0.106576234, -0.041600447, 0.104188785, -0.04357756, -0.046088837, -0.26471776, -0.14327747, -0.19650476, -0.11991202, -0.13369788, -0.047666457, 0.05477627, 0.084372394, -0.02364988, 0.1237471, 0.24275818, 0.12995866, 0.13206406, 0.08056762, 0.19017576, 0.028435223, -0.020000977, 0.14206785, 0.05721095, -0.07916777, -0.18416405, -0.057829946, -0.19247937}, {-0.054640546, -0.019572603, 0.15218069, 0.14046015, 0.13350785, 0.1165722, 0.057685155, 0.18548587, 0.12990333, 0.2201234, 0.10968291, -0.09813614, 0.11258539, -0.011918006, -0.15140787, -0.04441539, -0.25233832, -0.0032969841, -0.20193705, -0.12470968, -0.24955179, -0.045506567, -0.06193606, 0.022099191, -0.0094045475, -0.08117548, -0.054724164, -0.063508846, -0.27511364, -0.16841048, -0.058389608, -0.1487173, -0.079089105, 0.020602657, 0.02121315, -0.07263047, -0.0509033, 0.10217168, 0.064857975, 0.008359425, 0.039963372, 0.03759083, 0.19651131, 0.19287457, 0.31458533}, {0.22205685, 0.059471007, 0.03775977, -0.051526185, -0.21602996, -0.14616343, -0.20128174, -0.16427508, -0.18527679, -0.11869514, -0.24315083, -0.08366722, 0.084746204, 0.15039033, -0.04237924, 0.25493583, 0.1568803, 0.16168389, 0.1604737, 0.10182506, -0.060003605, 0.048464626, -0.15824118, 0.057867236, 0.07518419, 0.06019275, -0.008956046, -0.043674808, 0.10322663, 0.21489905, 0.049283464, 0.05730466, 0.014399465, 0.05762577, 0.1669608, 0.11782275, -0.0017483577, -0.18912968, 0.010204543, 0.000527669, -0.16671854, -0.03941274, -0.052794755, -0.11341872, -0.16339412}};
static const float net1_2_bias[20] = {0.24536349, -0.23019147, -0.030857723, -0.27547714, -0.023059592, -0.011141475, 0.16783106, -0.4667501, 0.19786951, -0.5752942, -0.008125764, 0.22707014, -0.012564817, -0.29685876, -0.06189773, -0.05398464, 0.10688108, -0.02112906, -0.0025914728, -0.028867526};
static const float net1_3_weight[20][45] = {{-0.04534611, 0.1061196, 0.20943813, -0.04320346, -0.06290971, 0.033932228, 0.12656467, 0.13578103, 0.007664536, 0.03184994, -0.052711032, 0.18795063, 0.09331173, 0.016775852, -0.19263498, 0.040461663, -0.1280309, -0.06312353, 0.010173828, -0.054396167, -0.087308675, 0.10222385, 0.102036886, 0.02896121, -0.11021418, -0.057506666, -0.10605142, -0.04929972, -0.11318078, -0.0049860785, -0.07803439, 0.09887237, -0.10205238, -0.08247336, -0.08180127, -0.010892607, 0.08837923, 0.15165615, 0.21209255, 0.04256667, 0.10760095, 0.0789564, 0.12848184, 0.13297693, 0.16307653}, {0.16729335, 0.13416462, -0.016359013, 0.09806223, -0.08715643, 0.00034210432, 0.040337484, 0.022822376, 0.03328508, -0.18195795, -0.11565932, -0.028285433, 0.045645084, 0.115764946, -0.14230022, -0.060091503, -0.022740992, -0.14392874, 0.026806692, 0.028776664, 0.098929636, 0.054828472, 0.056800675, 0.006548084, 0.1385195, 0.026962485, -0.103307195, 0.12180017, 0.17955746, 0.00435596, -0.046034288, -0.026454173, -0.1341657, -0.031349096, 0.009005784, -0.16291898, -0.20648147, -0.120695114, -0.1022388, 0.03501001, 0.04921942, 0.12137103, 0.16101533, 0.06446061, -0.06204017}, {0.014957719, -0.009207674, 0.13273057, 0.07377204, 0.055934317, -0.11418642, 0.10043697, -0.1330307, 0.0634692, -0.13066684, 0.12886363, -0.09166724, -0.15608887, 0.004458242, 0.023506915, -0.11548424, -0.04072008, 0.017157665, -0.22381958, -0.03298121, -0.007825758, -0.093980215, 0.08547346, 0.12507045, 0.064368516, -0.15463269, 0.09616616, 0.11106322, 0.04127759, -0.03329903, 0.12858875, -0.07557984, -0.089753896, 0.06793479, 0.076823324, -0.03438768, 0.115078844, 0.06878216, 0.07402222, 0.13269055, 0.1647618, 0.12560235, 0.14053056, 0.06304667, 0.18792203}, {0.092490025, -0.037650023, 0.08731419, -0.0064552506, -0.09486484, 0.06785752, -0.008943714, 0.08929416, 0.030209446, 0.04402922, 0.12403032, 0.009933177, 0.10724928, -0.07162891, -0.04110384, 0.0052938154, 0.0909895, 0.04465237, 0.123386964, -0.10117795, -0.0075443094, 0.039622817, 0.18091106, 0.19860917, 0.04815014, -0.10191009, -0.085279666, 0.06272569, -0.10359285, -0.054194126, -0.10395231, 0.08360547, -0.0076016057, -0.10118832, 0.101655364, -0.098725244, 0.0081121, 0.17153393, 0.10782884, -0.09948673, 0.032147855, -0.002771228, 0.071830235, 0.16538903, 0.18857847}, {-0.07587628, -0.1471777, -0.3948688, -0.07884552, -0.15027925, -0.3965487, -0.37779638, -0.27412528, -0.14206228, 0.059997715, -0.07174375, -0.001981229, -0.020078667, 0.24232906, 0.08927849, -0.018927274, -0.14720349, -0.18374604, -0.22970489, -0.2682427, -0.33111227, -0.15917899, -0.1157351, -0.0428048, 0.21356808, 0.22207382, 0.15408875, 0.23843811, 0.20388925, 0.22626846, -0.15608327, -0.20060791, -0.25034827, -0.30667484, -0.1292283, 0.05999406, 0.13822733, 0.22056104, 0.21557626, 0.18457392, -0.13906589, -0.042717993, -0.12604249, -0.20245259, -0.12977566}, {-0.021219743, 0.058963545, -0.07477143, -0.04989228, -0.05184495, 0.05748946, 0.07663334, -0.104868874, 0.075529315, 0.034785494, 0.0678345, 0.093648985, 0.009622178, 0.046100054, -0.105219506, 0.036875725, -0.19241664, -0.18695414, -0.15509026, -0.13761112, -0.033304475, 0.05560696, 0.0062264334, 0.18073271, 0.10832508, 0.22268555, 0.19860004, 0.16367842, 0.10880532, -0.08557951, 0.103205875, -0.16767345, -0.15491037, -0.1633327, -0.1170354, -0.0025569769, -0.017902711, -0.12332138, 0.15561879, 0.15421154, 0.06752015, -0.14784417, 0.06770687, 0.0026186157, -0.061042897}, {-0.19826886, 0.074627265, -0.035546493, -0.09531872, 0.14170656, 0.09369446, 0.038772162, 0.07240463, -0.007938451, -0.0141026275, 0.04000214, 0.19089691, 0.048935875, -0.08656245, -0.13644925, -0.14187025, -0.0023752048, 0.06500748, 0.06701235, 0.057701014, 0.051877357, -0.04840964, 0.17492919, 0.079021156, -0.16239782, -0.19534059, -0.13845187, -0.08395927, 0.11433411, 0.051537402, -0.12447257, 0.04990199, -0.067875564, 0.086790316, 0.12772182, 0.08232597, -0.034975782, 0.00957226, 0.15062355, 0.20016731, 0.037895124, -0.014230051, -0.116004944, -0.08603954, -0.20338617}, {-0.30230466, -0.053170994, -0.062002216, 0.08177326, 0.11487255, 0.071396574, -0.03082814, 0.070229314, -0.031933885, -0.09182348, 0.11223409, -0.13006349, -0.14549872, -0.24318264, -0.039676316, 0.07415413, 0.24213327, 0.053439565, 0.16824, 0.08879002, 0.07592978, -0.07577358, -0.0800975, 0.039240584, -0.09918248, 0.11877228, -0.09604909, 0.01036959, 0.29337326, 0.08901, -0.03929538, -0.09020982, 0.15867214, 0.028039895, -0.12549579, -0.109772235, -0.17771749, -0.20250842, -0.019102434, 0.08304657, -0.050836183, -0.07963261, -0.10637205, -0.10253393, -0.018011577}, {-0.55484617, -0.60596377, -0.5756647, -0.26895294, -0.12977895, 0.09700183, 0.049079712, 0.09665766, 0.14353347, 0.19868556, -0.055701114, -0.29622158, -0.38695312, -0.50515217, -0.26425514, -0.003270206, 0.19469886, 0.121520475, 0.29994357, 0.117881596, 0.21568117, -0.24182352, -0.09029563, -0.1868713, -0.2616357, -0.41450968, -0.4391302, -0.26450908, -0.04377977, 0.22252597, 0.18522607, 0.1806858, 0.07182477, -0.10299872, -0.14512463, -0.17414074, -0.26474857, -0.04367132, -0.10104401, -0.11814456, -0.053223554, -0.08995391, 0.0778602, 0.07960131, 0.3576387}, {-0.04285472, 0.09202501, 0.14259085, -0.013991754, -0.16172443, -0.17214392, 0.106819436, -0.15630297, -0.06609781, 0.09804654, -0.07716603, 0.1700494, 0.025311578, 0.03990916, -0.009834399, -0.014193621, 0.056523535, -0.1599678, 0.0050493516, -0.07576878, 0.1696172, 0.17571808, -0.009666042, 0.12123416, -0.021148318, 0.10206172, -0.0016089303, -0.035159986, 0.09170355, 0.08829126, 0.16566761, 0.084859595, -0.0346693, 0.067961045, 0.03198995, 0.14806081, 0.06534553, 0.12987143, 0.014187871, -0.09854009, -0.078316785, 0.15509674, 0.154941, 0.095641755, -0.0316253}, {0.13849804, 0.12214808, -0.06607514, 0.07139357, 0.1292789, -0.11247136, -0.0019081591, 0.035306703, -0.06408607, 0.08946689, 0.14473513, 0.1442683, -0.15162145, -0.026170652, 0.05209883, 0.06082689, -0.09559643, 0.020303315, 0.03792751, -0.05858422, 0.09528794, 0.10168358, 0.0069925883, -0.02900704, -0.072760336, -0.10641046, -0.07267576, 0.059555124, 0.05729891, -0.03950491, 0.0068926783, 0.113479026, 0.022428606, -0.10163752, 0.11460674, 0.08144174, 0.008537115, 0.06844504, -0.11458839, 0.10022891, 0.05773317, 0.016822629, -0.024877299, 0.15733828, 0.08254215}, {-0.03733702, 0.06858731, 0.009205748, -0.059678253, 0.11356094, 0.15364836, 0.036919538, 0.038511086, 0.034336798, 0.022628514, 0.133775, 0.13234669, -0.08227289, 0.03788538, -0.057306517, -0.08629565, -0.12742873, -0.17635936, -0.16024286, 0.05858918, -0.037174467, -0.02516755, -0.072523735, -0.03132298, -0.05956561, -0.03876255, -0.19007513, -0.035676185, -0.15563668, -0.099411, 0.01513489, 0.010297727, 0.008757799, 0.13763602, 0.07013269, 0.086120956, 0.073752545, 0.0068142917, -0.1394377, -0.06062233, 0.09946863, 0.12484553, 0.104012825, 0.18387432, -0.025537495}, {0.008415688, 0.04696438, 0.0015418587, 0.14106596, -0.16159754, 0.011649083, 0.12201195, -0.080780044, 0.12864079, -0.10667844, 0.07466709, -0.03703163, 0.06043051, 0.030946983, 0.010799699, -0.035325076, -0.03759696, -0.14250185, 0.029122654, 0.14377922, -0.06904227, 0.012006059, 0.10338762, 0.12935059, 0.0594419, 0.11071594, 0.04750368, 0.012312385, -0.08472455, -0.12746394, -0.08041768, 0.098245405, 0.14448538, 0.15101402, 0.1153987, 0.028332436, 0.10918797, 0.072783515, -0.06599206, 0.0043050353, -0.10559288, 0.1570182, 0.05492388, 0.18396364, 0.062703826}, {0.027636364, -0.0065334314, -0.056743637, 0.013837659, 0.160616, 0.032271855, 0.1452827, 0.071730584, -0.041912332, -0.10465386, -0.15233527, -0.0013350364, 0.029408656, -0.10050127, -0.1154753, 0.12469077, 0.05987546, -0.0069430387, 0.14280163, 0.0655465, 0.15355611, 0.0686896, -0.033462472, 0.004045579, -0.081647985, 0.027734054, -0.007674173, 0.03203701, -0.15742919, -0.14623287, -0.19786297, -0.2278685, -0.21878226, -0.18459465, 0.077628285, -0.0077793966, 0.047025166, 0.13051574, 0.12563273, 0.1494037, -0.04161794, 0.17986597, 0.023757445, -0.07299029, 0.07230688}, {-0.121150725, -0.041805025, 0.17476833, 0.1226628, -0.05081002, -0.031000286, -0.033110864, 0.0077786315, 0.017047727, 0.095687956, 0.18425407, -0.09707749, -0.1390009, -0.022459617, -0.072262384, -0.090444244, 0.15151843, 0.111684255, 0.0936963, -0.13566095, -0.044863615, -0.10672419, -0.03153799, 0.20234904, 0.07209012, 0.064480506, -0.16170956, 0.040491484, 0.04981164, -0.091346875, 0.14954327, 0.10140142, -0.0697263, -0.045013174, 0.042977117, -0.15966624, -0.04398615, 0.077209406, -0.03495783, -0.012313232, -0.099937834, 0.08729614, 0.15250242, 0.12470235, -0.1811342}, {0.03515236, 0.10277391, 0.029205771, -0.03813711, 0.113321155, 0.034793403, 0.06879261, 0.12450304, 0.13193208, -0.1042587, -0.120123625, -0.049291898, -0.02838097, -0.026190959, 0.15370615, -0.17495762, -0.27187565, -0.2940659, -0.43815914, -0.39497256, -0.6112933, -0.32208705, -0.5321061, -0.24781723, -0.40469074, -0.32764342, -0.37701476, -0.16238606, -0.14184606, -0.37737972, -0.4222155, -0.2889069, -0.2979148, -0.25406405, -0.208787, -0.32544395, -0.12905048, -0.16907407, -0.21142824, -0.18015632, -0.41356185, -0.44026363, -0.39181215, -0.4450386, -0.5460302}, {0.10556614, 0.09605798, 0.088507324, 0.08153433, -0.1487679, -0.059953712, -0.070843175, 0.15893704, -0.023761068, -0.07099277, -0.009980749, 0.045266055, 0.040693108, 0.059074037, 0.033290055, -0.03641181, 0.08748335, 0.034742538, 0.05283907, -0.13724037, 0.04384515, 0.031696957, -0.08053098, -0.031531718, 0.09567779, 0.045987036, 0.10810096, 0.083644055, -0.021469701, 0.09865439, 0.02622947, -0.011570366, -0.045500457, 0.10431723, 0.064581536, 0.11966964, -0.013808537, -0.104438215, 0.06970486, 0.04782133, -0.07426141, 0.057116203, -0.0004028304, 0.15253615, 0.064975716}, {-0.0067870393, 0.20651017, 0.07860142, 0.025287125, 0.07269538, 0.142068, 0.06858405, 0.011586428, 0.13658217, -0.03435054, 0.18195537, -0.038290843, 0.011325911, 0.10401953, -0.0062536793, -0.0845482, 0.039339993, 0.02554218, -0.17364946, -0.038526617, -0.09159641, 0.012809101, 0.022486137, -0.03141749, -0.06594135, 0.08960488, 0.013113593, -0.114554286, 0.04545641, -0.12265925, -0.054855004, 0.13196261, 0.14580628, -0.026567157, -0.07292802, 0.09312688, -0.11216543, 0.1234416, 0.14948945, 0.12186775, 0.10365146, 0.09524527, -0.055729426, 0.011790859, 0.17779882}, {0.14585835, 0.016563961, 0.016480796, -0.18241075, 0.049468268, -0.17112264, -0.19223428, 0.06569176, -0.08924468, -0.089602426, 0.046914607, 0.17709285, 0.21413018, 0.10697755, 0.20037852, 0.19534013, 0.060955666, -0.052030213, 0.03645832, -0.074735984, -0.012155803, -0.18877514, -0.16665582, -0.17213063, -0.14887583, 0.0459933, -0.16677205, 0.0037352222, -0.068066515, -0.0077421907, 0.03163779, 0.12845492, 0.15727812, 0.035734866, 0.09105689, 0.046039175, 0.14642024, 0.042502217, -0.10495297, -0.014220023, -0.21008918, -0.015924064, 0.069399744, -0.08245808, 0.07676006}, {0.039801244, -0.14156237, 0.041207746, 0.14670412, 0.06092538, 0.043448284, 0.009715478, -0.049018983, 0.04468784, -0.21026754, -0.20069332, -0.07875967, -0.115907244, 0.21432315, 0.0044981427, -0.050326772, 0.021685064, 0.09781624, 0.17429762, 0.010591354, 0.053673517, -0.0065070754, -0.096972, -0.0015385288, -0.007876539, -0.13977803, -0.021603854, 0.08850379, 0.038977988, 0.07977779, 0.05700189, 0.018208362, -0.14255369, 0.07010683, -0.14839356, 0.069971465, -0.08394649, 0.043830372, -0.16102004, -0.010208431, 0.118664235, -0.009571012, 0.14044307, -0.022245858, 0.17016995}};
static const float net1_3_bias[20] = {-0.20788382, -0.19830172, -0.31630006, -0.3591475, 0.1049261, -0.007993283, -0.24151285, -0.06830227, 0.17206137, -0.4787949, -0.41868615, -0.026271243, -0.4257407, -0.0068819206, -0.24179727, 0.3108125, -0.26265845, -0.43087646, -0.0031049678, -0.25426966};
static const float net2_1_weight[40][60] = {{-0.045940768, 0.14978334, 0.17248243, 0.1388435, 0.06458336, 0.10795688, 0.015171779, 0.082996406, 0.07314571, 0.006250121, -0.056160837, 0.22127715, -0.1764263, 0.075429335, -0.10180439, -0.5859462, -0.37202248, -0.014659626, -0.4585448, 0.16675118, 0.1206006, 0.018737732, 0.048606135, 0.0822748, -0.042797495, 0.10790692, -0.0417818, -0.012080021, -0.060002368, -0.12329469, 0.090345226, 0.03594367, 0.008798031, 0.07296921, 0.15290754, -0.40660578, 0.0026178637, 0.11341906, 0.12893684, -0.029173687, 0.045513004, -0.60732114, 0.088391535, 0.092217214, 0.11581689, 0.015390652, -0.7853611, 0.46251127, -0.040390212, 0.08240581, 0.10729747, 0.14136723, -0.0040288847, 0.03061677, -1.0022175, 0.09914846, 0.12820661, 0.0033402469, -0.011980567, -0.7020958}, {-0.04933686, -0.12825811, 0.09268383, -0.088440195, -0.055870675, -0.0149654355, -0.01467561, 0.12094111, 0.27094853, -0.24090846, 0.0064926795, 0.10920978, 0.05003644, 0.08051735, -0.043433085, -0.12461232, -0.22108547, 0.14120099, -0.02527855, 0.02735845, -0.2918691, -0.020164087, 0.17617102, -0.053545635, 0.3972636, 0.1760273, -0.29901394, -0.1751872, -0.1894124, -0.23767574, 0.17407243, -0.38889253, 0.30923074, -0.020853564, 0.21101795, 0.042339973, -0.40353206, 0.2584378, 0.28864297, 0.14816074, 0.025917063, -0.47740734, 0.07809941, 0.041148398, 0.22153671, -0.18204734, -0.59154755, 0.4587475, 0.31957725, 0.13275707, 0.04958339, 0.0019741964, 0.027608363, -0.048422247, -0.5115975, 0.2582386, 0.022497332, 0.09588494, -0.08471856, -0.054962996}, {0.029785968, -0.12529442, -0.12384082, -0.28339207, 0.031420562, 0.015485916, -0.04625411, 0.1869439, -0.22163309, -0.040122528, 0.015270124, 0.19887657, 0.11604037, -0.16867383, -0.040916964, -0.75014603, -0.31071898, 0.19515866, -0.6099066, -0.16032743, -0.42496818, 0.035561442, 0.1605806, 0.060676515, 0.42289525, 0.077303715, -0.15644579, 0.059648767, -0.19170684, -0.10359068, 0.123500556, -0.23284355, 0.2580128, 0.057101544, -0.01490028, -0.009150922, -0.42232588, 0.2551675, 0.12168476, 0.14176933, 0.026183197, -0.27341133, 0.11018075, -0.012774515, -0.09498289, 0.07357892, -0.4260758, 0.71212494, 0.011237809, 0.06668134, -0.012941827, 0.08238544, -0.043011602, 0.096021496, -0.4292618, -0.05818897, 0.057446346, 0.021068674, 0.17020172, 0.07907083}, {0.032164656, -0.09790862, 0.022240324, 0.11130474, 0.10884135, 0.059863914, -0.040769137, 0.20807928, -0.017536469, -0.027410101, 0.03482948, 0.07506662, 0.262536, -0.003614569, 0.09061197, -0.6894696, -0.5665666, 0.035354402, -0.73564637, -0.007864719, 0.023147494, -0.02361522, -0.04124056, -0.045571808, -0.015422296, -0.08683388, 0.17146985, 0.22640572, 0.11995899, 0.05807681, -0.13574083, 0.18147427, -0.20030913, 0.15618758, -0.10461733, -0.42347223, 0.049792543, -0.20731607, -0.10633986, -0.00090021687, -0.094678245, -0.25912675, -0.036347613, 0.022386203, 0.099492066, 0.19188283, -0.128806, 0.5259785, 0.088460796, -0.057124007, -0.08050001, 0.15740094, -0.034243047, 0.03999254, -0.5628052, 0.10395827, 0.019773917, -0.04372269, 0.1942112, -0.51117015}, {-0.035706095, -0.07019088, -0.046314973, -0.054533996, -0.029005188, -0.005007762, 0.012865111, 0.21510005, 0.08962198, -0.21608607, 0.0009207869, 0.0718348, 0.042205147, 0.017983755, -0.021749577, -0.61716527, -0.5081048, 0.023562806, -0.5305501, -0.08195232, -0.44317752, -0.017673044, -0.0011489376, 0.13029322, 0.2870852, 0.24356623, -0.21289621, 0.097473145, -0.30670395, -0.11998201, 0.19991276, -0.37536305, 0.16730633, 0.10315077, 0.078547895, 0.052337885, -0.30730537, 0.085942626, 0.1505694, 0.09190454, 0.03358833, -0.21665482, -0.024276428, 0.023511373, 0.11822661, 0.055612214, -0.29707476, 0.7257377, 0.030719044, 0.02068753, 0.054900687, 0.12355539, 0.0406373, 0.15169948, -0.58008844, 0.039387453, -0.027287517, -0.017200027, 0.1805173, -0.04065085}, {-0.09445576, -0.57835436, -0.5873652, -0.6956484, -0.07391052, -0.06361956, -0.081179045, 0.040541917, -0.2994011, 0.11343455, 0.065585025, -0.15834086, 0.009887942, -0.3147728, 0.07344942, 0.4052011, 0.14538357, -0.058691826, 0.21491371, -0.46662033, -0.045096412, -0.23298368, -0.231128, -0.22892368, -0.11378584, -0.1318249, 0.02980673, -0.04392943, 0.055021096, 0.14270534, -0.22528997, 0.10653678, 0.07064847, -0.12236244, -0.086955, 0.33231136, -0.010918503, -0.018906534, -0.06249894, -0.14922768, 0.033773523, 0.25449848, 0.090743706, 0.049299862, -0.4562364, -0.38623503, 0.84198457, -0.4970457, -0.50102776, 0.062140636, -0.0099047255, -0.06655398, 0.048923306, 0.077328175, 1.1021547, -0.43500718, -0.008883276, 0.08481951, -0.2787568, 0.6973118}, {0.05658379, -0.015043112, 0.16270316, -0.0952911, -0.045606475, -0.080377005, -0.08709922, 0.115602076, -0.16893402, 0.29531366, -0.03985865, -0.011638649, -0.034552235, -0.08712936, -0.025169287, 0.23766871, 0.039291304, 0.011859648, 0.35509697, -0.21003976, 0.13858111, 0.13513142, 0.25617954, -0.011045057, -0.38407198, -0.26317662, -0.114540026, 0.055480767, -0.05255867, 0.12805364, 0.27849507, -0.24035367, -0.13763177, 0.037780844, 0.11166053, -0.019216668, -0.02893155, 0.22950794, -0.066933714, 0.18707195, -0.032338504, 0.5216569, 0.03984177, -0.058510333, -0.102632694, 0.24745633, 0.24445374, -0.51122195, -0.14556475, 0.05515808, 0.007134863, 0.25361356, 0.02834486, 0.045171134, 0.5270706, -0.0024105387, -0.016368583, 0.09172141, 0.37355888, 0.14166993}, {0.08356281, 0.3848349, 0.13118735, -0.005060812, 0.07678914, -0.06880747, 0.044771593, -0.053172033, -0.03893202, -0.55376995, 0.02818224, 0.044223584, 0.0025868565, -0.16150436, -0.016509129, -0.57928574, -0.56467295, 0.008290115, -0.38379556, 0.022185495, 0.0036341727, 0.18648116, -0.20303853, 0.18419147, 0.02129089, -0.014032712, 0.050632417, 0.21531862, 0.053685326, 0.31607872, -0.10366016, 0.05392772, -0.17180096, 0.12691428, -0.21845344, 0.10687583, 0.12418679, 0.2221186, -0.08005007, -0.012245927, -0.28410742, 0.06157415, -0.49239057, -0.31728807, 0.2701013, 0.46350753, 0.23571496, 0.75439066, 0.111467876, -0.5627888, -0.50040567, 0.037661847, -0.386332, 0.12511648, -0.121390946, 0.047329966, -0.22897772, -0.50030655, 0.30774698, -0.012219133}, {-0.22741522, -0.7107706, -0.7398876, -0.72404206, -0.14408186, -0.5624237, -0.7988892, 0.093895376, -0.44688195, -0.034424447, -0.92739594, -0.09295284, 0.057419203, -0.32987294, -0.07544942, -0.0020986423, -0.026871465, 0.002363514, -0.0478828, -0.6117428, -0.18748897, -0.22933473, -0.065545626, -0.26564956, -0.05500603, -0.2257688, -0.11209819, -0.16922617, -0.16166598, -0.23526694, -0.18671307, -0.06963126, -0.042839758, -0.2556562, -0.0062390375, 0.32790014, -0.07748902, 0.0463742, -0.13647267, 0.05532942, 0.052962407, 0.08274189, 0.10344343, 0.1063962, -0.1936839, 0.01626916, 0.5176149, -0.046657573, -0.34078044, 0.11191628, 0.16053356, -0.24603556, 0.088293105, 0.036075782, 0.5708628, -0.15010221, 0.12618417, 0.13593163, -0.12478336, 0.3014277}, {0.18464138, -0.102957554, -0.123058885, -0.1229495, 0.18399566, 0.025890142, 0.14978899, 0.17963842, 0.035857283, -0.27826345, 0.057049785, 0.0405178, 0.29389024, -0.14187197, 0.09459869, -0.6197517, -0.6587293, 0.12420435, -0.53479505, -0.06231479, 0.02036817, -0.0030874358, -0.056378145, 0.01769177, 0.13812685, 0.050292503, 0.0025892174, 0.1517158, -0.033438068, 0.13145246, 0.015194407, 0.061094742, 0.09603404, -0.0063099912, -0.17286874, -0.018930485, -0.009625822, 0.010272347, -0.12831418, 0.069696076, -0.1066104, -0.013673155, -0.19600527, -0.05667894, 0.2206837, 0.31718457, -0.15971975, 0.68892384, 0.2764546, -0.14537822, -0.24184722, 0.0061550005, -0.07762924, 0.034285415, -0.44690838, -0.054296847, -0.12590595, -0.099697195, 0.24350336, 0.069919266}, {-0.26552308, -0.82609415, -0.69297963, -0.4033684, -0.41648754, -0.7931411, -0.74369407, 0.1320061, -0.4495217, 0.13150302, -0.8964639, -0.033254266, 0.19128877, -0.30094272, -0.21825258, -0.120127, -0.12898141, -0.004610919, -0.0472142, -0.4432357, -0.09330528, -0.13463667, 0.09060715, -0.18017921, -0.1650311, -0.1633959, -0.1944497, -0.23761506, -0.15416874, -0.02400129, -0.18672645, -0.109971315, -0.055672556, -0.13956243, -0.03169891, 0.19861382, -0.08116647, 0.018757323, -0.10597762, 0.03698038, 0.17235358, 0.25482124, 0.08433838, 0.08837511, -0.06629767, -0.06832756, 0.3078948, -0.16423413, -0.13578933, 0.08795117, 0.064288445, -0.26862007, 0.13179761, 0.035085674, 0.576046, -0.18338452, 0.07924291, 0.1143281, -0.21065429, -0.039797906}, {-0.037053317, -0.3092134, -0.23779042, -0.22769117, 0.06393579, 0.037894193, 0.101664975, 0.030519111, -0.255326, 0.24486764, 0.019281607, -0.13731854, 0.0042056027, -0.37780535, 0.058075685, 0.6534541, 0.37351212, -0.16423973, 0.6519017, -0.15689816, -0.060375813, 0.14463614, -0.2052153, 0.0809818, -0.55646217, -0.38178897, 0.03385698, 0.16282724, -0.020941757, 0.060698483, -0.30464557, 0.012664255, -0.7217768, 0.15785974, -0.27041647, 0.10669947, 0.054477364, -0.75368065, -0.35297132, -0.19743194, -0.041011486, 0.34819904, 0.05587929, 0.00812934, -0.07838352, -0.61643505, 0.37543023, -0.74381495, -0.05681633, -0.0037049982, 0.024513884, -0.2842998, 0.0051708333, -0.5990903, 1.0716252, 0.07778707, -0.000326727, 0.042322718, -0.91649395, 0.42263895}, {0.044263445, 0.18840615, 0.15923087, -0.18914048, -0.1445003, -0.08803489, -0.105444595, -0.3202068, 0.0047666654, 0.31857494, -0.061018284, -0.13176933, -0.9517169, -0.09420729, -0.10681152, 0.43856707, 0.20439062, -0.029054055, 0.18615901, -0.074501224, -0.20013165, 0.110451184, -0.099562354, 0.115393765, -0.37334988, -0.12221458, -0.23180914, 0.17115021, -0.095524974, 0.1487251, 0.10135233, -0.18987407, -0.24248263, 0.18183526, 0.04312952, -0.17057356, -0.07358814, -0.2673558, -0.20327242, 0.09543782, 0.08410514, -0.1111663, 0.07371801, 0.013773, 0.13670395, -0.1150235, 0.049049765, -0.6584746, 0.12886262, 0.038801238, 0.032409724, -0.007553409, -0.00220388, -0.22439365, 0.3353508, 0.16525808, 0.026177859, 0.028236378, -0.33620897, -0.0892576}, {0.06702046, 0.23836458, 0.08857709, 0.11353755, 0.001417726, 0.024499292, -0.011858504, -0.035822034, 0.31657845, -0.21707341, 0.015298662, 0.1693586, 0.02129971, 0.1994134, 0.044818945, -0.76047426, -0.52566296, 0.024591692, -0.76076776, 0.25669873, 0.18579653, -0.036831573, 0.04436635, 0.0544361, 0.08037888, -0.07231734, -0.009132191, 0.106040634, 0.10986693, 0.090706065, 0.016413417, 0.029516473, 0.087630264, -0.029232763, 0.028270628, -0.57418776, 0.121747516, 0.06986763, -0.031064222, -0.09948271, 0.075030014, -0.5885399, 0.015397391, 0.016523454, 0.23126465, 0.08408459, -0.56112283, 0.4858346, 0.053386368, 0.06883353, -0.007460426, -0.011024682, -0.0072962022, -0.033958755, -0.88451195, 0.06363016, 0.11219742, -0.022020206, 0.0036828248, -0.4819968}, {0.09154491, 0.10412041, -0.18304057, -0.068205915, 0.09252824, 0.18807453, 0.004282071, 0.24786164, 0.06580517, -0.24028866, -0.03139099, 0.036478214, 0.24027666, -0.116965145, 0.13133898, -0.5173991, -0.56968343, 0.03627812, -0.45211685, -0.03979215, 0.007856045, 0.035268918, -0.10798719, 0.040300615, 0.08166755, 0.11565793, 0.012003229, 0.09615138, 0.0034954415, 0.031471238, 0.011664347, -0.035208076, -0.04052359, 0.06610768, -0.022176987, -0.098783895, 0.027594332, 0.015451621, -0.02244301, 0.045073822, -0.031259026, -0.012693086, -0.14914253, -0.1732846, 0.1300322, 0.30470896, -0.0584214, 0.6816589, 0.19381168, -0.18061522, -0.072830886, 0.08633836, -0.11321483, 0.1478936, -0.39464852, -0.0063770795, -0.06956417, -0.15179631, 0.19058618, 0.03449399}, {0.0498081, -0.17863384, -0.25704584, -0.26226783, 0.0037743056, 0.07263543, -0.054215908, 0.03329052, -0.20349376, 0.02831444, 0.090899274, -0.17344669, 0.009613164, -0.3638548, 0.025270082, 0.6276121, 0.3428374, -0.25713438, 0.56890804, -0.13879395, 0.05058215, 0.11552593, -0.2892671, 0.1344404, -0.44229087, -0.4614181, 0.06097488, 0.18050955, -0.04210496, 0.0042507136, -0.25069344, 0.09482546, -0.2457481, 0.18352912, -0.1639216, 0.13719088, -0.030098762, -0.6486715, -0.13267711, -0.41034213, 0.0134450225, 0.27902648, 0.00839385, -0.09183136, -0.049287207, -0.6458907, 0.43537763, -0.6628038, -0.09703333, -0.11242059, 0.04874986, -0.15452579, 0.01941765, -0.59132594, 0.95853853, 0.058470573, -0.017347887, -0.003421376, -0.92411953, 0.45712847}, {-0.2148719, 0.18232515, 0.20541972, 0.11492488, -0.1798736, -0.0991604, -0.04580968, -0.11902861, 0.20152725, 0.14588836, -0.080989964, 0.18682534, 0.034909386, 0.07012099, -0.0360209, -0.24673489, -0.031361658, -0.010960993, -0.084162325, 0.12820245, -0.18778521, 0.034290068, 0.15071085, 0.004533939, 0.13702242, 0.1122524, -0.09995355, -0.33194557, -0.1859037, -0.2968639, 0.07009037, -0.18868762, 0.104273304, -0.033909194, 0.23223013, -0.05616168, -0.16483651, 0.06143298, 0.1460329, 0.08729055, 0.12274443, -0.5710042, 0.11768868, 0.07652344, 0.49151996, -0.20812787, -0.7274537, 0.2902322, 0.16454825, 0.13410293, 0.17396313, -0.08362896, 0.16609004, -0.14941421, -0.6298341, 0.42545205, 0.0348071, 0.18299529, -0.16763017, -0.549381}, {0.11725703, -0.10099458, 0.004711494, -0.32137924, -0.099818155, 0.04197062, 0.013284753, -0.019418139, -0.34332332, 0.2764258, 0.077779494, -0.45446432, -0.009492528, -0.3908931, 0.010164996, 0.49766147, 0.54921246, -0.39722311, 0.6348696, -0.2998307, -0.1569163, 0.054773934, -0.20528771, 0.11907239, -0.32148474, -0.24829558, 0.03201626, -0.047600884, -0.041219804, 0.14245534, 0.122524455, -0.007824772, 0.08331456, 0.127146, -0.10128428, 0.17865965, 0.091624424, -0.19128089, -0.0134561425, -0.17453861, -0.009786947, 0.6244157, 0.10623946, 0.01583451, -0.020992681, -0.0670722, 0.71358365, -0.57242703, -0.038260628, 0.10983432, 0.101760246, -0.11855115, 0.08645221, -0.18984692, 1.0128193, -0.11354389, 0.05329418, 0.0013286876, -0.23023288, 0.75375557}, {0.027523356, -0.2705603, -0.24456996, -0.443749, -0.016032184, 0.014826038, 0.005734965, -0.014687351, -0.49410364, 0.30042416, 0.0060790223, -0.2853284, -0.025989791, -0.58420557, 0.018328201, 0.5412013, 0.20966084, -0.43177614, 0.27914417, -0.55824804, 0.03443235, -0.051344685, 0.02453244, 0.051243935, -0.52471495, -0.22267589, -0.010859729, 0.10065713, 0.096197516, 0.05570221, -0.15649223, 0.0303509, -0.7440776, 0.041676503, 0.061697446, 0.06264256, -0.01942545, -0.9722443, -0.42563316, -0.10172129, -0.024422808, 0.3293161, 0.09249227, 0.060685817, 0.017182957, -0.99622214, 0.24640815, -0.61345327, 0.02468365, 0.05914016, 0.0626405, -0.618015, 0.06296599, -0.8465907, 1.0942218, 0.030535294, -0.03676745, 0.0050008013, -1.1375523, 0.5761219}, {-0.011483176, 0.018367968, 0.06764244, 0.05365264, -0.06576939, 0.0022420997, -0.055183172, -0.10948546, 0.00894688, -0.10461977, -0.04139427, 0.28299436, 0.013717885, 0.10531281, -0.007234752, -0.55839574, -0.35826492, 0.13138232, -0.52614874, 0.13915336, -0.14425866, 0.16859171, -0.035765793, 0.05349352, 0.13314712, 0.11264816, -0.12556352, -0.012745406, -0.14107202, -0.059228748, 0.11754571, -0.17760158, 0.12084229, 0.10642594, 0.20020917, 0.033240266, -0.20266896, 0.15779963, 0.22255273, 0.08603187, 0.013564558, -0.517402, 0.05853498, 0.03378625, 0.111355826, -0.15556127, -0.6346603, 0.5847204, -0.06597104, -0.041851956, 0.018821415, -0.060298644, 0.13088316, 0.042035736, -0.7377112, 0.06757929, 0.09758597, 0.13911636, -0.06001848, -0.33774167}, {0.056745574, -0.1684923, -0.2843032, -0.039601978, 0.052354388, 0.1179278, 0.13930173, 0.15079589, -0.18627019, -0.3051268, 0.08064928, 0.06055393, 0.24033135, -0.024936784, 0.1802192, -0.7227782, -0.56281793, 0.09680198, -0.5948058, -0.22314453, -0.031705387, -0.05461483, 0.017262569, 0.02044731, 0.13136454, -0.0004399742, -0.013425105, 0.1974412, 0.051620994, 0.0872806, -0.032211665, 0.059000544, 0.046744313, 0.06565769, -0.10404388, -0.08950079, -0.033299312, 0.07963433, -0.027900122, 0.027967475, -0.08557806, -0.011114076, -0.16268222, -0.07178998, 0.09296169, 0.27481177, -0.18545762, 0.7410316, 0.27742952, -0.137412, -0.1372553, -0.0038036467, -0.17484172, 0.086899765, -0.34818855, -0.06089452, -0.08227038, -0.067529194, 0.2607654, 0.011673302}, {-0.057922307, -0.50082684, -0.5964693, -0.4390782, -0.062900975, -0.04355582, 0.0030893488, 0.12914431, -0.28541762, 0.022841644, -0.10397526, -0.10140261, 0.1366438, -0.34070078, -0.15893449, 0.35970804, 0.1838849, -0.20408025, 0.36356896, -0.40259692, 0.08422685, -0.3252997, 0.056805022, -0.2957343, 0.22212607, 0.081223436, 0.14044517, -0.17761078, 0.075888015, -0.10350311, -0.057549328, 0.100646034, 0.24567154, -0.23399238, 0.04449243, 0.34935495, 0.09643022, 0.119624086, 0.17224632, 0.07274047, 0.06778083, 0.43090183, 0.044424713, 0.08388185, -0.92156976, 0.039971218, 0.6519634, -0.45752162, -0.88793635, 0.052329797, 0.0027620993, 0.0179788, 0.09639297, 0.25972104, 0.8421653, -0.9625329, 0.045349885, 0.0048437235, 0.2664056, 0.6659364}, {0.08112722, 0.372778, 0.06315814, 0.13643251, -0.0089755235, 0.094938815, 0.029613834, -0.249217, 0.2479678, -0.29437053, -0.01973401, -0.16757984, -0.18184234, 0.111900605, -0.06386824, 0.0013004069, -0.5121925, -0.14469987, -0.022102294, 0.08671467, 0.09708926, -0.05290265, 0.05348581, -0.08948694, 0.0060246675, 0.06941065, -0.008581047, 0.019867368, 0.0015979274, -0.016875474, 0.09649185, 0.069678836, -0.055805147, -0.021090554, 0.103440605, 0.4509891, 0.13120191, 0.13940687, -0.09712122, 0.07837958, -0.3048725, -0.026680144, -0.44691148, -0.37151992, 0.24698623, 0.41230583, 0.36406276, 0.42464605, 0.20225208, -0.4479434, -0.37387174, 0.116618216, -0.50058544, 0.12335418, -0.030003017, 0.039082024, -0.20622051, -0.45495704, 0.013428775, 0.087099284}, {0.22062516, -0.18941309, -0.19167295, -0.13335729, 0.24170111, 0.07613346, 0.031947263, 0.057780784, 0.053439267, -0.7341078, 0.15750954, 0.120492026, -0.062449604, -0.09752091, 0.22641197, -0.51348174, -0.651411, 0.22468908, -0.57881415, -0.071025915, 0.0133539215, 0.00800918, 0.02197979, 0.059553552, 0.094629616, 0.08984216, 0.022523588, 0.25064197, 0.038966432, 0.20593312, 0.026577301, 0.027579118, 0.11863305, 0.10233881, -0.12009522, -0.009151606, 0.00014948862, 0.13184455, -0.15719365, 0.041833445, -0.10890676, -0.11679585, -0.086902335, -0.15847111, 0.15263931, 0.2943157, -0.17956036, 0.57359314, 0.20561321, -0.22416857, -0.2629078, -0.018893385, -0.20659505, 0.1236021, -0.45388848, 0.17190765, -0.16631778, -0.19785605, 0.30059373, -0.009683137}, {-0.12220819, -0.5489335, -0.5736524, -0.37857714, -0.25876197, -0.045563895, -0.08040217, 0.115858585, -0.000588201, 0.18999314, -0.09601192, -0.045698013, 0.12290322, -0.19179708, -0.22611496, 0.47915998, 0.12239507, -0.16821313, 0.38844818, -0.2751436, 0.074560195, 0.02239377, 0.08955222, -0.0028743893, 0.05752139, 0.2577457, 0.049331408, 0.15969798, 0.043279424, 0.12254479, 0.12246225, 0.06303994, -0.010369605, 0.0039786547, 0.100145586, 0.31906858, 0.12627685, 0.06699524, 0.117678374, 0.014697499, 0.099458106, 0.66845477, -0.060942795, 0.100178316, -0.84306353, -0.056038756, 0.510325, -0.33199504, -0.8709232, 0.07621991, 0.032250058, -0.24029317, 0.06552786, 0.09293614, 1.0162755, -0.7987649, 0.07101418, 0.082521364, 0.22305095, 0.83092624}, {0.14465868, -0.3461227, -0.22009271, -0.44974563, 0.06839078, 0.049122866, 0.046561826, 0.02403951, -0.2529643, 0.248296, 0.03753485, 0.05847992, 0.006178556, -0.28017032, 0.05804214, 0.3197777, 0.14749016, 0.13296697, 0.22842316, -0.5094806, -0.06172101, -0.18882623, -0.22215477, -0.10084667, -0.69606024, -0.58173954, 0.012986749, -0.18566638, -0.038136605, -0.060892913, -0.27671024, -0.03254923, -0.74821997, 0.021767965, -0.45340714, 0.3812656, 0.040170133, -0.58137554, -0.45935136, -0.21537979, -0.00226406, 0.41397572, 0.07187024, 0.06580943, 0.09201045, -0.85730654, 0.3389457, -0.2972665, 0.04328106, -0.007687239, 0.07830926, -0.4544304, 0.028898371, -0.65783995, 0.87894344, 0.17239788, 0.06303285, -0.052687917, -0.76238894, 0.57289803}, {-0.028945893, 0.044166993, 0.16055332, 0.21495375, -0.026439194, -0.003573279, 0.012372004, 0.013632449, 0.22992267, -0.20886758, 0.006343624, 0.24069808, 0.031542156, 0.21152309, 0.005319951, -0.5417173, -0.41029263, 0.088915415, -0.45147252, 0.14897399, -0.0024404312, 0.10764037, 0.11528685, -0.1198785, 0.09783244, 0.15341337, 0.1347353, 0.050364498, -0.07825149, -0.12694521, 0.04613343, 0.14137092, 0.118625626, 0.03274554, 0.15074149, -0.3369633, 0.030292207, 0.0633856, 0.0072339084, 0.13310488, -0.052580796, -0.48757508, -0.011681638, 0.07903225, 0.09812078, 0.022975992, -0.7207997, 0.6476511, 0.26211017, 0.115508854, 0.1338768, 0.123331666, 0.04977982, 0.068682544, -0.90359515, 0.08866879, -0.053853873, 0.11718652, -0.04948649, -0.53818005}, {0.037305053, -0.74962693, -0.8315064, -0.38290775, 0.006776171, -0.0056056743, -0.006162329, -0.018735938, -0.36163116, 0.1139825, -0.0005039465, -0.031128218, 0.11134913, -0.39412007, 0.0046942295, 0.40697858, 0.18003683, -0.20031804, 0.39648804, -0.20492417, 0.01482613, 0.009125003, -0.19017723, 0.0630734, -0.4461197, -0.26062793, -0.013567884, 0.065127805, 0.001967412, -0.02161445, -0.44285417, 0.02379395, -0.2457928, -0.032180466, -0.23579396, 0.123354845, -0.010393627, -0.5376223, -0.107532956, -0.3767371, -0.015269502, 0.24038689, 0.040436145, -0.06289972, -0.09058173, -1.054914, 0.3397294, -0.44194803, -0.13410226, 0.061145347, 0.046203274, -0.7608087, 0.041539345, -0.8248267, 0.9679537, 0.13425136, 0.03256515, 0.014765312, -1.0733601, 0.55848897}, {0.082195304, -0.7387698, -0.81576663, -0.30505097, 0.043089714, 0.014074308, 0.008866512, 0.056552034, -0.2792664, 0.07615072, 0.006760496, 0.08412655, 0.03181431, -0.19967034, 0.034891777, 0.54880875, 0.07409181, -0.06781859, 0.24078521, -0.28246453, 0.035385583, 0.0020612138, -0.5733724, -0.059114505, -0.9157549, -0.78236914, -0.013912101, 0.06832367, -0.005747801, 0.013553721, -0.6730155, 0.021669501, -0.7578799, 0.041776303, -0.4939486, 0.12341698, 0.013234579, -1.0373993, -0.61304677, -0.75514793, 0.03234148, -0.26715592, 0.040983815, 0.010883205, 0.13611293, -1.3119879, -0.33138224, -0.6670877, 0.16341995, -0.03960571, -0.008572116, -0.9015258, -0.0203643, -1.0389796, 0.4446494, 0.20214845, -0.044431143, -0.040673997, -1.3676906, -0.049192283}, {-0.05567247, 0.09674304, 0.30565938, 0.06422333, -0.034936585, 0.010100202, -0.006126466, -0.09379821, 0.05164113, 0.20759639, 0.0063177445, -0.051887482, -0.17559958, 0.12712103, -0.035143014, 0.568524, 0.48597458, -0.0028114617, 0.39929992, 0.14830461, 0.05622528, -0.09129209, 0.083035275, 0.12508564, 0.26221764, 0.18565002, -0.0071667307, 0.0753968, -0.006107466, 0.1347694, 0.24850005, -0.018954385, 0.3156459, 0.014457426, 0.15636277, 0.14633508, 0.026728127, 0.383306, 0.40173477, 0.24842827, -0.054217875, 0.54742134, 0.03417114, 0.037284795, -0.37825936, 0.59484035, 0.5882042, -0.5878825, -0.34309688, 0.04048617, -0.00077579607, 0.42757747, -0.006811857, 0.31265178, 0.7911973, -0.27691612, 0.014455208, -0.016780863, 0.6425419, 0.7513001}, {0.19626248, -0.08100898, -0.19648592, -0.4353443, 0.2095165, 0.15892246, 0.14899339, -0.016466241, -0.44442272, 0.14458846, 0.08427164, 0.094760835, -0.14321241, -0.30514705, 0.07458293, 0.1856839, 0.35562605, -0.06193297, 0.035024244, -0.42851156, -0.08810578, -0.034962114, -0.32893097, -0.038932953, -0.467357, -0.48002774, -0.07106788, -0.06533898, -0.12045816, -0.12577039, -0.27337354, -0.09035191, -0.42770872, -0.08027356, -0.18130702, 0.14378159, -0.04387663, -0.4640755, -0.52464044, -0.41306257, 0.16989037, 0.066680074, 0.086332284, 0.047891982, 0.35515502, -0.39242893, 0.54607946, -0.37450176, 0.26407355, 0.18050708, 0.03246161, -0.3415112, 0.05149788, -0.4233483, 0.85068595, 0.33134228, 0.076439254, 0.18106331, -0.46023616, 0.65773416}, {-0.086576335, 0.10489044, 0.16212253, 0.29224482, -0.045803577, 0.0010675169, -0.0041552465, -0.01389977, 0.22078025, -0.00965115, 0.05472277, 0.07158202, -0.015394176, 0.26052162, -0.018776739, -0.4471643, -0.35046977, 0.25633603, -0.43660834, 0.24481386, -0.03478123, -0.06161359, 0.2070474, -0.10855661, 0.04742892, -0.09628377, -0.011706157, -0.30545604, -0.013735964, -0.37543786, 0.0748503, -0.025191097, 0.121278934, -0.020528836, 0.1963199, -0.5724184, -0.028305883, -0.07038621, -0.045745254, -0.020762095, 0.19235806, -0.6932149, 0.18376417, 0.15971065, 0.41797525, -0.15923591, -0.7043452, 0.008408791, 0.376243, 0.11680088, 0.16090794, 0.057554025, 0.23557745, 0.045564227, -0.9600656, 0.22283874, 0.18702896, 0.20482261, -0.14767753, -0.7143325}, {-0.014553736, -0.65788704, -0.7754476, -0.5127045, 0.017271452, 0.011404093, 0.032487046, -0.012061466, -0.30057698, 0.310421, 0.014690633, 0.028610265, -0.0111935325, -0.26429075, 0.037321754, 0.4513292, 0.051284045, 0.03972099, 0.3006436, -0.2563448, 0.013603118, 0.04378326, -0.55229944, -0.021291083, -0.6652168, -0.5608372, -9.9974335e-05, 0.038105797, -0.0042486787, -0.03948149, -0.7665202, 0.021618044, -0.6889373, 0.034752607, -0.35440367, 0.028557628, 0.022542818, -0.9456784, -0.3721029, -0.8196316, 0.06495332, 0.062400907, 0.05697712, 0.041677445, 0.03570217, -1.2156911, -0.07794231, -0.5386865, 0.012478831, 0.02038049, -0.05106164, -0.91701955, -0.0044645444, -1.0289644, 0.7978431, 0.19782965, -0.0028362041, 0.013541302, -1.2276614, 0.0012357796}, {0.16910167, 0.1254694, 0.026290476, 0.21364361, 0.07449199, 0.04908377, 0.04995735, -0.26811707, 0.06087566, -0.16577858, 0.0030254985, -0.034044053, -0.31924734, 0.29435977, -0.0362355, -0.52964044, -0.4196172, 0.01632665, -0.5905665, 0.25548586, 0.1925879, -0.026807228, -0.08317968, 0.10384701, 0.11208159, 0.06345353, 0.17607377, 0.0026672136, 0.13577576, -0.0026722546, -0.04365599, 0.2016779, -0.098922886, -0.124292165, -0.11742904, -0.28997493, 0.09516173, 0.1748588, -0.05848765, -0.05430135, 0.026228089, -0.54169625, 0.09599093, 0.071553595, 0.036787163, 0.030624835, -0.6091403, 0.49429783, 0.018083042, 0.11762377, -0.050346263, 0.017956277, 0.051518895, -0.07800965, -1.0293214, 0.0075488314, -0.02311915, 0.035361726, -0.018320447, -0.61018354}, {-0.0431754, 0.14450599, 0.11369202, 0.13892002, -0.030228749, -0.03676899, -0.006283059, 0.10894239, 0.08781486, -0.08597067, 0.030082608, 0.10454233, -0.18580677, 0.09492728, -0.03695808, -0.5444391, -0.3623567, 0.14016357, -0.30311388, -0.0442214, -0.1263323, -0.016199738, -0.050285302, 0.17139095, 0.2370448, 0.2639691, -0.27354094, -0.041734304, -0.26943877, 0.08960169, 0.1493229, -0.26434436, 0.35132912, -0.04835164, -0.056952998, 0.08880356, -0.2515296, 0.3142245, 0.27216583, 0.04615484, -0.01409283, -0.48273072, 0.087990016, 0.0926172, 0.04997614, -0.133896, -0.7060849, 0.49597973, 0.010855724, 0.07960755, 0.119225845, -0.025784269, 0.028879223, 0.036705498, -0.85470283, -0.0044916063, 0.07449337, -0.027191503, -0.017699277, -0.19307795}, {-0.08946689, -0.8172409, -0.915553, -0.571231, 0.027507436, -0.0058052344, -0.03885672, 0.03318531, -0.5076308, 0.22960098, -0.01124945, -0.04432388, 0.02414753, -0.46391398, 0.01757897, 0.36906078, 0.086815104, 0.03665881, 0.329384, -0.39452875, 0.14606276, -0.037599508, -0.25246876, 0.06482999, -0.40660664, -0.3296365, 0.074999444, 0.09298233, 0.014837634, 0.1494289, -0.15596077, 0.0060855523, -0.17367883, -0.006967017, -0.24824896, 0.22480038, 0.14084873, -0.40895844, -0.04389971, -0.5433999, 0.0604302, 0.04139807, 0.073541954, 0.04604256, 0.006735695, -0.9634247, 0.36856005, -0.5460171, 0.05363455, -0.037232798, 0.10429133, -0.63266844, -0.019153709, -0.77602583, 0.77401966, 0.057198934, 0.026500689, 0.10833936, -0.8293634, 0.27608353}, {-0.016071534, -0.04529146, 0.21207403, 0.40092483, -0.08221067, -0.0898369, -0.06496061, -0.63517183, 0.22756527, -0.14550683, -0.07044404, -0.06239653, -0.54741156, 0.06588886, -0.20445813, -0.32359588, -0.13352723, -0.26192817, -0.41960427, 0.2566347, 0.0021224413, -0.06381681, 0.055311587, -0.075003736, -0.16415496, -0.008592554, -0.0020178275, -0.28666824, 0.035959467, -0.27575597, 0.0010556369, -0.009346137, -0.08388358, -0.06361586, 0.05187971, -0.17459077, -0.088234864, 0.043572262, 0.14837758, -0.007856592, 0.13705264, -0.56724113, 0.11246774, 0.08702716, 0.42553052, -0.25086194, -0.57416236, 0.28575513, 0.57456493, 0.18620169, 0.23963836, -0.082987785, 0.05107336, -0.1441103, -0.74772066, 0.50243825, 0.07439781, 0.17859174, -0.32634652, -0.8490725}, {0.016258767, -0.4937001, -0.54673743, -0.5766918, 0.069596596, 0.024527254, 0.022446744, -0.07005402, -0.398823, 0.2432045, -0.009232428, -0.010138179, -0.08346298, -0.4604653, 0.010116682, 0.46032384, 0.24785446, -0.16598469, 0.29672983, -0.41768923, -0.040977914, 0.060582414, -0.54303, 0.019686772, -0.6721413, -0.5079678, 0.01452629, 0.037081853, 0.018385159, -0.17044222, -0.71788627, -0.007937857, -0.5900993, -0.07354413, -0.5950086, -0.017927393, -0.076023445, -0.71636504, -0.59997684, -0.7382023, 0.049522303, 0.22865807, -0.022300502, 0.044249568, 0.19505027, -0.7352276, 0.32161227, -0.2795386, 0.24242702, 0.09439786, 0.06612116, -0.7501551, 0.013595805, -0.9003013, 0.903741, 0.16062485, 0.07432042, 0.091849424, -1.0315393, 0.39422715}, {0.063989915, -0.26067108, -0.23969483, -0.11908019, -0.09636192, 0.06636112, 0.03818729, -0.3008841, -0.031120714, -0.27305168, -0.012960851, 0.07319573, 0.01074789, 0.10792367, -0.12190698, 0.23483104, -0.06301157, 0.021995446, 0.07542747, 0.07554634, -0.057542026, -0.019364879, 0.07055985, -0.06868687, -0.025666514, 0.1661158, -0.09138173, -0.08073636, -0.14448483, -0.104358695, 0.12372459, -0.048081037, 0.013033956, 0.042675003, 0.09208919, 0.33486608, -0.12608269, -0.105689205, 0.18037042, 0.15752515, -0.049663406, -0.22192994, 0.12648025, -0.0058006477, 0.21700755, -0.051870763, 0.007220785, 0.27072752, 0.05370005, -0.07004168, 0.01071085, 0.02183212, -0.005749226, -0.08588888, -0.35904533, 0.14988506, 0.13353652, 0.012529849, -0.0718736, -0.1980764}, {-0.015302554, -0.5763856, -0.52281326, -0.3994789, -0.13601798, -0.04299828, -0.13229196, -0.03244407, -0.1802137, 0.0424526, -0.03429314, -0.18738244, 0.11399171, -0.25501814, -0.12675647, 0.6040751, 0.23709899, -0.24509946, 0.5458852, -0.35741514, 0.10972021, 0.019787738, -0.0013646937, 0.00025931944, 0.19386274, 0.14751042, 0.057587925, 0.08032514, 0.18687354, 0.0835271, -0.15418738, 0.1988891, 0.19580789, 0.019506725, 0.058005124, 0.34118855, 0.01768307, -0.058478326, 0.13259986, -0.05671254, 0.04449322, 0.37501204, -0.07969067, 0.04112874, -0.82296705, -0.09274147, 0.82524645, -0.4524259, -0.6145588, -0.018511442, 0.060149692, -0.06639967, 0.06673565, 0.062464353, 1.093816, -0.6201789, 0.05681641, 0.086577035, 0.12747666, 0.630913}};
static const float net2_1_bias[40] = {0.014214966, 0.15026437, -0.09201802, -0.11846751, 0.057676185, 0.089100756, 0.14166698, -0.051844638, 0.18421972, -0.052107506, 0.15235142, -0.076087326, -0.032105584, -0.0828622, 0.023074187, 0.030528786, 0.14825937, 0.014305802, 0.03334007, 0.0044281944, -0.0686003, 0.08832687, -0.09770896, -0.13595419, 0.117187984, 0.012455112, 0.08523244, 0.16726114, 0.20231201, -0.12993684, 0.108789735, -0.037017383, 0.09226489, 0.0998932, 0.014308013, 0.12931459, 0.101410866, 0.1302302, 0.053489156, 0.07909146};
static const float net2_3_weight[2][40] = {{-0.07282, -0.29797995, -0.20354247, -0.30405247, -0.36706495, 0.4265384, 0.35287496, -0.4127873, 0.6813059, -0.22368088, 0.49590918, 0.42992944, 0.34762162, -0.3795118, -0.37119165, 0.42041627, -0.46878085, 0.30851778, 0.59496295, -0.3767584, -0.40002596, 0.40843943, -0.59020686, -0.47643557, 0.35154945, 0.48839825, -0.34189203, 0.6925851, 1.1272317, 0.65450054, 0.49078178, -0.48819995, 0.93247443, -0.24600197, -0.4111048, 0.7144137, -0.5929406, 0.8096234, -0.33715263, 0.42070022}, {0.28525484, 0.4385128, 0.30765715, 0.3640315, 0.31468755, -0.29630685, -0.28510374, 0.56187165, -0.70094514, 0.41406125, -0.41044086, -0.46940088, -0.42629707, 0.17273527, 0.25763458, -0.4102009, 0.43109182, -0.16949, -0.8501811, 0.33257815, 0.20552929, -0.36644846, 0.43186784, 0.4057974, -0.43692183, -0.6311508, 0.25595796, -0.6295439, -1.0446494, -0.6696057, -0.37999916, 0.44138184, -1.055741, 0.19798788, 0.2653058, -0.63860184, 0.6553639, -0.71756804, 0.28798738, -0.28836372}};
static const float net2_3_bias[2] = {0.010797466, 0.06856422};

# endif